{
  "layers": [
    { "0": {}, "1": {}, "2": {}, "3": {}, "4": {}, "5": {}, "6": {}, "7": {} },
    {
      "0": {
        "bias": -10.939339692017288,
        "weights": {
          "0": 2.5736969901204345,
          "1": 1.5889066880104714,
          "2": 2.1638248328616934,
          "3": 4.243859194597902,
          "4": 2.576359631562192,
          "5": 1.5907968093221634,
          "6": 2.205992642324302,
          "7": 4.2434630448263935
        }
      },
      "1": {
        "bias": 2.5207643195249707,
        "weights": {
          "0": 6.364765500229687,
          "1": -8.306303864386205,
          "2": -4.345227759441275,
          "3": -2.6239374711738646,
          "4": 6.361602502670311,
          "5": -8.306022042146584,
          "6": -4.3403541037556925,
          "7": -2.623731489709845
        }
      },
      "2": {
        "bias": -13.18615624166407,
        "weights": {
          "0": 3.137656970456894,
          "1": 6.91705099860105,
          "2": 4.033133883900769,
          "3": 1.919086319686997,
          "4": 3.1300220953971905,
          "5": 6.923109462840425,
          "6": 4.060507522282991,
          "7": 1.9200125323867143
        }
      },
      "3": {
        "bias": 4.280071815134209,
        "weights": {
          "0": -2.7558348275137283,
          "1": -1.4718958924353729,
          "2": 1.0599068892867163,
          "3": -9.226263462952371,
          "4": -2.757052147287597,
          "5": -1.459511939019974,
          "6": 1.1369264831422237,
          "7": -9.227810195524652
        }
      },
      "4": {
        "bias": 4.65868295145612,
        "weights": {
          "0": 1.3463707032991392,
          "1": 0.3981445942893711,
          "2": -8.759151337174517,
          "3": -4.964163175557594,
          "4": 1.3437088183451107,
          "5": 0.4416529319909911,
          "6": -8.776058866449825,
          "7": -4.964120428727024
        }
      },
      "5": {
        "bias": 0.9803147290763441,
        "weights": {
          "0": -1.3881906408052462,
          "1": -1.0626860643100018,
          "2": -0.24228586087750958,
          "3": -0.5745527008954137,
          "4": -1.2015884205011813,
          "5": -1.5775095258590432,
          "6": -1.18164471265722,
          "7": -0.6129418359114845
        }
      },
      "6": {
        "bias": -4.252448112524478,
        "weights": {
          "0": 5.980486397007299,
          "1": -4.607500127604234,
          "2": 4.387574185727589,
          "3": 2.3508703959034594,
          "4": 5.97690336978594,
          "5": -4.583586967584403,
          "6": 4.385539715161682,
          "7": 2.350683023940463
        }
      },
      "7": {
        "bias": 4.560338551480294,
        "weights": {
          "0": 2.2547162786530595,
          "1": 1.2219876755050203,
          "2": -6.3534706550946884,
          "3": -3.3565693818277467,
          "4": 2.258063191197705,
          "5": 1.214787375177725,
          "6": -6.366976572458832,
          "7": -3.3559906113135627
        }
      },
      "8": {
        "bias": -10.22054119215571,
        "weights": {
          "0": -0.5602681756965738,
          "1": -0.590244943466164,
          "2": 3.3934811014798476,
          "3": 2.8814253072754696,
          "4": -0.5626122388640707,
          "5": -0.5875234329198765,
          "6": 3.4218359362540727,
          "7": 2.8810498654061902
        }
      },
      "9": {
        "bias": 12.460370101566122,
        "weights": {
          "0": -2.78566314614904,
          "1": -0.5828608414710537,
          "2": -6.884123192603065,
          "3": -3.902515636779309,
          "4": -2.7886985991938134,
          "5": -0.5787038506945865,
          "6": -6.856159168330872,
          "7": -3.9020016615986184
        }
      },
      "10": {
        "bias": 0.9100557685943728,
        "weights": {
          "0": -2.8312283819881015,
          "1": -3.5640326735916794,
          "2": 0.33306320716215704,
          "3": 1.2320633611833312,
          "4": -2.8435734498713567,
          "5": -3.5387387190275645,
          "6": 0.3636168384486703,
          "7": 1.2385862065503987
        }
      },
      "11": {
        "bias": 0.739409070151942,
        "weights": {
          "0": -0.12977320886899846,
          "1": -12.70230344281829,
          "2": 6.641788720012165,
          "3": 3.3132242075050806,
          "4": -0.12644678987542396,
          "5": -12.701333190073546,
          "6": 6.646298597051582,
          "7": 3.3130069264790087
        }
      },
      "12": {
        "bias": 4.187418841453544,
        "weights": {
          "0": -2.324330318818454,
          "1": -1.7887653626768598,
          "2": -1.7395881414487322,
          "3": -1.2222034095268541,
          "4": -2.3733134652810515,
          "5": -1.5969325744028773,
          "6": -1.1071261195734938,
          "7": -1.2148206729911424
        }
      },
      "13": {
        "bias": 0.843102098068869,
        "weights": {
          "0": 8.220201253795905,
          "1": -5.045315762198126,
          "2": -2.3782639935478422,
          "3": -1.058409635103036,
          "4": 8.22168111392853,
          "5": -5.048989988505995,
          "6": -2.380091313391703,
          "7": -1.0585166690637597
        }
      },
      "14": {
        "bias": 5.965007985151752,
        "weights": {
          "0": 4.798335716123868,
          "1": 2.01880575962945,
          "2": 0.9143413625418133,
          "3": -6.296907048133537,
          "4": 4.792895279754234,
          "5": 2.022958245016523,
          "6": 0.8765446018875191,
          "7": -6.2925176375508265
        }
      },
      "15": {
        "bias": -2.050454391853301,
        "weights": {
          "0": 4.439558071631846,
          "1": 2.8051068351709474,
          "2": 2.6585218078976696,
          "3": 1.0811752662597576,
          "4": 4.4806828347447585,
          "5": 2.7159473449361045,
          "6": 2.519978446221232,
          "7": 1.0767852026433504
        }
      }
    },
    {
      "0": {
        "bias": -4.132658406715076,
        "weights": {
          "0": 3.8244017009415505,
          "1": 4.582160206956276,
          "2": 7.1129251802434466,
          "3": 1.52166820807839,
          "4": 0.3840752961382515,
          "5": -2.020416270561003,
          "6": 1.3803691494010155,
          "7": 4.507747805427071,
          "8": -1.2548753775195816,
          "9": -5.281565763035327,
          "10": -4.635738363594668,
          "11": -2.4707896612230327,
          "12": -2.0667291544682307,
          "13": 5.707332748805378,
          "14": -0.3604941710798964,
          "15": 3.9848266713832237
        }
      },
      "1": {
        "bias": 6.693425095054368,
        "weights": {
          "0": -0.29230249739459013,
          "1": -20.80819139725296,
          "2": -12.801312196616644,
          "3": 1.962663948095255,
          "4": 0.9480739475849633,
          "5": -0.8589609153813038,
          "6": -6.707394735704797,
          "7": -4.796716021139187,
          "8": 5.129440395150687,
          "9": -5.497276166632397,
          "10": 0.19903660775610915,
          "11": -6.2746005999970045,
          "12": -0.18345694777492214,
          "13": 15.523078196758647,
          "14": -1.2456481323384452,
          "15": 8.963068489024995
        }
      },
      "2": {
        "bias": -1.5660862495076342,
        "weights": {
          "0": -1.0709695536455317,
          "1": 10.707490455163047,
          "2": 4.431957557112458,
          "3": 0.7354511080566208,
          "4": -11.89441051163861,
          "5": 1.1718516568282202,
          "6": 10.380237753796916,
          "7": -10.274221777330045,
          "8": 7.95085306174746,
          "9": 14.301843577968214,
          "10": 4.599457702916889,
          "11": -13.609564974070878,
          "12": 0.050196448151700525,
          "13": 0.8393252339658486,
          "14": -1.9270001710980897,
          "15": -5.735388647256181
        }
      },
      "3": {
        "bias": 1.2941845137033132,
        "weights": {
          "0": -10.0703341411496,
          "1": -0.10715157122861999,
          "2": -3.3234189535055476,
          "3": -18.640664183889093,
          "4": -15.428528410355648,
          "5": 2.230221116725654,
          "6": -2.891092658065618,
          "7": 9.89260371876763,
          "8": 12.327578095594035,
          "9": -5.457835443714814,
          "10": -2.13702889588524,
          "11": -1.4770855975832402,
          "12": 6.298549004618265,
          "13": 0.23697980587917075,
          "14": 12.478957044587611,
          "15": -1.8644655774616326
        }
      }
    }
  ],
  "outputLookup": false,
  "inputLookup": false,
  "networkData": {
    "n_bits": 4,
    "error": 0.001,
    "learningRate": 0.01,
    "trainingOptions": {
      "errorThresh": 0.001,
      "iterations": 100000000,
      "log": true,
      "logPeriod": 10,
      "learningRate": 0.01
    }
  }
}
