{"layers":[{"0":{},"1":{},"2":{},"3":{},"4":{},"5":{},"6":{},"7":{}},{"0":{"bias":-2.3541322012402963,"weights":{"0":2.416180485206088,"1":1.0103087472520642,"2":0.2871092105430607,"3":0.7670322852706659,"4":2.432537741803952,"5":0.9415961006439699,"6":0.412022736453563,"7":0.7238299321387669}},"1":{"bias":2.063793254756839,"weights":{"0":-2.6665267918677293,"1":-1.4458220442436835,"2":-0.5584310336001856,"3":0.8185799448484378,"4":-2.5972264527783504,"5":-1.4945500818033812,"6":-0.535863734519623,"7":0.7942770491256145}},"2":{"bias":0.9297608286971143,"weights":{"0":2.4476813396692876,"1":-3.711518477631995,"2":-1.7977354712371814,"3":-0.8735099240062298,"4":2.435354101424593,"5":-3.717811565476299,"6":-1.7683110849205508,"7":-0.8754114734741586}},"3":{"bias":-2.9757987359377758,"weights":{"0":1.479701611408229,"1":0.9658027400534671,"2":0.5246548808582755,"3":0.8403342283340787,"4":1.5589468830244968,"5":1.0341279407344932,"6":0.3046096151841444,"7":0.8704533970995296}},"4":{"bias":1.4648201343091751,"weights":{"0":-1.1893493351169602,"1":-0.9712220724861318,"2":-1.5043423909420963,"3":0.7463505981278734,"4":-1.2096541957414084,"5":-0.957797189478731,"6":-1.517854327113427,"7":0.7598565266097531}},"5":{"bias":-0.1613083192745514,"weights":{"0":3.5615995823549955,"1":-1.8222392943557333,"2":-0.9220235212072436,"3":-0.4693977433600716,"4":3.576373304554087,"5":-1.8024821965422853,"6":-0.9731315577030962,"7":-0.46179502741597767}},"6":{"bias":-1.664761399777626,"weights":{"0":1.1253425851937144,"1":0.6706865284249192,"2":-0.12012317215526443,"3":4.232157314496328,"4":1.1415475563698632,"5":0.6500687031735012,"6":-0.11487957527029337,"7":4.22737301988272}},"7":{"bias":-0.9227758481136917,"weights":{"0":1.2887475017900984,"1":0.2617804139470042,"2":0.15106981852060383,"3":0.6820914686399757,"4":1.1968931831321863,"5":0.1880377769270558,"6":0.3388189558173762,"7":0.6700886069845631}}},{"0":{"bias":-1.5073658282431235,"weights":{"0":4.452920408900265,"1":-5.322750435759816,"2":-0.11446001445708087,"3":3.6635548820495893,"4":-3.4682852823184396,"5":1.7888966804313962,"6":2.074761329026082,"7":2.083890132623996}},"1":{"bias":0.06454801234607388,"weights":{"0":-0.7038352032432957,"1":0.8900040759186814,"2":-6.011721357642037,"3":-1.8761227153018547,"4":0.732975305606471,"5":4.602857459963349,"6":-0.15214496562695246,"7":-0.026837012145210597}},"2":{"bias":0.06733912925744026,"weights":{"0":-0.8411867162913049,"1":0.8380358431730655,"2":0.4470152295873382,"3":-0.04105699380267453,"4":-1.493739196079396,"5":0.2796893021234874,"6":0.2204149543463738,"7":0.31119174404454775}},"3":{"bias":-0.5351843944140745,"weights":{"0":-1.422791257643328,"1":-1.1093485589500782,"2":0.37046120784984804,"3":-1.6331685571419414,"4":-1.343711913356972,"5":0.3222244086992935,"6":4.802571502081951,"7":-1.4546657420718985}}}],"outputLookup":false,"inputLookup":false}