{
  "layers": [
    {
      "0": {},
      "1": {},
      "2": {},
      "3": {},
      "4": {},
      "5": {},
      "6": {},
      "7": {},
      "8": {},
      "9": {},
      "10": {},
      "11": {},
      "12": {},
      "13": {},
      "14": {},
      "15": {}
    },
    {
      "0": {
        "bias": 6.727194546325588,
        "weights": {
          "0": -0.0014708360098915042,
          "1": 0.008403812235335838,
          "2": -0.0010756097355988064,
          "3": 0.0020300235850131973,
          "4": 0.010820179931214369,
          "5": -0.9135388799045194,
          "6": -2.0512756740603373,
          "7": -2.3668296358601353,
          "8": -0.0029666620895359022,
          "9": 0.0022047454599590354,
          "10": 0.004295871660797336,
          "11": 0.00664894851580243,
          "12": -0.0012446870641950897,
          "13": -0.9137980759988266,
          "14": -2.0511945606101833,
          "15": -2.362717245995949
        }
      },
      "1": {
        "bias": 32.52711816319828,
        "weights": {
          "0": -0.012771623691421465,
          "1": 0.016125956983982663,
          "2": 0.013820509090421956,
          "3": -29.306744194883986,
          "4": -16.021850569009683,
          "5": -9.100710639350979,
          "6": -4.546082042160316,
          "7": -2.282172854565404,
          "8": 0.003780264330982794,
          "9": 0.030443686917158982,
          "10": -0.014922101282125191,
          "11": -33.96677124877125,
          "12": -17.66738950264544,
          "13": -9.12823692719036,
          "14": -4.526821127223088,
          "15": -2.261887720794418
        }
      },
      "2": {
        "bias": -3.2470378720345283,
        "weights": {
          "0": -3.417650186541683,
          "1": -2.524341136030845,
          "2": -2.3568952424365825,
          "3": -2.34194525749894,
          "4": -2.6231375067327742,
          "5": -2.881473777379764,
          "6": -3.0247730426170825,
          "7": -3.2594802891118975,
          "8": -10.959544323696452,
          "9": -8.031341273528005,
          "10": -5.026043639101278,
          "11": -3.2381893223504647,
          "12": -2.1066451849166916,
          "13": -2.109358853427654,
          "14": -2.3214712877782513,
          "15": -2.778493871468016
        }
      },
      "3": {
        "bias": -18.522701745892274,
        "weights": {
          "0": -0.007243123869892117,
          "1": 0.00040421792310723254,
          "2": -0.00017670453740845223,
          "3": -0.005984432363340109,
          "4": 0.005152592017121758,
          "5": -5.0987904275265965,
          "6": -0.1544309208201743,
          "7": 13.767240745754597,
          "8": 0.0012292274821991854,
          "9": 0.0059847314895954086,
          "10": 0.0077819737108532185,
          "11": -0.003487887899555177,
          "12": -0.00962257374218733,
          "13": -5.097653848038877,
          "14": -0.1612361487895381,
          "15": 13.74133376851977
        }
      },
      "4": {
        "bias": 1.0317581206081115,
        "weights": {
          "0": -122.19820563067115,
          "1": 60.53029537362402,
          "2": 30.253555427232254,
          "3": 15.012035069756754,
          "4": 7.672834529279317,
          "5": 3.679911395457655,
          "6": 1.9523025096209903,
          "7": 1.197741602164722,
          "8": -121.70583921015621,
          "9": 60.21164318234254,
          "10": 30.26837084774022,
          "11": 15.049100985031627,
          "12": 7.670291083682341,
          "13": 3.699565743619831,
          "14": 2.388296312293417,
          "15": 1.1521711532422172
        }
      },
      "5": {
        "bias": 19.833250431369247,
        "weights": {
          "0": 0.001214559964335595,
          "1": -0.006078570765945056,
          "2": -0.008537773036692746,
          "3": 1.045992184602504,
          "4": 25.213390847142026,
          "5": -12.915830365622016,
          "6": -6.627170976855949,
          "7": -3.2013355084885635,
          "8": 0.003582335739345571,
          "9": -0.0021133140804518637,
          "10": 0.011555301871929864,
          "11": 1.2304189313746579,
          "12": -22.690788292933433,
          "13": -12.927505657608249,
          "14": -6.644327595740794,
          "15": -3.2270979675235028
        }
      },
      "6": {
        "bias": -6.064040135608022,
        "weights": {
          "0": -0.6871675345017814,
          "1": -0.9907331560887849,
          "2": -8.830990261412085,
          "3": 0.372918726840973,
          "4": -0.508994391415255,
          "5": -0.5062207640564034,
          "6": -0.7611455483849199,
          "7": -0.9479587686805191,
          "8": 3.2596824233889294,
          "9": -2.237915834698893,
          "10": -1.9524807433217943,
          "11": -1.2443580767360103,
          "12": -0.8665450054969376,
          "13": -0.42467293344751833,
          "14": -0.402630236940456,
          "15": -0.6747441057805271
        }
      },
      "7": {
        "bias": -17.004651039481285,
        "weights": {
          "0": -0.07495478534258893,
          "1": 20.812878104480657,
          "2": 3.5897403129034124,
          "3": 1.46450839008001,
          "4": 1.238818906145899,
          "5": 0.5386135043408012,
          "6": 0.510710167725292,
          "7": -3.2039183058221345,
          "8": -0.08776592090588664,
          "9": -5.930654683718607,
          "10": 3.9075314081784027,
          "11": 1.6550673456499938,
          "12": 1.2980447116301905,
          "13": 0.5731098944056536,
          "14": 0.5791370173208632,
          "15": 3.152117488329099
        }
      },
      "8": {
        "bias": 5.436900152252087,
        "weights": {
          "0": 0.08795679411319254,
          "1": -8.14945376215554,
          "2": -1.398773501736553,
          "3": -4.808419047901675,
          "4": -2.915430945797697,
          "5": -1.340289750842936,
          "6": -0.5331968296337724,
          "7": 4.6446474955070425,
          "8": -0.3288945057733169,
          "9": -9.3215820263992,
          "10": -8.812554465695097,
          "11": -4.79944546837673,
          "12": -2.7028735036754297,
          "13": -1.38068534536267,
          "14": -0.5433694377992742,
          "15": -4.705500939505429
        }
      },
      "9": {
        "bias": 44.326727191159605,
        "weights": {
          "0": -31.075592313430835,
          "1": -8.611823300496324,
          "2": -4.267875525815971,
          "3": -1.799081291286048,
          "4": -0.9837872766015829,
          "5": -0.6004048499956056,
          "6": -5.6928320723682555,
          "7": -1.6146765609801816,
          "8": -30.494980550062575,
          "9": -8.927781648971033,
          "10": -4.231731589157277,
          "11": -2.043280676136133,
          "12": -1.0245561458625119,
          "13": -0.6933647384604376,
          "14": 5.519213313429366,
          "15": -1.5696959386167602
        }
      },
      "10": {
        "bias": -70.28487705911654,
        "weights": {
          "0": -0.16194971342437936,
          "1": -69.85260259711573,
          "2": 35.29646836398337,
          "3": 17.826849128335454,
          "4": 8.912252154027685,
          "5": 4.545498298133294,
          "6": 2.2495721394197865,
          "7": 1.2649165232354587,
          "8": -0.18679829819800925,
          "9": 69.32840932909271,
          "10": 35.22047474204247,
          "11": 17.828680604468385,
          "12": 8.851269043067429,
          "13": 4.5486645127536685,
          "14": 2.207969132989503,
          "15": 0.9910184753955635
        }
      },
      "11": {
        "bias": 9.141342758839514,
        "weights": {
          "0": -20.895214881368425,
          "1": 18.23275053457268,
          "2": 9.010783857969942,
          "3": 4.602842366508613,
          "4": 2.307133450498467,
          "5": 1.1295749607556487,
          "6": 0.48504814901058857,
          "7": 0.2453662540473972,
          "8": -24.568614393715865,
          "9": 18.21565372966195,
          "10": 9.00709852830882,
          "11": 4.610186590942085,
          "12": 2.3056541371964694,
          "13": 1.1354443841637456,
          "14": 0.6787930430840837,
          "15": 0.2360755901622667
        }
      },
      "12": {
        "bias": 10.121340478781876,
        "weights": {
          "0": 0.015856893349302344,
          "1": -0.017817319429233806,
          "2": 0.005742253425570588,
          "3": -0.020056082559315003,
          "4": -0.019434789878167377,
          "5": 1.0730260146155166,
          "6": -17.979120213149006,
          "7": -9.022689523130431,
          "8": 0.030362443511222602,
          "9": 0.01688401780614704,
          "10": 0.023505441998666998,
          "11": -0.02259019131502975,
          "12": 0.13549112441610117,
          "13": 1.026780958205039,
          "14": -18.07427813432248,
          "15": -9.047292509124544
        }
      },
      "13": {
        "bias": 6.320501124843433,
        "weights": {
          "0": -0.01654286530286522,
          "1": -0.1605422247075865,
          "2": 20.308889577264498,
          "3": -12.657021639442334,
          "4": -6.478114292202784,
          "5": -3.119660498742937,
          "6": -1.6532140518661513,
          "7": -0.5086762812805978,
          "8": 0.10867874953603407,
          "9": 0.09024290819584804,
          "10": -28.368809051943867,
          "11": -12.594034871238634,
          "12": -6.44218199676767,
          "13": -3.132369305596335,
          "14": -1.5771997234436979,
          "15": -1.0820139555019184
        }
      },
      "14": {
        "bias": 78.39949061744207,
        "weights": {
          "0": 0.04121835267322807,
          "1": -0.08997589468158469,
          "2": -0.1321144885471919,
          "3": -40.24492563559131,
          "4": -20.339742827615826,
          "5": -9.682781903997192,
          "6": -4.849850408734837,
          "7": -2.4598501242093818,
          "8": 0.0019249806681183013,
          "9": 0.10918349615573388,
          "10": -0.03513201547262773,
          "11": -40.283155969267504,
          "12": -20.38545426385992,
          "13": -9.70824272790034,
          "14": -4.855142745394465,
          "15": -2.4205797929486206
        }
      },
      "15": {
        "bias": -7.599933400704605,
        "weights": {
          "0": -0.00572178692943496,
          "1": 0.19881738997323198,
          "2": -10.442393117591584,
          "3": 1.9433231597131881,
          "4": 1.0486770679883346,
          "5": 0.4470837945832395,
          "6": 0.17812398295533138,
          "7": 0.11266251215643135,
          "8": -0.008030879680097244,
          "9": -0.3952357538943041,
          "10": 5.693657277901275,
          "11": 1.9583588320838674,
          "12": 0.9542773872682359,
          "13": 0.4372681454024754,
          "14": 0.19392274477948887,
          "15": 0.19386494370222376
        }
      },
      "16": {
        "bias": -4.222318335040281,
        "weights": {
          "0": 0.9310814836274393,
          "1": -1.7831777180066415,
          "2": -0.9358833844024635,
          "3": -0.8317726520573647,
          "4": -0.9984478877673162,
          "5": -1.061841097833807,
          "6": -1.1141963010381668,
          "7": -1.1610792570490693,
          "8": -6.265948409954976,
          "9": -6.701936502725449,
          "10": -3.976678493743585,
          "11": -2.9967808266413742,
          "12": -1.8519329697621503,
          "13": -1.2727961623596968,
          "14": -1.1194963119960495,
          "15": -1.3429379078569874
        }
      },
      "17": {
        "bias": 20.79767768333583,
        "weights": {
          "0": 0.039704384337496616,
          "1": -0.01799508522858271,
          "2": -21.497831716384272,
          "3": -11.013510198558059,
          "4": -5.5231823666152735,
          "5": -2.7485316208371544,
          "6": -1.357977484780613,
          "7": -0.6880237593383186,
          "8": -0.016180276972836184,
          "9": 0.0024300672117887737,
          "10": -24.53984302560792,
          "11": -11.036081076632486,
          "12": -5.528443708147418,
          "13": -2.7560371684635716,
          "14": -1.3796709757730212,
          "15": -0.6908774758614968
        }
      },
      "18": {
        "bias": -3.275435351091748,
        "weights": {
          "0": -0.025912387570222795,
          "1": 0.006246284223684789,
          "2": 0.02806938067448362,
          "3": 2.1194976807858397,
          "4": 1.1952526354597592,
          "5": -0.017447559600308873,
          "6": -0.022539688758242877,
          "7": -0.006268303494105968,
          "8": -0.014161419785778532,
          "9": 0.0026385276303750125,
          "10": -0.025936483680463304,
          "11": 2.206834122173595,
          "12": 0.9834643826049001,
          "13": -0.00856733785548149,
          "14": -0.01179858732687319,
          "15": -0.008132564396584954
        }
      },
      "19": {
        "bias": 23.391696938421752,
        "weights": {
          "0": 0.011495413659969131,
          "1": -0.0014373219335795408,
          "2": 0.03582296221674088,
          "3": 0.728417990434571,
          "4": -24.114892114004416,
          "5": -12.591728542371605,
          "6": -6.306385266584773,
          "7": -3.235234586814416,
          "8": -0.03529589782808086,
          "9": 0.018384773498943276,
          "10": -0.014886129196900202,
          "11": -2.125433029195993,
          "12": -23.696943611238673,
          "13": -12.58416322879719,
          "14": -6.320354913000392,
          "15": -3.220883847021299
        }
      },
      "20": {
        "bias": 10.522764455355972,
        "weights": {
          "0": 0.2043785518420954,
          "1": -0.1345633966394158,
          "2": 0.048391124240728334,
          "3": -0.12298672294472883,
          "4": 0.03105433968881843,
          "5": -12.137682022300737,
          "6": -1.3716623140354618,
          "7": -5.166888396427648,
          "8": 0.3780261313585951,
          "9": 0.059427808505282995,
          "10": 0.17851585155846272,
          "11": -0.054723310929673745,
          "12": 0.3872491823459578,
          "13": -12.26361750343519,
          "14": -1.242232955136695,
          "15": -5.1676220098109145
        }
      },
      "21": {
        "bias": -1.267121370629202,
        "weights": {
          "0": 7.423795706757444,
          "1": -1.9328260887025577,
          "2": -0.8347952291983253,
          "3": -0.8590075712123368,
          "4": -0.43712016726803893,
          "5": -0.2311737245580782,
          "6": -4.218974695495221,
          "7": -2.3007085240795146,
          "8": 7.237613145932203,
          "9": -2.218765716938213,
          "10": -0.9626384186580805,
          "11": -0.5982774989565535,
          "12": -0.5140132245233997,
          "13": 0.060988206804469626,
          "14": 3.8808095861191134,
          "15": -2.333922181488493
        }
      },
      "22": {
        "bias": -2.6850909709355757,
        "weights": {
          "0": 0.06847203462922828,
          "1": -4.114899441852919,
          "2": 0.028262719200662575,
          "3": -19.567857146370272,
          "4": 14.89777119508648,
          "5": 6.933899236120613,
          "6": 3.5184418707908174,
          "7": 1.298189196551762,
          "8": -0.0011582383090934366,
          "9": 2.196010048191343,
          "10": 0.19173853995772103,
          "11": 29.69889394325354,
          "12": 15.039377478644925,
          "13": 7.0814002395026,
          "14": 3.454125373538854,
          "15": 2.246922229438138
        }
      },
      "23": {
        "bias": -3.575222650327865,
        "weights": {
          "0": 4.3774710149559795,
          "1": 0.8728652331825013,
          "2": 0.2320311513304368,
          "3": 0.22599827849775941,
          "4": -1.1294151720027352,
          "5": -0.859455087528221,
          "6": 0.4447092680518295,
          "7": 0.17987918764529923,
          "8": -3.3087376773264006,
          "9": -6.810008729353161,
          "10": -6.780401853092964,
          "11": -3.9832014109863816,
          "12": -2.050241005145547,
          "13": -1.4197583269368188,
          "14": -1.5133014351656409,
          "15": -0.8072041333390914
        }
      },
      "24": {
        "bias": -1.4253960349392747,
        "weights": {
          "0": 0.002246650066985714,
          "1": -0.010310754999042063,
          "2": -0.0010586101227361912,
          "3": -0.002181065316006898,
          "4": -0.020588542168207057,
          "5": 0.5085941236753622,
          "6": 1.2419397619572456,
          "7": -10.78410313268291,
          "8": -0.0007694940823979446,
          "9": 0.005112145831361219,
          "10": 0.0021622515512575683,
          "11": -0.005630680395599435,
          "12": 0.027736182893917192,
          "13": 0.5124282219180062,
          "14": 1.2436028923298674,
          "15": -11.009992138617061
        }
      },
      "25": {
        "bias": 36.10946223036365,
        "weights": {
          "0": 0.019763411613560537,
          "1": -0.26372076648647064,
          "2": -0.07200873211173489,
          "3": -0.07924929505111376,
          "4": 1.2042895377346783,
          "5": -19.420429868143174,
          "6": -10.565943421163164,
          "7": -4.298158329230128,
          "8": -0.030739047241528428,
          "9": -0.23427792257682695,
          "10": 0.0021439477221896425,
          "11": -0.033834517937505956,
          "12": 0.42924370419179503,
          "13": -19.489614474944933,
          "14": -10.597517601026272,
          "15": -4.560928117326767
        }
      },
      "26": {
        "bias": 45.18391753450769,
        "weights": {
          "0": -0.0026872272621809032,
          "1": 0.04382960471221034,
          "2": 45.539746698894724,
          "3": -23.235674711421005,
          "4": -11.582348965331589,
          "5": -5.809757058821046,
          "6": -2.902414425181798,
          "7": -1.4515186129458253,
          "8": -0.009280020473899624,
          "9": -0.12326061036381349,
          "10": -45.00228413947864,
          "11": -23.23910784851644,
          "12": -11.611305073321972,
          "13": -5.817472334671297,
          "14": -2.9293620886212137,
          "15": -1.444168437180076
        }
      },
      "27": {
        "bias": 55.74195766670185,
        "weights": {
          "0": -0.22137873318404294,
          "1": -28.0944446471087,
          "2": -14.225394615398388,
          "3": -6.907991163476066,
          "4": -3.4486862203142934,
          "5": -1.5631180808373637,
          "6": -0.8408053365878286,
          "7": -0.4308842768031167,
          "8": -0.23516554756082408,
          "9": -28.638249700191,
          "10": -14.234994115705751,
          "11": -6.866137953848319,
          "12": -3.5168021134640486,
          "13": -1.5472730673492865,
          "14": -0.8759414275029972,
          "15": -0.39266625392331683
        }
      },
      "28": {
        "bias": 5.721965084810468,
        "weights": {
          "0": 1.6704504742103563,
          "1": 1.4219635853538424,
          "2": 2.2213414750303024,
          "3": 0.8649408050319457,
          "4": 1.1875178017040102,
          "5": 0.9128342736272295,
          "6": 1.2208102157966787,
          "7": 1.124739935324811,
          "8": 0.9662115280008556,
          "9": -0.07057934299029185,
          "10": -1.7751808418452157,
          "11": 2.2335080777324023,
          "12": 1.8883508376189468,
          "13": 1.4545077312426387,
          "14": 1.4821230760132171,
          "15": 1.2846424130509784
        }
      },
      "29": {
        "bias": -0.16278631101805777,
        "weights": {
          "0": -0.17054073447502946,
          "1": -0.1703248435833326,
          "2": -0.06751903853368299,
          "3": -1.453589362407583,
          "4": 25.370519323564217,
          "5": -11.552662259795662,
          "6": -5.526697680120983,
          "7": -3.0610420088638013,
          "8": -0.03630957178989425,
          "9": -0.0021931902872943682,
          "10": -0.026053030973126005,
          "11": -1.0775215321320055,
          "12": -25.23678835767078,
          "13": -11.5470477474719,
          "14": -5.699415873836761,
          "15": -2.977342023845707
        }
      },
      "30": {
        "bias": -8.550097632491187,
        "weights": {
          "0": -11.13646704055904,
          "1": -1.058629082343258,
          "2": -4.683795924882836,
          "3": -1.653770604592743,
          "4": -1.0012524909790192,
          "5": -0.7005172000919148,
          "6": 4.278809927149503,
          "7": 2.106923604287784,
          "8": 15.822960473278952,
          "9": -12.75600354759542,
          "10": -4.319406860560766,
          "11": -1.7902157625262214,
          "12": -0.9204069067397453,
          "13": -0.6835245113472223,
          "14": -5.145388351842877,
          "15": 2.214160895998478
        }
      },
      "31": {
        "bias": -0.20914140386029123,
        "weights": {
          "0": -0.8312883750414563,
          "1": -1.2626327769353982,
          "2": 0.2701573973783252,
          "3": -1.1907193270863725,
          "4": -0.9652523510350044,
          "5": -0.7191370230234284,
          "6": -0.6842544274600842,
          "7": -0.827028007462091,
          "8": -0.754439852164949,
          "9": -0.9397412894455414,
          "10": -1.144372286862452,
          "11": -5.355103770954903,
          "12": -3.156154889237255,
          "13": -1.5695471684991282,
          "14": -1.2001629596196135,
          "15": -0.6481194442314475
        }
      }
    },
    {
      "0": {
        "bias": 21.410908834436402,
        "weights": {
          "0": 3.121799228517777,
          "1": 3.1466039400524712,
          "2": -14.66412887219825,
          "3": 4.744112580115616,
          "4": 3.6935104032453427,
          "5": 1.7554733656284205,
          "6": 2.9101352765001294,
          "7": -0.804455114805024,
          "8": -0.5576340396458279,
          "9": -25.02514040781341,
          "10": -2.5765523925151403,
          "11": -19.93137787538183,
          "12": 1.3283060776541007,
          "13": -2.182825691465823,
          "14": -12.854058147503673,
          "15": 5.786335329641637,
          "16": -8.851885530453721,
          "17": 1.0704473693195193,
          "18": -9.577093326553406,
          "19": 1.190239818177371,
          "20": 4.259428787088066,
          "21": 8.191612777108038,
          "22": 0.10485632502478186,
          "23": -6.764778561960907,
          "24": 2.778479475310758,
          "25": -3.4613901760195316,
          "26": 6.314562305917147,
          "27": -21.826973867036234,
          "28": 12.461674249350565,
          "29": -1.1476544761327376,
          "30": -6.447206400490891,
          "31": -1.1347199664920575
        }
      },
      "1": {
        "bias": -4.894424732809755,
        "weights": {
          "0": 0.16967443909631333,
          "1": 1.001771750475088,
          "2": 3.755387463047498,
          "3": 1.2748630788318347,
          "4": -68.49744595442819,
          "5": 0.3533432256062021,
          "6": 6.487999809839524,
          "7": 1.8338426831145243,
          "8": -10.233450291568857,
          "9": 41.6330913406401,
          "10": 0.41060423216350495,
          "11": 33.79732333957125,
          "12": 1.5421528226302865,
          "13": -0.8054065241315436,
          "14": -0.4143210143663445,
          "15": 0.03913201681100651,
          "16": 6.776639873001294,
          "17": 0.11131940059952372,
          "18": 0.9145341551007967,
          "19": 0.4647641495546167,
          "20": 0.8256892836319599,
          "21": -11.478024982200813,
          "22": 0.3378916590260568,
          "23": 5.8121925070434095,
          "24": 1.4096343567936467,
          "25": -2.4875515344939423,
          "26": 0.6362595493102711,
          "27": -13.030023623324652,
          "28": 2.4617965846615633,
          "29": -0.07320607141685842,
          "30": 13.529377934441857,
          "31": -2.4126947338386326
        }
      },
      "2": {
        "bias": -24.008201426154784,
        "weights": {
          "0": -2.718286161561267,
          "1": 1.878265229266066,
          "2": 3.069348280828317,
          "3": -1.8721028793408987,
          "4": -1.665043932531743,
          "5": -1.1051181044290117,
          "6": 3.7186336980113857,
          "7": 41.16887393422041,
          "8": -12.673106454500356,
          "9": -0.6501279357945926,
          "10": 46.38247396908296,
          "11": -1.061567906985136,
          "12": -1.0788716300223569,
          "13": 6.480971879292446,
          "14": -0.09054146541972462,
          "15": 7.112923012614981,
          "16": -0.02731601035671003,
          "17": 9.054315765755312,
          "18": -0.6423212573796888,
          "19": -0.7681793932408596,
          "20": -1.949502137768372,
          "21": 0.8987208641172788,
          "22": -6.691621776757766,
          "23": 4.592720486489188,
          "24": 0.21787377587105888,
          "25": 5.697111895996138,
          "26": 0.5701145573102371,
          "27": 33.64969371463026,
          "28": -30.167152408823064,
          "29": 0.12901648133492674,
          "30": 0.0689513762889496,
          "31": 1.6592118653774952
        }
      },
      "3": {
        "bias": 6.471153446603653,
        "weights": {
          "0": 0.3674321800767835,
          "1": 4.960876587182322,
          "2": 1.0746922401904035,
          "3": -0.8979495121219258,
          "4": -0.34477371584143496,
          "5": -0.2185807088751728,
          "6": 8.236351394402842,
          "7": 0.5818885383783389,
          "8": -0.32851919084270337,
          "9": 0.0733942988955481,
          "10": -1.819771658639994,
          "11": -0.12495666382652837,
          "12": -0.5664140119979835,
          "13": 29.860669514891303,
          "14": 11.318487729933985,
          "15": -29.529547146588392,
          "16": 0.11183019971361105,
          "17": -24.544714860075207,
          "18": 0.14580245131217942,
          "19": -0.8043775912825714,
          "20": -0.40711588317565617,
          "21": -0.620214685347014,
          "22": 0.9828400403742751,
          "23": 3.284213209509464,
          "24": -1.3203022974111762,
          "25": 1.72870213381641,
          "26": -49.825174287345476,
          "27": 1.3566790829545738,
          "28": 12.869052120253444,
          "29": 0.40494464458653184,
          "30": -0.36312043164812235,
          "31": 1.228960625577244
        }
      },
      "4": {
        "bias": -8.410132446599077,
        "weights": {
          "0": -0.3143448246081286,
          "1": -35.234388723548776,
          "2": 0.4158851423279152,
          "3": 0.5193054175526988,
          "4": -0.0834799242751647,
          "5": 7.19906527140525,
          "6": 0.04193515735931892,
          "7": -0.14883237516459602,
          "8": 0.12273959282579287,
          "9": -0.12462579283322092,
          "10": -0.10956714262199595,
          "11": -0.028451514535042178,
          "12": 0.26976051524630323,
          "13": -0.14513107848867543,
          "14": 57.69928814410309,
          "15": 0.43597067936291,
          "16": -1.332140406245735,
          "17": 0.010642151254284589,
          "18": 62.13428055314166,
          "19": -5.0122682796280005,
          "20": -0.2619120440365531,
          "21": 0.007577335845357747,
          "22": -29.6442743415258,
          "23": -0.08805363392035251,
          "24": 0.3573547124381142,
          "25": -10.560376518328717,
          "26": -0.20714496641165128,
          "27": 0.02136444654091481,
          "28": -12.00677074428931,
          "29": -9.561641055531775,
          "30": -0.1195238563934248,
          "31": 3.2743773473879387
        }
      },
      "5": {
        "bias": -9.944229510561373,
        "weights": {
          "0": -0.5992012436275741,
          "1": 20.68948836335797,
          "2": -0.012071001179808732,
          "3": -0.6073478490862523,
          "4": -0.27806723761157714,
          "5": -36.47325448402048,
          "6": -0.17009529119796246,
          "7": -0.10642802403073948,
          "8": -0.5188173954747372,
          "9": -0.11251243762987188,
          "10": -0.08328659060038422,
          "11": -0.17943362306296784,
          "12": -0.11816872751093736,
          "13": -0.3099184162031508,
          "14": 27.919749873551645,
          "15": 1.0273346508994046,
          "16": -0.5268120247292044,
          "17": -0.022391360918775405,
          "18": 61.75571359553901,
          "19": -30.884616228766195,
          "20": 2.5120328091055746,
          "21": -0.2277242062195341,
          "22": -16.171894281228152,
          "23": -0.22592562143020586,
          "24": 0.0666440357002789,
          "25": 4.777084600071915,
          "26": 0.4191023062477129,
          "27": -0.20662375540765013,
          "28": -10.825763292675369,
          "29": 28.19637722900382,
          "30": -0.15970779383969547,
          "31": 0.14454419025378645
        }
      },
      "6": {
        "bias": 7.379669926988965,
        "weights": {
          "0": -61.81667946788008,
          "1": 0.04977127724203406,
          "2": 0.2597608320946603,
          "3": -19.11707374904164,
          "4": 0.05461462427224805,
          "5": 0.1668759553360574,
          "6": 0.5205036779028526,
          "7": 0.14350398067696382,
          "8": -0.2576819623963232,
          "9": -0.0005499216968019825,
          "10": 0.06317777887814223,
          "11": 0.06949972764227888,
          "12": 1.1010071107134034,
          "13": -0.13357778425118289,
          "14": 0.3167990509830113,
          "15": 0.05969557605356199,
          "16": -0.13516253577910875,
          "17": -0.09117199126106798,
          "18": 0.34232155020221416,
          "19": 0.14973931835092943,
          "20": -31.840717962958326,
          "21": 0.0161523904130472,
          "22": 0.3520539822772987,
          "23": 0.00021145152845331624,
          "24": 35.23281725642061,
          "25": 54.90804788380017,
          "26": 0.015768166229601165,
          "27": 0.028010759800612697,
          "28": 8.273421544315813,
          "29": -0.49713722277748434,
          "30": 0.13198053577151048,
          "31": -0.3039992137499666
        }
      },
      "7": {
        "bias": -13.235728321406258,
        "weights": {
          "0": 61.07322180376456,
          "1": -0.06911486112724656,
          "2": -0.2734580338217595,
          "3": 0.7199224576089884,
          "4": -0.055818221902960145,
          "5": -0.032725208210474845,
          "6": -0.14698483779001514,
          "7": -0.13461796248375107,
          "8": -0.06973963653725504,
          "9": -0.06690160601674687,
          "10": 0.02967284645381497,
          "11": -0.003129446456131181,
          "12": -35.33830779682292,
          "13": -0.019038261034721057,
          "14": -0.24425727221564728,
          "15": 0.029074631755158342,
          "16": 0.2847208963316307,
          "17": -0.03510972312373859,
          "18": -0.5736028332850973,
          "19": -0.3776945022913594,
          "20": -5.78387870998927,
          "21": -0.02345099762435007,
          "22": -0.033999018588449684,
          "23": -0.17949047716845556,
          "24": -33.25639717639179,
          "25": -5.134096074218446,
          "26": 0.05170282540863718,
          "27": -0.004036304089073992,
          "28": -15.10176993110646,
          "29": -0.5180937145018728,
          "30": 0.05802884389293338,
          "31": 0.1610976568451433
        }
      },
      "8": {
        "bias": 2.368269791528945,
        "weights": {
          "0": 5.053101236507386,
          "1": -0.0005231878364223248,
          "2": -0.2391884210328411,
          "3": -53.10996231323768,
          "4": -0.01280921644761222,
          "5": 0.10817021836208453,
          "6": 0.11182080943868891,
          "7": -0.032143696197160225,
          "8": 0.3405793168632449,
          "9": -0.008753831631578177,
          "10": 0.03468157702963469,
          "11": 0.021783770117391174,
          "12": -3.4953752581071442,
          "13": -0.03275044326769916,
          "14": 0.0635352886412525,
          "15": -0.007871191120429284,
          "16": -0.14746452446544642,
          "17": -0.03850647288580265,
          "18": -0.11490312880256959,
          "19": -0.42398961140291397,
          "20": -1.6850529411094373,
          "21": -0.0022166245654663672,
          "22": -0.06391140811005117,
          "23": -0.017042425283557795,
          "24": -49.083091296945476,
          "25": 0.8316415415202725,
          "26": -0.032151201611281176,
          "27": -0.04072803895901357,
          "28": 2.052707995855978,
          "29": -0.42942205961073676,
          "30": -0.026725449465058518,
          "31": 0.05705533848133776
        }
      }
    }
  ],
  "outputLookup": false,
  "inputLookup": false,
  "networkData": {
    "n_bits": 8,
    "learningRate": 0.1,
    "trainingOptions": {
      "errorThresh": 0.01,
      "iterations": 100000000,
      "log": true,
      "logPeriod": 100,
      "learningRate": 0.1
    }
  }
}
