{
  "layers": [
    {
      "0": {},
      "1": {},
      "2": {},
      "3": {},
      "4": {},
      "5": {},
      "6": {},
      "7": {},
      "8": {},
      "9": {},
      "10": {},
      "11": {},
      "12": {},
      "13": {},
      "14": {},
      "15": {}
    },
    {
      "0": {
        "bias": 0.6299234129113007,
        "weights": {
          "0": -0.5506865541780637,
          "1": -0.3572718896469547,
          "2": -0.18561526190924732,
          "3": 0.03776117263096617,
          "4": -0.0054376107367704015,
          "5": -0.39110151606119126,
          "6": -0.22292092469533806,
          "7": -4.426386921645581,
          "8": -0.276409830600892,
          "9": -0.34940287690037386,
          "10": -0.17017342521043813,
          "11": 0.03887336337855801,
          "12": -0.030845346016214047,
          "13": -0.49804335814475764,
          "14": -0.36361652155995233,
          "15": 3.0438516031214666
        }
      },
      "1": {
        "bias": 1.9958575327236048,
        "weights": {
          "0": -2.1028339399194365,
          "1": -0.41158838730474845,
          "2": 0.1972901439534373,
          "3": 0.297623892249231,
          "4": -0.00795678699907854,
          "5": -1.4520007560385197,
          "6": 0.8211105009850038,
          "7": 0.4646042221242268,
          "8": -2.0432596990598233,
          "9": -0.4161636822235225,
          "10": 0.1843573215773212,
          "11": 0.3051470206912002,
          "12": 0.024142634460508645,
          "13": -1.3792571947173695,
          "14": 0.7669529401315001,
          "15": 0.2996219313462689
        }
      },
      "2": {
        "bias": 2.73869108847847,
        "weights": {
          "0": -0.06931909994918338,
          "1": -0.03763561427257689,
          "2": -0.08294188270234525,
          "3": 0.2259208351406567,
          "4": 0.050019244907757006,
          "5": -0.12345703950575876,
          "6": -0.7842501260679926,
          "7": -6.08462758197633,
          "8": -0.10084436359222097,
          "9": -0.059413197094023575,
          "10": -0.0930978419382479,
          "11": 0.21746742484768994,
          "12": 0.04949614261482442,
          "13": -0.06373184209467009,
          "14": -0.6818760531760087,
          "15": -6.7444307814447075
        }
      },
      "3": {
        "bias": -3.5533447820656825,
        "weights": {
          "0": -0.16257955401620514,
          "1": -0.13817590406180974,
          "2": -0.07552390766935047,
          "3": -0.2102290769890995,
          "4": -0.3093720738737102,
          "5": -0.0790614690693778,
          "6": -3.607631448466895,
          "7": 5.825861580766148,
          "8": -0.13507009456779845,
          "9": -0.15423416530302475,
          "10": -0.07937579213474724,
          "11": -0.20917035196306508,
          "12": -0.3173989534373797,
          "13": -0.19869786339267637,
          "14": -4.190799099518193,
          "15": 4.9784050583335215
        }
      },
      "4": {
        "bias": 2.5546949669213332,
        "weights": {
          "0": 5.199492578885001,
          "1": -4.120591900138258,
          "2": -1.8643912736529533,
          "3": -0.8826352391489379,
          "4": -0.5605147055871673,
          "5": -0.17003639311876553,
          "6": -0.05557310747040178,
          "7": -0.025461245745254442,
          "8": 5.123528251882949,
          "9": -4.087803479859803,
          "10": -1.8646785183662287,
          "11": -0.8855157088739698,
          "12": -0.5492897921284017,
          "13": -0.24277964299421442,
          "14": -0.06386663202471027,
          "15": -0.026994563928418067
        }
      },
      "5": {
        "bias": 5.334628981173536,
        "weights": {
          "0": 0.04728766486021061,
          "1": 0.0871407640450095,
          "2": 0.07972193301995369,
          "3": -0.1214975040094597,
          "4": -0.03809362860577819,
          "5": -0.1506966724898513,
          "6": -6.371905402167182,
          "7": -3.958312224455106,
          "8": 0.023954472896815522,
          "9": 0.08810641545804984,
          "10": 0.08385543228068398,
          "11": -0.11909020055525754,
          "12": -0.04405255353889124,
          "13": -0.0007035242218375703,
          "14": 7.538215560439459,
          "15": -3.999520718916044
        }
      },
      "6": {
        "bias": -11.065288929312231,
        "weights": {
          "0": -0.11204130986264121,
          "1": -0.04059026376681742,
          "2": -0.024468519374294236,
          "3": -0.13168424950125013,
          "4": 5.963734596604371,
          "5": 2.9473590521129385,
          "6": 1.4634494188137708,
          "7": 0.7026248334059968,
          "8": -0.12813184738781017,
          "9": -0.028568488200689107,
          "10": -0.014971189614393664,
          "11": -0.12764697948080028,
          "12": 5.975807166885334,
          "13": 2.8723603504526958,
          "14": 1.4302387781154826,
          "15": 0.6899107314176958
        }
      },
      "7": {
        "bias": -2.1810836819398634,
        "weights": {
          "0": -0.3297933248662026,
          "1": -0.2053453951119323,
          "2": -0.19541010041378445,
          "3": 0.11796661296402247,
          "4": 0.08703180799198264,
          "5": 0.050290604157991595,
          "6": -5.047972320654657,
          "7": 2.266859899701634,
          "8": -0.4185516947478071,
          "9": -0.2175599671485337,
          "10": -0.19724862505472399,
          "11": 0.12435162485175567,
          "12": 0.09895089957348589,
          "13": -0.059386551767218236,
          "14": 3.809856605369199,
          "15": 2.309073694206364
        }
      },
      "8": {
        "bias": -9.79781345150149,
        "weights": {
          "0": -0.06230695053855434,
          "1": -0.05605489586709763,
          "2": 0.033593566628237835,
          "3": 5.053945109490118,
          "4": 2.579918783193548,
          "5": 1.2276100929466374,
          "6": 0.5859775237689144,
          "7": 0.31657123379080115,
          "8": -0.08539035298493938,
          "9": -0.06429429852477635,
          "10": 0.03429910642302927,
          "11": 5.065941138706464,
          "12": 2.597361845057084,
          "13": 1.1931620082700816,
          "14": 0.5984832093907084,
          "15": 0.32071509868170356
        }
      },
      "9": {
        "bias": 2.9172392517288293,
        "weights": {
          "0": -0.37337468843943034,
          "1": -0.21484230753310823,
          "2": -0.030404844425521257,
          "3": 0.23013536081766778,
          "4": -0.19172800094079295,
          "5": -0.29627433816167087,
          "6": -6.267077761001153,
          "7": -3.002328232784859,
          "8": -0.2768512244438023,
          "9": -0.21944205084535934,
          "10": -0.027069028234668665,
          "11": 0.21324407090108635,
          "12": -0.189194453348872,
          "13": -0.2889366331459526,
          "14": -6.059339557812713,
          "15": -2.3061713598297473
        }
      },
      "10": {
        "bias": -0.0877378796532598,
        "weights": {
          "0": 1.039083048941707,
          "1": 0.7867396192103103,
          "2": -0.07662424138761424,
          "3": 0.8951919631868187,
          "4": -1.3740856201381504,
          "5": -0.8564950624424974,
          "6": -1.0114163211101348,
          "7": 0.028583390366690636,
          "8": 1.1182279036274725,
          "9": 0.7895072700365898,
          "10": -0.07426303609553152,
          "11": 0.886178000867262,
          "12": -1.3990281584080588,
          "13": -0.4283929939032197,
          "14": -0.0730033952795525,
          "15": -0.02189489726390326
        }
      },
      "11": {
        "bias": 1.3604528664963877,
        "weights": {
          "0": -0.1859947436883229,
          "1": -0.20903018374345012,
          "2": 0.7789237827460175,
          "3": 0.2342752969840113,
          "4": 0.1439169969163495,
          "5": 0.37982677461611125,
          "6": -1.4624982405726712,
          "7": -1.439888884384094,
          "8": -0.1401112352263528,
          "9": -0.17140116256503965,
          "10": 0.7991595687657231,
          "11": 0.22936698733126726,
          "12": 0.22268110512507475,
          "13": 1.1987244430289337,
          "14": -1.6353083464377116,
          "15": -0.5840478096593998
        }
      },
      "12": {
        "bias": -0.650101597268715,
        "weights": {
          "0": 0.003389248084334208,
          "1": -0.04157941505104821,
          "2": -0.02574522641355196,
          "3": -0.14693204928260867,
          "4": -0.031106571147419156,
          "5": 12.527264455135354,
          "6": -6.368176667724641,
          "7": -3.3314763555164486,
          "8": -0.0017051550552502387,
          "9": -0.037841828821919894,
          "10": -0.01910573235579914,
          "11": -0.14608328659948833,
          "12": -0.021554004082939348,
          "13": 12.097677195606753,
          "14": -6.508378521790005,
          "15": -3.2682754185956364
        }
      },
      "13": {
        "bias": -0.6710202251904639,
        "weights": {
          "0": 0.15331488651834257,
          "1": 0.2830863270515885,
          "2": 4.0690233704428564,
          "3": -1.5527713308175781,
          "4": -1.0002934031400355,
          "5": -0.749315479621427,
          "6": -0.32313307488158105,
          "7": -0.1481283595057439,
          "8": -0.044097388618090524,
          "9": 0.28362768064356003,
          "10": 4.089990976274511,
          "11": -1.5589750463950136,
          "12": -1.0247645304159994,
          "13": -0.5683880809142037,
          "14": -0.27084247205463774,
          "15": -0.1447504135880945
        }
      },
      "14": {
        "bias": -1.6449957940481263,
        "weights": {
          "0": -0.5019246299117611,
          "1": -0.29436594755250484,
          "2": -0.17716251644473696,
          "3": -0.008812357124248545,
          "4": 0.018846701886686655,
          "5": -0.06238706351828481,
          "6": -0.6765514682509554,
          "7": 5.49783440470022,
          "8": -0.32478430256936797,
          "9": -0.3068569159222432,
          "10": -0.1682983838091562,
          "11": -0.01676222334595966,
          "12": 0.01380221471556545,
          "13": -0.13974265449850815,
          "14": -0.7443754897236636,
          "15": -6.2137115085895545
        }
      },
      "15": {
        "bias": 5.09871855296756,
        "weights": {
          "0": -0.25686583837619625,
          "1": -1.8243777324275925,
          "2": -1.4146595713202257,
          "3": -1.0295544747756291,
          "4": -0.483624751510859,
          "5": -0.013037851528143738,
          "6": -0.2270131625757041,
          "7": -0.08432324148904713,
          "8": 0.33598941765685225,
          "9": -1.8461109553661377,
          "10": -1.3948743343712449,
          "11": -1.037450777459814,
          "12": -0.4894674033687359,
          "13": -0.13683375826846822,
          "14": -0.13357858106185977,
          "15": -0.0761555930676444
        }
      },
      "16": {
        "bias": -23.28920991554126,
        "weights": {
          "0": -0.04713955654889206,
          "1": 11.486608198033798,
          "2": 5.920915476784415,
          "3": 3.028014908128852,
          "4": 1.5051820691329687,
          "5": 0.7323927567777555,
          "6": 0.37278530283922007,
          "7": 0.18390856707691214,
          "8": -0.013542947550114119,
          "9": 11.492309800989185,
          "10": 5.921681490301581,
          "11": 3.0304768793333796,
          "12": 1.508054892471356,
          "13": 0.7722352716062284,
          "14": 0.38519941635642385,
          "15": 0.18988375011600062
        }
      },
      "17": {
        "bias": -2.0180265579555168,
        "weights": {
          "0": 0.20080763000457144,
          "1": 0.40563078241997247,
          "2": 0.1722520012978825,
          "3": 0.6810278081264369,
          "4": -0.7780146471517396,
          "5": -0.5244846730914003,
          "6": 2.006433333702636,
          "7": 0.3039541210331867,
          "8": 0.4220358380324659,
          "9": 0.44392908062846853,
          "10": 0.20430010235453716,
          "11": 0.6815033422579668,
          "12": -0.7556119424474327,
          "13": -0.18045952817827834,
          "14": 0.44181695185920117,
          "15": 0.22258481515335632
        }
      },
      "18": {
        "bias": -3.214058538350022,
        "weights": {
          "0": -0.5619244027945959,
          "1": 1.1007507034267485,
          "2": 1.1957992372738253,
          "3": 0.0924738340573558,
          "4": 0.32375427776194304,
          "5": 0.11744352418371752,
          "6": 0.11577882090944051,
          "7": 0.04819580494834198,
          "8": 0.8497276054024704,
          "9": 1.1314392606742052,
          "10": 1.2326680691128613,
          "11": 0.07866384732704103,
          "12": 0.30964796078381185,
          "13": 0.2015070211479575,
          "14": 0.1555650824149848,
          "15": 0.07462324076946998
        }
      },
      "19": {
        "bias": -0.6119021134321959,
        "weights": {
          "0": 0.058548099031965825,
          "1": 0.024390667901408734,
          "2": 0.015981194005485307,
          "3": 0.12577337012945816,
          "4": -10.072178752240944,
          "5": 5.488225500066996,
          "6": 2.78341899190573,
          "7": 1.4164490243199113,
          "8": 0.0927590952989624,
          "9": 0.02093821373861911,
          "10": 0.009709801873586636,
          "11": 0.1221706187857583,
          "12": -10.062073601402382,
          "13": 5.563912092371262,
          "14": 2.801901167630369,
          "15": 1.4288546551302606
        }
      },
      "20": {
        "bias": 3.2901347964693137,
        "weights": {
          "0": -0.02072282349738253,
          "1": -0.027430628895208285,
          "2": -0.3530090601253622,
          "3": 0.04886096580313336,
          "4": 0.03845975618227051,
          "5": 1.9122381971046576,
          "6": -2.212718630270307,
          "7": -1.0880570030029082,
          "8": 0.15771348889491837,
          "9": -0.016080372752824593,
          "10": -0.3479516267645962,
          "11": 0.046374454445687455,
          "12": 0.013396200195922267,
          "13": -0.6087913872157681,
          "14": -2.1705904515269188,
          "15": -0.9748630990183552
        }
      },
      "21": {
        "bias": 1.1696038747542736,
        "weights": {
          "0": -2.373512931666529,
          "1": -0.3554356182696851,
          "2": 0.43426559750204835,
          "3": -0.03276562177603766,
          "4": -0.9715468889939534,
          "5": 1.0106715833693605,
          "6": 1.0350225982145227,
          "7": 0.2825961019094329,
          "8": -2.322125979833725,
          "9": -0.38911336018808296,
          "10": 0.43893705288560686,
          "11": -0.01451764100381965,
          "12": -0.9511636030648021,
          "13": 0.7881459751291849,
          "14": 0.5617583757924941,
          "15": 0.26367677626743347
        }
      },
      "22": {
        "bias": 6.634262576935176,
        "weights": {
          "0": -3.0710024566772764,
          "1": -1.1617491826899586,
          "2": -1.1621456461283948,
          "3": -0.6841845130401732,
          "4": -0.21524274633572485,
          "5": -0.31715259823004455,
          "6": 0.045776660733387556,
          "7": -0.05326884255619672,
          "8": -3.050025913600169,
          "9": -1.257145873554071,
          "10": -1.1619976134278227,
          "11": -0.6686070816446318,
          "12": -0.2318038023196447,
          "13": -0.11909613300596239,
          "14": -0.09023728276037547,
          "15": -0.05274785083383169
        }
      },
      "23": {
        "bias": 4.458787127663124,
        "weights": {
          "0": 0.13695116366467963,
          "1": -0.1297755255961014,
          "2": 0.4229600404549827,
          "3": 0.339930748955013,
          "4": 0.29044322515937504,
          "5": -3.301398995346734,
          "6": -1.546729735751359,
          "7": -0.5418728362490428,
          "8": 0.14803044443712007,
          "9": -0.14452937394768373,
          "10": 0.4122715507400444,
          "11": 0.3382848612036402,
          "12": 0.15782958048218085,
          "13": -3.1395034802414057,
          "14": -1.2647348275279118,
          "15": -0.6264597688593891
        }
      },
      "24": {
        "bias": -2.895945850000964,
        "weights": {
          "0": 0.47571215807760964,
          "1": 0.6102299126107564,
          "2": 0.6967987593106795,
          "3": 0.03210105911507265,
          "4": -0.024112662379217133,
          "5": 1.8089865488746095,
          "6": 0.2577839744271052,
          "7": 0.10243178680876193,
          "8": -0.20417166603196407,
          "9": 0.5340626990915035,
          "10": 0.6264500808454949,
          "11": 0.0384916359562315,
          "12": -0.01981662043609016,
          "13": 0.5709650149527996,
          "14": 0.169938559051989,
          "15": 0.1567013566169137
        }
      },
      "25": {
        "bias": -21.714728907824245,
        "weights": {
          "0": 0.02874941594553225,
          "1": 0.027412090927634532,
          "2": 10.884170575749224,
          "3": 5.56811074816779,
          "4": 2.7526915404820707,
          "5": 1.2925156758698217,
          "6": 0.6611091197587308,
          "7": 0.33144121789141373,
          "8": 0.013760446707169681,
          "9": 0.03155998336383523,
          "10": 10.888033881042336,
          "11": 5.571403023457734,
          "12": 2.7486917235338306,
          "13": 1.354977694326108,
          "14": 0.678649964188758,
          "15": 0.34107598822407315
        }
      },
      "26": {
        "bias": -1.6746526357033733,
        "weights": {
          "0": -0.13160540270797277,
          "1": -0.3274033258124017,
          "2": -0.07245308653546227,
          "3": -0.48915848290844766,
          "4": -0.03756116055529217,
          "5": 1.5237195099384935,
          "6": 0.5100911927871,
          "7": 0.11655013105435164,
          "8": -0.004854295912613196,
          "9": -0.30944869669344394,
          "10": -0.03874755457221554,
          "11": -0.4864856751824147,
          "12": -0.1569892932671983,
          "13": 2.987759225048608,
          "14": 0.2635781606901823,
          "15": 0.11879886454267571
        }
      },
      "27": {
        "bias": 2.9541583613228903,
        "weights": {
          "0": -2.204593468546049,
          "1": -1.5589988487937947,
          "2": -0.09042473215201342,
          "3": 0.31294532560121985,
          "4": 0.14188838044381608,
          "5": 0.42916984655018775,
          "6": -0.30854187027991087,
          "7": 0.12743594370950256,
          "8": -2.104940070355851,
          "9": -1.369291552114404,
          "10": -0.09913619507065466,
          "11": 0.2611918615764033,
          "12": 0.1608750329361495,
          "13": 0.06523575934163113,
          "14": 0.2459083082683592,
          "15": 0.04404198182184621
        }
      },
      "28": {
        "bias": 0.22791602398336905,
        "weights": {
          "0": -0.00016173710818836727,
          "1": -0.009851154055665508,
          "2": 0.031627466333850614,
          "3": 12.06713061508284,
          "4": -6.207665078244756,
          "5": -3.242676918916126,
          "6": -1.6310657214784332,
          "7": -0.8043692972392055,
          "8": -0.03058655682128718,
          "9": -0.019500207627592005,
          "10": 0.03014519650941866,
          "11": 12.07035628914343,
          "12": -6.199655341410705,
          "13": -3.2704977783276488,
          "14": -1.6269933468847324,
          "15": -0.8013583842559697
        }
      },
      "29": {
        "bias": -0.6311959114953376,
        "weights": {
          "0": 0.137095667910154,
          "1": 1.1124818093570463,
          "2": 0.49618286497713404,
          "3": 0.3525649303434875,
          "4": -0.11534926468414881,
          "5": -0.4016530794127993,
          "6": -1.2073940970103092,
          "7": -0.45435466283819637,
          "8": 0.09129278176967998,
          "9": 1.0858842292676378,
          "10": 0.48790906251744864,
          "11": 0.36128898027566,
          "12": -0.09027105279501248,
          "13": 0.25348838108057653,
          "14": -0.5001555346994027,
          "15": -0.2945937730647881
        }
      },
      "30": {
        "bias": 3.2358785744760517,
        "weights": {
          "0": 0.0013650548112211103,
          "1": 4.2876689089400015,
          "2": -3.9389468993699257,
          "3": -1.793764095117895,
          "4": -0.8967005050391604,
          "5": -0.4986255879962667,
          "6": -0.21516787564028314,
          "7": -0.11398329362142631,
          "8": -0.08001387777969524,
          "9": 4.31319008002433,
          "10": -3.9469208896434393,
          "11": -1.7949727041208194,
          "12": -0.9030096765653145,
          "13": -0.4545656210562717,
          "14": -0.22541491770441144,
          "15": -0.11065240700683257
        }
      },
      "31": {
        "bias": -24.756873566838888,
        "weights": {
          "0": 12.640046990176103,
          "1": 6.1843639244074,
          "2": 3.067983626855857,
          "3": 1.5960335102990717,
          "4": 0.7544525833359821,
          "5": 0.3431979098581454,
          "6": 0.08028857254443068,
          "7": 0.05464964537289712,
          "8": 12.647680254464449,
          "9": 6.183921345046933,
          "10": 3.071725619094034,
          "11": 1.603352158471161,
          "12": 0.7583699183911602,
          "13": 0.3902297554013935,
          "14": 0.10200200169330123,
          "15": 0.07044174930676657
        }
      }
    },
    {
      "0": {
        "bias": -0.07679780176161585,
        "weights": {
          "0": -2.404162654954626,
          "1": -3.753074110666756,
          "2": -1.4374520387498237,
          "3": 0.28764996374965834,
          "4": 1.1623739648855185,
          "5": 2.008151617624847,
          "6": 0.38483032055424915,
          "7": -2.338610409163643,
          "8": 0.6637966660747279,
          "9": -0.3138680440528868,
          "10": 2.533480295011015,
          "11": -1.8896447897029938,
          "12": -1.477823769743657,
          "13": 0.11398550591473726,
          "14": -2.357256904982146,
          "15": -0.47666237541808365,
          "16": 4.3301131321775195,
          "17": 2.4683161095430464,
          "18": 0.9943358774839748,
          "19": -0.23831250245111457,
          "20": 0.684707690127337,
          "21": -4.559552512839917,
          "22": -5.862836375135383,
          "23": -1.8644401851978711,
          "24": 0.6471924491244794,
          "25": 3.359181275138578,
          "26": -0.9849175840162221,
          "27": -4.579245615575385,
          "28": -2.9421625853923055,
          "29": 2.0860773288185235,
          "30": 0.2945009829186905,
          "31": 11.424230025790683
        }
      },
      "1": {
        "bias": 0.10276138077428135,
        "weights": {
          "0": -1.7198910238394125,
          "1": -4.300566462966662,
          "2": -1.792261052037772,
          "3": -1.0428211723342633,
          "4": 11.46490070419759,
          "5": 0.5773548196074428,
          "6": 0.778869602666009,
          "7": -1.20398521936035,
          "8": 1.729250945912425,
          "9": -1.0721670546724307,
          "10": 5.038848463989672,
          "11": -1.280987562127399,
          "12": 0.2212800269489016,
          "13": 3.257888486529051,
          "14": -1.5457114032070756,
          "15": -3.64366467309379,
          "16": 6.964656066132811,
          "17": 3.1107116570305946,
          "18": 4.285167660551102,
          "19": -1.604812523641171,
          "20": 0.6436990672700292,
          "21": -5.034810164720368,
          "22": 1.3977450532654827,
          "23": -1.9103402723363978,
          "24": 2.8528891943809556,
          "25": 0.7111898566100305,
          "26": -1.595770768154745,
          "27": -3.655466744214303,
          "28": -0.8795291344901494,
          "29": 4.240684595788187,
          "30": 3.184615764201882,
          "31": -22.85111957497561
        }
      },
      "2": {
        "bias": 2.8137428846312087,
        "weights": {
          "0": -0.6781200245284409,
          "1": -0.6120368283846056,
          "2": -0.5336051508113625,
          "3": -0.17581166060266878,
          "4": -5.584705377605232,
          "5": 0.3069430558274205,
          "6": 2.8142917043978612,
          "7": -0.3318068345739219,
          "8": 3.3791555981004806,
          "9": -0.340843112563684,
          "10": 2.7284783872825518,
          "11": 0.2900592024289218,
          "12": 0.29883978013044155,
          "13": 5.712430073004704,
          "14": -0.39740830471196925,
          "15": -0.7160543966251606,
          "16": -22.122499110264634,
          "17": 2.443534184722526,
          "18": 4.72091695538353,
          "19": -1.2706548737909076,
          "20": -0.9349756200972192,
          "21": -0.4834916992008968,
          "22": -8.202771817550007,
          "23": 0.11657370157041805,
          "24": 5.009938781325836,
          "25": 6.434771032281667,
          "26": -0.9380722133292339,
          "27": -4.441196263823879,
          "28": 0.6926736188567943,
          "29": 3.594603751080297,
          "30": 10.758064317037041,
          "31": -8.65385764198171
        }
      },
      "3": {
        "bias": 1.7929956319794949,
        "weights": {
          "0": -1.0782454545971212,
          "1": 0.1800998596499869,
          "2": -0.9632509350993416,
          "3": -0.583820456573327,
          "4": -0.8661056900254056,
          "5": 0.27165473829881714,
          "6": 3.682381469021693,
          "7": -0.03153487260131392,
          "8": 7.334963113605836,
          "9": -0.1981837139153368,
          "10": 0.10861712140204863,
          "11": 2.0237309880260153,
          "12": -0.1591745601224971,
          "13": 8.308485077661837,
          "14": -0.5805125228554573,
          "15": -9.237306246299696,
          "16": -6.752251109814356,
          "17": 2.2298241951784705,
          "18": 6.537792784257619,
          "19": 1.270011179425568,
          "20": -0.4631639341813649,
          "21": 0.5642617301591064,
          "22": -1.542724119552425,
          "23": 3.7690856722913484,
          "24": 5.313210515880714,
          "25": -21.415957716092606,
          "26": -0.09449843102094274,
          "27": 0.2758067696424173,
          "28": 1.0378508811972793,
          "29": 3.3418356849362456,
          "30": -7.15247143024015,
          "31": -0.7042245053337612
        }
      },
      "4": {
        "bias": -0.5263162755365441,
        "weights": {
          "0": -0.2251310822845058,
          "1": -0.7032000050826096,
          "2": -0.42467209983535914,
          "3": -0.15466275223323553,
          "4": 0.05175451185651165,
          "5": 0.008286728735227917,
          "6": 9.040968807321342,
          "7": -0.02731165020599082,
          "8": -12.614530056395973,
          "9": -0.5501218391002877,
          "10": -3.534952801276046,
          "11": -0.029639017119013816,
          "12": -0.9148959819405252,
          "13": -0.4810728726342666,
          "14": -0.14055966425182842,
          "15": -0.4484668689127861,
          "16": -0.11069063510239595,
          "17": -2.79259766769704,
          "18": 2.184989021442602,
          "19": -1.25879830311951,
          "20": -1.2317885754806794,
          "21": -1.3326605647854242,
          "22": 0.03342195376053901,
          "23": -1.2407827960752327,
          "24": 1.5135219717905362,
          "25": -0.5248208000411605,
          "26": 1.3381967642493424,
          "27": -0.4538344413840883,
          "28": 15.622407494283472,
          "29": -0.8374193202870236,
          "30": -0.001890508254823846,
          "31": 0.1881176676411161
        }
      },
      "5": {
        "bias": 3.2737204229796077,
        "weights": {
          "0": -1.0621968534062134,
          "1": -1.400725999423482,
          "2": -1.1652799442868937,
          "3": 0.7418221518482796,
          "4": 1.1842883207320238,
          "5": 1.713120287925654,
          "6": -12.614122091968564,
          "7": -0.2058543810712456,
          "8": 1.770056304705844,
          "9": -0.862052833423996,
          "10": -0.2853820548354519,
          "11": -0.18500444198800264,
          "12": -1.0449554302262476,
          "13": 0.8519294679418166,
          "14": -0.9569062224467774,
          "15": 2.618089126267104,
          "16": 0.688127379889499,
          "17": 1.3512322214427268,
          "18": 1.4704898163114053,
          "19": -14.68886457148496,
          "20": -0.4460109540115512,
          "21": 1.7976132577741357,
          "22": 1.7932776580598844,
          "23": -6.52974203421167,
          "24": 5.358027098722202,
          "25": 0.44280812156564175,
          "26": 5.17854707802897,
          "27": 1.33896159743601,
          "28": 1.6749233852321757,
          "29": -1.7700120179616627,
          "30": 1.0746831293290169,
          "31": 1.8381438231291278
        }
      },
      "6": {
        "bias": -1.3051297910180204,
        "weights": {
          "0": -0.8040416832109287,
          "1": 2.2668941803256875,
          "2": -0.3531514701994865,
          "3": 2.575428221168284,
          "4": 0.10132910384628782,
          "5": 3.2498583557478113,
          "6": 0.005885070459924723,
          "7": -1.7975681327374704,
          "8": -0.9081654099850456,
          "9": -0.02079054411666364,
          "10": 1.6063563944229846,
          "11": -6.197003392261651,
          "12": 18.3509699678748,
          "13": 0.6690452802207784,
          "14": -2.6475460993162048,
          "15": -0.6271178801761188,
          "16": 0.09458528369422826,
          "17": 4.621846645871828,
          "18": -0.33738697552565045,
          "19": -2.2413292392300272,
          "20": -7.564113374123167,
          "21": 0.9091312222916658,
          "22": -0.5796539415919003,
          "23": 4.818608040013054,
          "24": -2.6158605357595017,
          "25": 0.24087335109138133,
          "26": -7.142425648242044,
          "27": -0.40475595451090995,
          "28": -0.9495783135838097,
          "29": -3.9461888282223603,
          "30": -0.04768055768621284,
          "31": -0.11414961989956114
        }
      },
      "7": {
        "bias": 0.551351615579582,
        "weights": {
          "0": 0.7720881719509446,
          "1": 1.0886916758617053,
          "2": 2.003411237994357,
          "3": -9.200738649075703,
          "4": 0.4663869863553037,
          "5": -10.71504720022988,
          "6": -0.08129738269822931,
          "7": 8.603683394758953,
          "8": -1.4402922530388247,
          "9": -8.291515991050504,
          "10": 1.6136191524773187,
          "11": 1.0557757851380563,
          "12": 0.43765187006651823,
          "13": 1.0473505812602097,
          "14": 1.400810459566163,
          "15": 0.8012863805178017,
          "16": 0.16911292002540773,
          "17": -2.3763146070619814,
          "18": 0.41139768416283795,
          "19": -0.21413924402055556,
          "20": 2.2428769297243774,
          "21": -0.8887033985663864,
          "22": 0.32306597211400545,
          "23": 0.6738291906642634,
          "24": -0.24027453819997885,
          "25": -0.126366006095585,
          "26": 0.9378962366092628,
          "27": 0.3978562719345045,
          "28": 0.4997045096767874,
          "29": 2.4251533305646698,
          "30": -0.05118622163853181,
          "31": 0.27758904097416925
        }
      },
      "8": {
        "bias": -0.5948116612964177,
        "weights": {
          "0": 6.192266314689116,
          "1": -0.8324925519988876,
          "2": -11.027015584718795,
          "3": -4.832695056468193,
          "4": 0.1435760148322054,
          "5": 1.6505909222048871,
          "6": -1.9110282344894727,
          "7": -1.4633402480041804,
          "8": -0.14387967310153849,
          "9": -0.19966645882459488,
          "10": -1.1060649048768085,
          "11": 3.347686219891151,
          "12": 0.08103677461718319,
          "13": -0.1462114080313251,
          "14": 8.356056028348808,
          "15": 0.13840129204442658,
          "16": 0.28042233375298714,
          "17": -1.2361145136480851,
          "18": -0.6568219499999861,
          "19": -0.5293113915229877,
          "20": 0.20065740661987072,
          "21": -0.2503804593916477,
          "22": -0.2367910804222001,
          "23": 0.03622835521657857,
          "24": 0.11179949427917983,
          "25": 0.5174662895839708,
          "26": 0.11706478279769207,
          "27": -0.39701606100242937,
          "28": 0.33307867437936406,
          "29": 0.6568998686437763,
          "30": 0.8143324162971213,
          "31": -0.19100453575246293
        }
      }
    }
  ],
  "outputLookup": false,
  "inputLookup": false
}
