{"layers":[{"0":{},"1":{},"2":{},"3":{},"4":{},"5":{},"6":{},"7":{}},{"0":{"bias":5.8986222147788085,"weights":{"0":0.7551578247896122,"1":-0.7517606355714318,"2":-10.267995257634157,"3":-5.181253771847489,"4":0.7654518554341789,"5":0.7698363047117336,"6":-10.205265181311036,"7":-4.918521738057064}},"1":{"bias":-0.7320582379226329,"weights":{"0":-5.296635170692283,"1":0.4416224795140363,"2":2.101291041560736,"3":-0.17080234763859972,"4":-5.614345092295925,"5":-0.7442366179752625,"6":1.4453199925893256,"7":0.2722350008514899}},"2":{"bias":0.3296210924899922,"weights":{"0":-2.5052172326678552,"1":0.09988019044580923,"2":4.5845549423473795,"3":-3.168044387667236,"4":-2.4890645654110557,"5":-2.0557186705920922,"6":-6.102124197305695,"7":-2.2986185752101878}},"3":{"bias":4.448375199212998,"weights":{"0":1.0391420985580169,"1":-8.572551325156011,"2":-2.5303438908922646,"3":-0.5946468200465642,"4":1.3431835473474907,"5":-7.312789678356544,"6":-2.5654049087906667,"7":-2.131052714865242}},"4":{"bias":-1.2782647556852573,"weights":{"0":-0.7892034257976496,"1":-0.6566690590058496,"2":-1.8530172439044956,"3":-0.8927686212649972,"4":-0.2565360600234282,"5":-0.18002805645707243,"6":-1.8457272334322088,"7":-0.9780491116787099}},"5":{"bias":5.114085235065824,"weights":{"0":-3.748578500163965,"1":-1.8843545145885408,"2":0.73213154846575,"3":-8.098623460486383,"4":-3.7858561600713867,"5":-1.9927961203244013,"6":0.5715989058371789,"7":-8.363044036858373}},"6":{"bias":-0.9432196259992447,"weights":{"0":11.54417900067382,"1":-6.193847336255458,"2":-2.562585850810832,"3":-1.2881640108597732,"4":11.518728421200018,"5":-6.27531845491638,"6":-2.6188272967751733,"7":-1.0791521730561835}},"7":{"bias":1.367331093972801,"weights":{"0":-1.930440823518882,"1":-4.010933002895086,"2":0.26746586116905224,"3":1.2260857911037424,"4":-2.0644922225060762,"5":-3.890025829424686,"6":0.27512100250110144,"7":-0.2994952855228838}},"8":{"bias":1.5754187362868295,"weights":{"0":1.9647983095518813,"1":0.6025068321686613,"2":-3.414778249991137,"3":-1.1657069944532623,"4":2.2192705550737495,"5":0.5471568429424172,"6":-3.467443162974164,"7":-0.5938236444267216}},"9":{"bias":-0.30914042592419677,"weights":{"0":-0.37352770388996126,"1":1.0549024212028153,"2":-0.7032691434841641,"3":-1.8203254175177928,"4":0.32783938036812,"5":-1.9415477542300752,"6":-1.0400073231529885,"7":-2.0595237773119845}},"10":{"bias":2.003578194299512,"weights":{"0":-1.9582368601631703,"1":-0.4717809634495087,"2":-3.468451066916506,"3":-2.4680166178384604,"4":-2.282842531090638,"5":-1.2407262294380281,"6":-3.850955817232346,"7":3.2621233381754995}},"11":{"bias":-1.1830909641404854,"weights":{"0":-0.5786252429099331,"1":-1.2882475349923572,"2":-0.8234962544690616,"3":-0.7747138062221488,"4":-0.2502276109437391,"5":-1.2398384692143591,"6":-0.7412061034337936,"7":-0.6996726921746917}},"12":{"bias":-2.9668576606070087,"weights":{"0":-4.812180966358051,"1":-1.3895338134604664,"2":-2.721202665614373,"3":5.328067549979423,"4":-4.657094669701435,"5":-1.4857981641318223,"6":-1.6097441500240597,"7":5.047993940940054}},"13":{"bias":-0.8601263231581886,"weights":{"0":-0.06491376604165558,"1":11.342203860481817,"2":-6.177283960396343,"3":-2.8595339309898904,"4":-0.06713560888765278,"5":11.458670141905293,"6":-6.181350115026906,"7":-3.2027452390596536}},"14":{"bias":1.2885859218670486,"weights":{"0":-1.7158400591298466,"1":-2.356932995799555,"2":0.2507678919169671,"3":0.8118735148573964,"4":-1.778288704616089,"5":-2.9108554998933234,"6":0.09092424273889271,"7":0.5096136356527632}},"15":{"bias":1.3881379343194395,"weights":{"0":-2.02156844186667,"1":0.7151391355427262,"2":-5.084167774161305,"3":-2.8641967385871103,"4":-2.3997106562177275,"5":-2.5850007710325817,"6":3.0240820182094397,"7":-2.5210544681538525}},"16":{"bias":0.294148187355244,"weights":{"0":-0.706181456627003,"1":-4.60860820970354,"2":-2.733352086143983,"3":-1.1346434043095504,"4":-0.8567486470068579,"5":3.405767438295347,"6":-2.4641036253663575,"7":-1.844266704638628}},"17":{"bias":-1.342725068714265,"weights":{"0":9.949663297653881,"1":-9.83099266397737,"2":-5.456243442997429,"3":-2.820422387548487,"4":10.042672933800802,"5":-9.837619644847209,"6":-5.431389593157817,"7":-2.824190334765273}},"18":{"bias":-1.1533678301256503,"weights":{"0":0.21609913285039808,"1":0.571911540081803,"2":-0.9653542701702571,"3":-1.4245696670211125,"4":0.34218976403347223,"5":-1.206999087899,"6":-1.6483218830436626,"7":-1.3906566125382234}},"19":{"bias":1.4149415430782877,"weights":{"0":-0.22089869831434994,"1":-0.03364112455622771,"2":1.543397537399315,"3":-3.8253462020078364,"4":-0.0155280296160453,"5":0.05884853351917688,"6":1.5314292551872628,"7":-3.755833397814649}},"20":{"bias":-1.3300949874378647,"weights":{"0":-0.5256636552042905,"1":-0.6258546201846055,"2":-0.7765801031576999,"3":-0.8061296885816193,"4":-0.18922606099145992,"5":-0.553971285754778,"6":-0.8642965763165266,"7":-0.7664767056372206}},"21":{"bias":7.748809389080479,"weights":{"0":-2.4334885044770576,"1":-4.558886672087603,"2":-2.3363639694304634,"3":-3.1907337239340077,"4":-2.4909829827355043,"5":-4.688150881760238,"6":-2.319306459791412,"7":-0.07936428404950407}},"22":{"bias":2.5052762107194937,"weights":{"0":-1.2594334959151778,"1":-3.4144660746975135,"2":-2.0771143216977546,"3":-1.0843598106266568,"4":-1.625719305865608,"5":2.296568256554856,"6":-1.9819196474592744,"7":-0.6728416301545835}},"23":{"bias":0.8474994404735621,"weights":{"0":-2.513846934267529,"1":-3.093687187429869,"2":-1.4121890371349792,"3":4.512535910501006,"4":-2.538533980164745,"5":-3.177698171894619,"6":-0.9043209889127442,"7":-6.269126130998201}},"24":{"bias":1.0590754580205597,"weights":{"0":-1.9969944971749052,"1":-1.2724794860700017,"2":-1.5680644159658474,"3":0.39679912863975647,"4":-1.9483009769306614,"5":-2.524294896308299,"6":-0.9138056649311663,"7":-0.5615083996804182}},"25":{"bias":8.858396980326818,"weights":{"0":-2.476283670139027,"1":-1.0298781376689143,"2":-5.402059504017384,"3":-1.7054804928498595,"4":-2.3463864056210184,"5":-1.428277642986981,"6":-5.431428645608651,"7":-2.8269694311439757}},"26":{"bias":-0.8271216536650867,"weights":{"0":-0.4824454503075045,"1":-1.4785786170014548,"2":-0.9729036682160395,"3":-1.8399835683628007,"4":-1.007109927286914,"5":-0.17899058504273435,"6":-0.4960170704951143,"7":-1.6905297718586587}},"27":{"bias":1.7982747044990401,"weights":{"0":-2.5786802932764084,"1":-3.3894275623798893,"2":-1.3180016669639185,"3":-0.3180454573138816,"4":-2.444570796744102,"5":-2.8206830108614787,"6":-0.6440134095283295,"7":-0.6637219475847528}},"28":{"bias":-0.6793059573216864,"weights":{"0":-3.6966448143581814,"1":-2.3801526010070866,"2":-1.7249518273148758,"3":-8.71835341562649,"4":-3.65732369454272,"5":-2.089172787568703,"6":-1.3789075055018787,"7":6.671835489969017}},"29":{"bias":0.7097365821995456,"weights":{"0":-3.5441641562976742,"1":-2.029176589736808,"2":-1.4501174669801404,"3":4.4968269079560494,"4":-3.4912528330602983,"5":-1.4281577746900447,"6":-1.8776700297511366,"7":-6.6934876834460875}},"30":{"bias":2.4803148319009116,"weights":{"0":0.5211197650311615,"1":-3.270240276586744,"2":-6.494475146976457,"3":-2.7599785971812025,"4":0.3778816129759775,"5":-2.961142549180408,"6":-6.993894207641878,"7":-3.8825940131773646}},"31":{"bias":6.912596518831986,"weights":{"0":1.9692822206185763,"1":1.3822414508278047,"2":-7.282158865655072,"3":-4.480634257013439,"4":2.161832484124463,"5":1.395959130829168,"6":-7.468628108954629,"7":-4.598336652623307}}},{"0":{"bias":11.698339880977931,"weights":{"0":3.7550714185254566,"1":-2.1817818526013943,"2":-2.4002872683883107,"3":2.2668893820240905,"4":-0.06421385166492537,"5":-0.6514721003280696,"6":1.5663028390063705,"7":-3.412206425524483,"8":1.0860468652559219,"9":0.30533953141604314,"10":-1.9244512167903447,"11":-0.2285453328151687,"12":-2.226489625825419,"13":-1.5394933288761283,"14":-2.9348978500775558,"15":-2.554939026013463,"16":-2.7078877551202933,"17":3.4618702466928157,"18":0.4441968525556895,"19":-0.6658922752805413,"20":-0.16898049826919118,"21":-5.289673065888162,"22":-1.5783861796369751,"23":-2.5347305962046995,"24":-1.1400390097269009,"25":-2.8818737045648217,"26":-0.6323909724255125,"27":-3.6299003947829025,"28":-2.5307184835451095,"29":-2.568402839857001,"30":1.3785340590517137,"31":0.3970970223282866}},"1":{"bias":-10.46484387746487,"weights":{"0":1.2666459082109536,"1":4.413695168158095,"2":-1.9888194685977056,"3":-9.771823613406662,"4":0.3639166943101997,"5":0.9685326565869286,"6":13.74840790038859,"7":2.6604167975697335,"8":-0.5655131958150615,"9":1.5920343422114727,"10":-1.371824629004599,"11":-0.8415445470807152,"12":2.7317823935260086,"13":7.4678469209365845,"14":1.252418809348825,"15":-2.1154562720298498,"16":3.5481818218828223,"17":-13.201930539043007,"18":1.1323730880541572,"19":0.5157986884755852,"20":-0.003101209757658634,"21":8.502185702141803,"22":-1.0773569915575845,"23":3.679189432258267,"24":1.1841834000317504,"25":-0.9697698581392279,"26":0.8004125916701741,"27":-1.8425776260578224,"28":-0.028241604735515652,"29":-0.5243967081056045,"30":5.013290245320681,"31":-4.816226720071328}},"2":{"bias":-5.860570906254621,"weights":{"0":-11.660263816445067,"1":-6.126650665494776,"2":5.871289801728828,"3":-6.35755669393033,"4":-1.0543008789337087,"5":-1.6739453173259027,"6":3.9051449172265156,"7":4.631588687064433,"8":-4.040036540064772,"9":1.4307682803119408,"10":3.597526062404242,"11":0.2497675321330952,"12":-3.6959108406942596,"13":9.73284674418682,"14":3.096136273987526,"15":4.706114974000902,"16":1.7806683701108308,"17":11.26523833694239,"18":0.6717633460368149,"19":0.21804928979679003,"20":0.08629335631743514,"21":-2.441013129522523,"22":2.9475603498868774,"23":-3.662071674055527,"24":3.058629879445825,"25":9.664098877487259,"26":1.044374910542162,"27":3.218838503982712,"28":-2.306066570796526,"29":0.8244903576911623,"30":-4.143403295113698,"31":-8.940851038721497}},"3":{"bias":1.0296967197587932,"weights":{"0":-10.203333982543548,"1":1.9514336128798777,"2":3.628957475780815,"3":-0.5407374615496328,"4":0.10201433369135408,"5":-14.232060240660045,"6":-0.20972802076293165,"7":-0.25595662911643935,"8":-3.2060173800463527,"9":-0.9415302052959555,"10":-0.6263633996840444,"11":0.08524804529475653,"12":-8.419512183911278,"13":0.3500161667420245,"14":0.2674768234063041,"15":2.6474967294681058,"16":1.230970564485509,"17":1.1927322846949067,"18":0.8752789234331955,"19":-4.3064395827212305,"20":0.22816290119180588,"21":2.533963854629949,"22":0.37019800642932926,"23":6.105346166383604,"24":0.5564025672145169,"25":-2.159840093518281,"26":-0.5344552760612649,"27":-0.6014097108662774,"28":10.842451310896834,"29":7.538582183185854,"30":-6.725677901132726,"31":8.711143932048481}}}],"outputLookup":false,"inputLookup":false}