{"layers":[{"0":{},"1":{},"2":{},"3":{},"4":{},"5":{},"6":{},"7":{}},{"0":{"bias":3.7093228128892815,"weights":{"0":2.607728780368076,"1":1.2866624684527301,"2":-6.860457919605983,"3":-3.048791417022724,"4":2.6479370560138644,"5":1.3337320280166598,"6":-6.851821874622648,"7":-2.899251735829437}},"1":{"bias":-2.365630380245255,"weights":{"0":-2.011001575938636,"1":-0.5554724830450622,"2":8.802544960761704,"3":-4.4192536702582945,"4":-2.0390285517670814,"5":-0.6171426386718305,"6":8.813290817317217,"7":-4.340500847544982}},"2":{"bias":-5.569352138024085,"weights":{"0":0.4491531974574532,"1":-0.026105852542249244,"2":0.531240740680863,"3":3.206337853939585,"4":0.4770523603050825,"5":0.2813233040482224,"6":0.5356507932999841,"7":3.33196771879832}},"3":{"bias":-3.0486038256541783,"weights":{"0":0.20285142447294607,"1":-4.762256615641189,"2":4.428216459832862,"3":1.8312880781551675,"4":0.2128410228821165,"5":-4.707063047313106,"6":4.428078378140384,"7":1.6955085542797137}},"4":{"bias":3.756813385397846,"weights":{"0":-2.8787631081382417,"1":-0.7314600583292088,"2":0.6754984120451764,"3":-8.051304573977086,"4":-2.8782982906222934,"5":-0.7270434578304504,"6":0.6880504179461977,"7":-8.367782889278885}},"5":{"bias":1.283949823709466,"weights":{"0":0.4912473383383615,"1":-5.8798503492703,"2":-0.9761739703888105,"3":-0.5726432263584014,"4":0.51426965735365,"5":-5.966066359687795,"6":-0.9860087869104941,"7":-0.4361032110064605}},"6":{"bias":0.5990051625046962,"weights":{"0":-3.968243111848701,"1":-2.1765419416284204,"2":-1.0536095929390723,"3":-7.745206485423235,"4":-3.9626015885563466,"5":-2.118754343476106,"6":-1.1059764364770854,"7":5.731869415885358}},"7":{"bias":-13.472013153414325,"weights":{"0":0.38039407102333134,"1":7.1393593491600305,"2":3.8025816937663772,"3":2.1003600016809933,"4":0.3753022111942729,"5":7.201531782533454,"6":3.8107581204268053,"7":2.166348229481211}},"8":{"bias":-0.4190203385134584,"weights":{"0":-4.901009081284506,"1":-1.9922563003126448,"2":-1.1612625999629518,"3":3.795892955773907,"4":-4.8824028559333055,"5":-2.02271808715493,"6":-1.4527735624338438,"7":4.119817246351038}},"9":{"bias":2.8056714986696214,"weights":{"0":-4.262167530161779,"1":-2.1472383107924866,"2":-0.3145039395258256,"3":2.7102480031978047,"4":-4.258174322051366,"5":-2.161504967553628,"6":-0.35684375450865813,"7":-3.570770900131133}},"10":{"bias":-0.6934213502405063,"weights":{"0":4.838177477665825,"1":-4.511168343770619,"2":2.8222981328074934,"3":1.6403357312542146,"4":4.830247344689698,"5":-4.524242740958057,"6":2.8127765124353927,"7":1.553807949624335}},"11":{"bias":4.446182400024629,"weights":{"0":1.2692982998043016,"1":0.2881829415023383,"2":-8.282270668128746,"3":-4.556559169775912,"4":1.2711632596937334,"5":0.3265416917784785,"6":-8.240017297575816,"7":-4.4442506895520175}},"12":{"bias":-1.3214547624614748,"weights":{"0":9.110458681036823,"1":-4.699631633948173,"2":-2.1148219114960343,"3":-1.01007211483372,"4":9.10256947571567,"5":-4.704317337323277,"6":-2.099568953256033,"7":-1.0532441533082586}},"13":{"bias":1.6433201937945612,"weights":{"0":4.594386169636034,"1":-6.0224159909656265,"2":-3.295274909190569,"3":-1.5381351687621503,"4":4.561281307962369,"5":-5.989766128682997,"6":-3.2994447779477003,"7":-1.540347718173614}},"14":{"bias":-5.731519348326837,"weights":{"0":-0.15164953014212348,"1":-0.798931717109482,"2":6.445040048068528,"3":-3.954550241346663,"4":-0.14416553791983897,"5":-0.79845607777289,"6":6.40787898368546,"7":-4.209606933177901}},"15":{"bias":-0.2419188267525076,"weights":{"0":-2.756060867782662,"1":-1.469737848306438,"2":-0.9573743485747804,"3":4.519936077310997,"4":-2.7495316147607887,"5":-1.3869600218290434,"6":-1.0939799533761423,"7":-5.942898763867827}}},{"0":{"bias":-0.6316146596921364,"weights":{"0":0.653513594289502,"1":-0.5444934552149706,"2":3.4556112274535664,"3":-0.09369195419074745,"4":-1.6956552254486617,"5":0.45918911070373447,"6":-4.275608137103721,"7":8.036185146210808,"8":-5.043735888157975,"9":-3.9488586897181253,"10":2.151141182606831,"11":1.600924787909655,"12":3.9151377007075103,"13":2.0320262715955435,"14":1.4346967358486795,"15":-1.5899247655415787}},"1":{"bias":5.145624635464147,"weights":{"0":-4.092253391413253,"1":2.524131038695489,"2":4.719203139073197,"3":-4.670151757547257,"4":-0.7078864134587632,"5":-4.714311812377835,"6":-0.5530029950162726,"7":-9.215079891806585,"8":1.5773187325340954,"9":1.9508990385667115,"10":-4.360386580980522,"11":2.4106332813579434,"12":12.28257339990773,"13":-17.681295434053855,"14":3.2317732470566507,"15":-2.3848406920199183}},"2":{"bias":-0.5796704769236402,"weights":{"0":-5.062746551844682,"1":9.611970159401162,"2":3.8341656777305,"3":-13.779986981716238,"4":2.5463410653681726,"5":-8.552530316859382,"6":1.7370001464399265,"7":-6.207328192543119,"8":1.7068005869239733,"9":2.985117148136822,"10":6.813182459710988,"11":-9.001142418216585,"12":-0.1334711272096353,"13":10.612759098780366,"14":-6.80067088591239,"15":-0.663209447711046}},"3":{"bias":-1.135428525570445,"weights":{"0":8.073129917836924,"1":7.386670293830575,"2":-2.053921350351101,"3":0.9120037952284302,"4":-11.854838205168955,"5":-0.5085592970941306,"6":11.402262327056379,"7":-0.26599938711600396,"8":-8.255033039160779,"9":5.474810043506174,"10":-0.7876405886574426,"11":-11.433871064555229,"12":0.1702331589083265,"13":0.8403439051942124,"14":-10.220549774864551,"15":7.325752627080749}}}],"outputLookup":false,"inputLookup":false,"networkData":{"n_bits":4,"error":0.005,"learningRate":0.1,"trainingOptions":{"errorThresh":0.005,"iterations":100000000,"log":true,"logPeriod":1000,"learningRate":0.1}}}