{"layers":[{"0":{},"1":{},"2":{},"3":{},"4":{},"5":{},"6":{},"7":{}},{"0":{"bias":3.8257899402025983,"weights":{"0":-2.721321399091731,"1":-1.2951546498533804,"2":1.1630986564684291,"3":-7.5137341098582695,"4":-2.7284296082612847,"5":-1.2643995073673802,"6":1.3199030209207996,"7":-8.074511006258733}},"1":{"bias":-0.030191702626580996,"weights":{"0":1.3304030367447128,"1":0.9307046414803931,"2":-1.498601894369204,"3":0.398783705845023,"4":1.2770352695368805,"5":0.9211215862169458,"6":-1.9808952730955272,"7":1.3338431259190389}},"2":{"bias":-0.15591593615050273,"weights":{"0":0.9365867241842674,"1":0.02240938356189952,"2":-0.25585564348442924,"3":0.13615029321194927,"4":1.0817075959402804,"5":0.06503732427406413,"6":-1.0113331998837625,"7":0.505357894031697}},"3":{"bias":1.4281693181709951,"weights":{"0":-3.6397194173218312,"1":-2.0833641164522123,"2":-0.9123875903096627,"3":5.030489291357507,"4":-3.616607457629525,"5":-2.1416609599013268,"6":-0.8703390283373812,"7":-6.063263988542796}},"4":{"bias":-0.16628975559048348,"weights":{"0":-0.7131829787032005,"1":-0.24289145655183714,"2":-0.25393738515631153,"3":-0.9112687129447796,"4":-1.008012717550768,"5":-0.7696859175201373,"6":-1.195116894160098,"7":-0.6828238913013138}},"5":{"bias":-0.1074433467570693,"weights":{"0":0.583925506441028,"1":-0.02685140533901673,"2":-0.3543595973094165,"3":-0.4594777885283991,"4":0.38076297872971177,"5":0.06091313103169768,"6":-0.967616465604252,"7":1.1114511758818977}},"6":{"bias":-0.01987658221615238,"weights":{"0":-0.47731393477671225,"1":-0.8065385148960191,"2":-0.32766187910977856,"3":-1.109846767419535,"4":-0.5474632800225182,"5":-0.8094546390951409,"6":-0.9243284352403526,"7":-0.9415654154216889}},"7":{"bias":-0.009724250531016372,"weights":{"0":8.759076065511401,"1":-4.893919722403598,"2":-2.4115396848900335,"3":-0.8438041328149497,"4":8.760823923793478,"5":-4.900298955770182,"6":-2.458111533791956,"7":-0.8626855292805538}},"8":{"bias":-0.18171637108189145,"weights":{"0":-0.6491115249221292,"1":-0.6732774899282856,"2":-0.5689113428005527,"3":-0.5957096485752216,"4":-1.0727020316055136,"5":-0.1713870599136835,"6":-0.6795812040667819,"7":-0.5440559885514572}},"9":{"bias":-0.6121764426581147,"weights":{"0":-0.014518680359663966,"1":-0.7396154699600093,"2":-0.04940291607831442,"3":-0.27563326098124596,"4":0.17414292293297728,"5":-0.6697757190130234,"6":-0.7213483490850191,"7":-0.08775357182986183}},"10":{"bias":-0.5320353545235872,"weights":{"0":-1.0926338834175122,"1":-0.3456454308188417,"2":0.03801629849144299,"3":1.7678033123221115,"4":-1.113461198795918,"5":-0.2529760172343453,"6":-0.3840680640801334,"7":-3.2172528966106984}},"11":{"bias":1.6941861703265066,"weights":{"0":2.931401795015328,"1":-4.667400448736691,"2":-1.7311876086725044,"3":-0.8641379522749757,"4":2.9485533977517546,"5":-4.628402662873073,"6":-1.7675546375924085,"7":-0.9990696013511318}},"12":{"bias":6.9089158932501755,"weights":{"0":-1.698263585437485,"1":-4.006772360530127,"2":-2.1209406125568773,"3":-1.277540487631064,"4":-1.6903837551942111,"5":-3.991678879969318,"6":-2.3942613996427977,"7":-0.784186124889578}},"13":{"bias":0.5629548017911791,"weights":{"0":-0.4281768532991731,"1":10.102635154860694,"2":-6.214544032230393,"3":-3.291137195899784,"4":-0.42639454972430524,"5":10.107764782227205,"6":-5.972224335978493,"7":-3.1087888414240474}},"14":{"bias":-0.5251962357516742,"weights":{"0":-0.5091249029449052,"1":-0.7246217183464866,"2":-0.0631963620063026,"3":-0.3814111933919154,"4":-0.2672650982220271,"5":-0.743540030119072,"6":-1.0565326696741437,"7":-0.832532087280766}},"15":{"bias":-6.918838959158333,"weights":{"0":-1.1944556398323198,"1":4.57817391691717,"2":1.7199209271937344,"3":0.8499917970093774,"4":-1.2042297666408563,"5":4.550606569036787,"6":2.0183370585536737,"7":1.045234416772411}},"16":{"bias":2.4549536628062634,"weights":{"0":-5.501786753486097,"1":5.862934481783982,"2":-4.986675389629714,"3":-2.370002996361114,"4":-5.507854545368713,"5":5.8967237599703175,"6":-4.84227596786698,"7":-2.3785347072550866}},"17":{"bias":-4.662261343981743,"weights":{"0":1.635055429592134,"1":0.5179315301177463,"2":-0.26193761755081907,"3":2.85022659932564,"4":1.6385548469049487,"5":0.50851228017195,"6":1.581385495332184,"7":3.8000125860653338}},"18":{"bias":-0.9251027161167709,"weights":{"0":-0.48564296614910324,"1":0.04050702116784101,"2":-6.924600465398822,"3":-3.7558613080326477,"4":-0.5409580486374316,"5":-0.013733605716374503,"6":5.3797083051026116,"7":-2.329611693906049}},"19":{"bias":-0.2791581562579199,"weights":{"0":-0.8310063422406206,"1":0.4567944338718276,"2":0.8176874586208445,"3":-0.5648673040516383,"4":-0.3851718013496296,"5":0.32118936048453933,"6":-2.014055736634354,"7":0.1275095304278273}},"20":{"bias":1.878846981816939,"weights":{"0":6.9051025723180395,"1":-7.5450633289508335,"2":-4.762599058928213,"3":-2.44488113577457,"4":6.915112976384544,"5":-7.533862522787586,"6":-4.80065967033903,"7":-2.612584147133669}},"21":{"bias":-0.5249015306412481,"weights":{"0":-0.4890299430781541,"1":0.10893790920555795,"2":-1.6394917477684565,"3":-0.3806411335097663,"4":-0.5391787452931739,"5":0.01261770050739505,"6":-1.5792125462146323,"7":-0.5456288951159676}},"22":{"bias":4.619718500598399,"weights":{"0":-2.0823330248633787,"1":0.008428841082328038,"2":-2.7141182363824097,"3":-1.9528115739951473,"4":-1.9072297317244635,"5":0.38062376215969995,"6":-3.2966230538156194,"7":-1.7444945034101722}},"23":{"bias":-0.45406953652242876,"weights":{"0":0.8726807662973051,"1":-1.9316012470634647,"2":-0.7873940327368061,"3":0.35655843622264366,"4":0.9281181182846595,"5":-1.8645243882174392,"6":-0.894456760628544,"7":-0.8418764650283647}},"24":{"bias":-0.4174082887488215,"weights":{"0":-0.4596098875209007,"1":2.378809768700338,"2":-2.0483833525171002,"3":-1.1570656630828637,"4":-0.5002051165360809,"5":2.1689434378371195,"6":-3.0942926239975326,"7":-0.8861318717401993}},"25":{"bias":-0.5059233490708157,"weights":{"0":0.03249054330562981,"1":0.2001194315549139,"2":-0.34960186572551083,"3":-0.05853352793482434,"4":-0.3042282008268074,"5":0.05352428920092212,"6":-0.38557265252529027,"7":-0.6034170236373868}},"26":{"bias":-0.8527463751952824,"weights":{"0":-3.647256181211934,"1":-1.7195866544567067,"2":0.0598221496071745,"3":-8.273760370156802,"4":-3.6433567527477897,"5":-1.7646216755724868,"6":-1.4298996609139412,"7":6.867777662892739}},"27":{"bias":-0.46113705365285523,"weights":{"0":-0.7809571536087985,"1":-0.4943144800715338,"2":-0.5382008113236756,"3":-0.07140619537681211,"4":-0.4097388213518523,"5":-0.5429071927501045,"6":-0.42895973267246246,"7":-0.79707914881071}},"28":{"bias":1.0288657574989684,"weights":{"0":-1.2450105093770616,"1":0.34888562999926714,"2":-0.7080801164975007,"3":-1.1659110397810153,"4":-1.221484719118429,"5":-0.2979740512926277,"6":-1.765689555570988,"7":-0.9153635196579383}},"29":{"bias":-0.15250902908342281,"weights":{"0":6.44488588520216,"1":-3.5134334716898894,"2":-2.265086435949979,"3":-1.61093364335581,"4":6.455400586004228,"5":-3.5023100021142093,"6":-1.9345511046531623,"7":-1.4678841288664526}},"30":{"bias":1.0916467946948742,"weights":{"0":-2.06298814428783,"1":-1.596390793134776,"2":-0.14041239889248805,"3":0.5410284554900737,"4":-1.7359085218549706,"5":-1.6221557479628999,"6":-1.0629139828392167,"7":0.7000079707808293}},"31":{"bias":-0.5648255634624542,"weights":{"0":0.07408248135178057,"1":-0.5683108003470391,"2":-0.676112891933388,"3":-0.37395657983731795,"4":-0.022673823652922438,"5":-0.6059916608895962,"6":-0.46632295289834086,"7":-0.5593042308970962}},"32":{"bias":2.2398176835572556,"weights":{"0":-2.585667980721718,"1":-2.412794708786701,"2":-0.8920219274435284,"3":0.5666692780525298,"4":-2.7700574636584174,"5":-2.4346902324095456,"6":0.42165941831622017,"7":1.2175171357953014}},"33":{"bias":-0.5036262705889563,"weights":{"0":0.010139481356753816,"1":-0.6799019963433172,"2":-0.6468660193318025,"3":0.06545080512203286,"4":0.40196805313532785,"5":-0.7233691177772028,"6":-0.43719351603332074,"7":-0.5935869218904734}},"34":{"bias":0.7479610812383551,"weights":{"0":-0.09495118061122049,"1":-0.06298272676530431,"2":-2.5273325446484063,"3":-0.7403116972797025,"4":-0.14551699562330442,"5":-0.1071295607117997,"6":-2.092614365358473,"7":-0.9621314004900307}},"35":{"bias":-0.5331483410369002,"weights":{"0":0.18909413889566265,"1":-0.03774132079713121,"2":0.11084319809555389,"3":-0.43339649727203766,"4":-0.20901399987502534,"5":-0.24625282194052966,"6":-0.7148849143785304,"7":-0.1173486414430963}},"36":{"bias":-0.5423610133416573,"weights":{"0":-0.09039755062312536,"1":-0.5448197187500292,"2":-0.3063715464641529,"3":-0.5146916499531183,"4":-0.23545331984565182,"5":-0.7630218740423896,"6":-0.5350725743069572,"7":-0.44569737460385367}},"37":{"bias":0.7381800961977749,"weights":{"0":-2.5245015617043025,"1":-0.5300699991721297,"2":0.6174321712635304,"3":-0.8907070263193344,"4":-2.488737618876126,"5":-0.6276038517357321,"6":-0.5705750217110537,"7":1.7750969157274812}},"38":{"bias":-0.5094134949754903,"weights":{"0":-0.3612563652404981,"1":-0.5593186461728076,"2":-0.4365429744051862,"3":-0.5197920222725791,"4":-0.24007822992270345,"5":-0.6645956088852255,"6":-0.4776671302755474,"7":-0.5764863146721068}},"39":{"bias":-0.5194197649738012,"weights":{"0":0.6461090753064613,"1":-1.2378128568833302,"2":-0.5809356750732481,"3":-0.07765448222425707,"4":0.4927707673512509,"5":-1.237655861989564,"6":-0.6541399977418184,"7":-0.26537268577237655}},"40":{"bias":-4.632380383444775,"weights":{"0":2.406409273600812,"1":0.8529768751954805,"2":5.32481565213667,"3":3.887766456819802,"4":2.392848467625571,"5":0.8742928357103987,"6":-6.5043948711824635,"7":3.540303348894678}},"41":{"bias":-0.3834645256935933,"weights":{"0":-0.02670611287915501,"1":-1.0305504775417296,"2":-0.31762181458245375,"3":-0.3633008352702908,"4":-0.2060187948922873,"5":-1.0508946268595754,"6":-0.6123819974688782,"7":-0.6623248215758992}},"42":{"bias":4.984870772276327,"weights":{"0":0.8240549378877278,"1":0.5703437518391462,"2":-9.269101731351704,"3":-5.071834552363328,"4":0.8150104146157511,"5":0.5576629329782813,"6":-7.836992416548393,"7":-5.358674623864532}},"43":{"bias":-0.44497746157792356,"weights":{"0":1.0988766520210211,"1":-1.6394065418800956,"2":-0.9278780733759514,"3":-0.7303638360521878,"4":0.9388869671764808,"5":-1.6232119022830258,"6":-0.7304455115624747,"7":0.03338169688302521}},"44":{"bias":-0.46461884251589525,"weights":{"0":1.4223823973903083,"1":-3.1505044646252114,"2":-1.198490900844559,"3":-0.7652038289037495,"4":1.370804118431286,"5":-3.1539342289418117,"6":-0.5047386755296305,"7":-1.1087499524435378}},"45":{"bias":0.9234530609882516,"weights":{"0":1.883668338589816,"1":1.3827490582597939,"2":-0.21442162585016455,"3":-0.4151971119406226,"4":1.751794087632298,"5":1.4413978384172437,"6":-1.6704508999790986,"7":-0.4038430813830432}},"46":{"bias":-0.3363181182352782,"weights":{"0":-0.7515266658328973,"1":-0.3738810545915182,"2":-0.0476681080480112,"3":-0.340338704513053,"4":-0.17933972361532236,"5":-0.4787762168064175,"6":-0.46674327611906913,"7":-0.6153035387297391}},"47":{"bias":-0.13971502554683493,"weights":{"0":0.35406097129021324,"1":-0.32284219795764213,"2":0.0803755729016121,"3":-0.32327725332177476,"4":0.5368421356340526,"5":-0.17280112600323594,"6":-1.0704131077505528,"7":0.5357028028807181}},"48":{"bias":-0.5655565472693056,"weights":{"0":-0.442164016335401,"1":-0.5671432240519356,"2":-0.12469885300438886,"3":-0.28907771473282184,"4":-0.7648470787508251,"5":-0.3799288185099877,"6":-0.4295941835054983,"7":-0.5315264266803885}},"49":{"bias":0.907667196313445,"weights":{"0":-1.3732604230362224,"1":0.24389084016081916,"2":-1.727492083681948,"3":-0.47273579670641047,"4":-1.3006209387611465,"5":0.5277488441766054,"6":-1.1074264093923942,"7":-0.43901775604300974}},"50":{"bias":1.672107146065668,"weights":{"0":3.6138782783465846,"1":1.4133837060742946,"2":-5.882964327121865,"3":-3.689741105317778,"4":3.6513434316126006,"5":1.3714157050599152,"6":-6.462638826972884,"7":-2.898157114089865}},"51":{"bias":1.5937569952098807,"weights":{"0":-1.7624465317702582,"1":-0.554391157941092,"2":-1.290845334417828,"3":-0.26485383846133365,"4":-1.6549182763923977,"5":0.03007685341536963,"6":-0.16692358055989295,"7":-0.5216476331377747}},"52":{"bias":0.6812974721627215,"weights":{"0":-1.4088002131266137,"1":-0.3092471455656074,"2":-1.2526550651132964,"3":-0.04375894115029431,"4":-1.4117265487132136,"5":-0.3589728129606975,"6":0.624882071120906,"7":0.5691640970600571}},"53":{"bias":0.9375999989403541,"weights":{"0":-0.7032350029114732,"1":0.881195590191257,"2":-1.0851525252638687,"3":-0.8339124222160111,"4":-0.719260151248704,"5":-0.9521316356474532,"6":-1.3185358469611745,"7":-0.9492168821211208}},"54":{"bias":-0.4458463432880316,"weights":{"0":0.15891192770014495,"1":-0.3644982084521808,"2":-0.5076197839452803,"3":-0.04169576337445716,"4":0.1038101358534062,"5":-0.4424154676727999,"6":-0.3236026092749263,"7":-0.4719550890264154}},"55":{"bias":2.1878933633017175,"weights":{"0":0.5724701864910174,"1":-5.815805275289065,"2":-1.8422575517183994,"3":-0.6229719370533915,"4":0.5790570442365717,"5":-5.878208330503046,"6":-2.2114414623842467,"7":-0.7383990644653455}},"56":{"bias":-0.7187386465347272,"weights":{"0":-0.0839512134486414,"1":-0.1468076071342346,"2":-0.2957771870255265,"3":-0.4282257821892669,"4":-0.12340333456855437,"5":-0.4035692475976085,"6":-0.31938694780711613,"7":-0.39473529794639994}},"57":{"bias":-0.201515180987991,"weights":{"0":-1.6631670354037076,"1":-0.5297499515600679,"2":0.19279522995221432,"3":1.9337562742277117,"4":-1.6630716966101708,"5":-0.6265997987296282,"6":-1.1995520834634272,"7":-3.7335434368225475}},"58":{"bias":-0.0648871768108277,"weights":{"0":-0.9296044492037192,"1":-0.5043256119850841,"2":-0.08686567750418146,"3":-0.5293327326987217,"4":-0.7687463960658003,"5":-0.5743139106203411,"6":-1.1826245692397437,"7":-0.9926509211264936}},"59":{"bias":1.0168743654031933,"weights":{"0":-2.5796479071693543,"1":-0.5283113192807283,"2":-1.2580201338712091,"3":1.150955809824121,"4":-2.5705666949089103,"5":-0.5240094092965261,"6":-0.5661093610957948,"7":1.4284078556619377}},"60":{"bias":1.347046768019251,"weights":{"0":-2.109581655656815,"1":-0.7199338313322216,"2":3.777378042393208,"3":0.9832374807083802,"4":-2.173594840212715,"5":-0.7412596484759095,"6":-3.4592840423498625,"7":-4.1665169494681775}},"61":{"bias":-0.41606615088027643,"weights":{"0":1.5593672845576774,"1":3.0873998640245905,"2":-2.7626266194579565,"3":-1.8343395253929438,"4":1.6006843811740923,"5":3.1651072986427478,"6":-2.994490898043151,"7":-2.1740700657718914}},"62":{"bias":-0.2627897322391393,"weights":{"0":-0.7256541183274962,"1":-0.49230550688904684,"2":0.06563894438966954,"3":-0.6896359385954379,"4":-0.9137213226412155,"5":-0.18118630632577754,"6":-1.1985783655444577,"7":-0.9188681032573734}},"63":{"bias":-0.22323409070280303,"weights":{"0":0.3987853424904668,"1":-0.21046273077124558,"2":-1.4601850161449752,"3":0.10486679512069072,"4":0.19369191269836855,"5":-0.42460198559340706,"6":0.4103852188048311,"7":0.250959781977962}}},{"0":{"bias":3.31049230725552,"weights":{"0":2.3941126211628014,"1":1.2902472296478622,"2":0.8172043394456454,"3":-2.2280381599418675,"4":-0.9685895486186441,"5":0.5160767672021132,"6":-0.5955217850395017,"7":3.174228476903694,"8":-0.9316461392521473,"9":-0.2887426411782774,"10":-0.06676692035764836,"11":0.9526610485327176,"12":-4.017571319822851,"13":-1.0966841948418298,"14":-0.6765333010818355,"15":7.020242643453911,"16":-0.18645874562826897,"17":4.104772665888294,"18":-1.2901715517621941,"19":0.2903527117623273,"20":1.209987529979942,"21":-0.6482489892993725,"22":-2.964417479210101,"23":-0.05532397487825112,"24":0.5187362756552629,"25":0.30735090925159536,"26":-2.28355047041115,"27":-0.7432859010830907,"28":-1.6833216596793046,"29":3.1023301500535654,"30":-3.0942075525098733,"31":-0.04905350389767427,"32":-2.5799390136494527,"33":0.08263735779113186,"34":-0.7555547297095031,"35":0.33630069261022616,"36":-0.2239344068471384,"37":-2.3530526858029694,"38":-0.30742495862824154,"39":-0.15783408294696796,"40":0.7435856782518826,"41":-0.4085336068265407,"42":1.32376910637732,"43":0.378866465126127,"44":0.3430702618582566,"45":1.7036708134683771,"46":-0.236286471609244,"47":0.4149680848276318,"48":-0.5483932630174118,"49":-1.4412322596259621,"50":2.1143775296821823,"51":-1.9294277901749783,"52":-1.3608515606069949,"53":-1.2462198868971326,"54":0.1305984614432817,"55":0.46420543511590107,"56":0.28892946855339807,"57":-0.9829510420432207,"58":-1.1947378070981651,"59":-2.2488578994504405,"60":-0.7404072628348718,"61":1.8013586150309169,"62":-0.9042927083738125,"63":0.3980936946517701}},"1":{"bias":-0.7623401561757275,"weights":{"0":1.1248730218489063,"1":-2.0054536350303436,"2":-1.0736248836220068,"3":1.7609289196096354,"4":-0.1067736605607308,"5":-0.9989598900603324,"6":-0.7859524063615394,"7":11.656360452573864,"8":0.0021849740166429072,"9":-0.791311670860107,"10":-2.1455171115940397,"11":-5.769029975681836,"12":6.415931194074501,"13":10.20773441331012,"14":-0.9492218340435529,"15":-6.517705419609459,"16":6.088624947845686,"17":1.0991180648375425,"18":-2.8150870959863554,"19":-1.2729929554313308,"20":-12.224475237829397,"21":-0.24649887672430035,"22":-2.094261724415907,"23":-2.162616109598166,"24":-1.800540868748194,"25":-0.7631942462445577,"26":-1.7399582082542135,"27":-0.6703128902084081,"28":-0.6754436000973819,"29":7.68495843593201,"30":1.3548832261863453,"31":-0.7463275529813623,"32":2.899363162819716,"33":-1.023192961686182,"34":-0.07086021976382197,"35":-0.747017553009392,"36":-0.6891488640559106,"37":3.262598757705928,"38":-0.6928061571108796,"39":-1.3820883112921842,"40":-0.033007528165424106,"41":-0.9840921487293902,"42":3.1417802216877586,"43":-2.261358564453379,"44":-3.23156665186701,"45":-2.259784906014331,"46":-0.6126999733087158,"47":-1.0824956321208223,"48":-0.1742181076627367,"49":-1.4288499563143902,"50":-4.017283433343372,"51":-0.11895248061747207,"52":-0.20293501588557308,"53":-0.027637174239401336,"54":-0.9257449486888628,"55":-7.79752244277351,"56":-0.5582021081665528,"57":-1.425953433849869,"58":-0.6668494417615128,"59":-0.055934803344185914,"60":1.3593782727571075,"61":-4.6846693338563785,"62":-0.31172710585456986,"63":-1.6367562264932716}},"2":{"bias":-1.838188440537913,"weights":{"0":0.4345653920275918,"1":-2.7819311763163728,"2":-1.819496424261283,"3":0.7159444986712293,"4":1.0145214044220845,"5":-1.598183107333867,"6":0.9512712346288368,"7":2.4545978600447356,"8":0.6973696126199759,"9":-0.4828317964442222,"10":-0.3447178497114008,"11":3.825574204510771,"12":-4.584656055529423,"13":12.50361403941127,"14":0.4498330287069987,"15":-2.108140675090266,"16":-10.979200290416237,"17":-4.647333586421826,"18":6.654528269114811,"19":-1.6237982215914954,"20":12.164667650358538,"21":-0.5756153880530838,"22":5.1684282622451025,"23":-0.9952489046496984,"24":-1.4195394617345611,"25":-0.04737223270707904,"26":0.23997018504510545,"27":0.4539389417230381,"28":1.9339123560884621,"29":-3.791595771289161,"30":0.476335289912574,"31":0.15029699603648206,"32":3.1464189339731328,"33":-0.27175852051403687,"34":-0.6836368700320553,"35":-0.3268430710230451,"36":0.14708690423197995,"37":-0.1734161851870217,"38":0.393823949715691,"39":-0.8101674857230908,"40":10.137238688504032,"41":0.08762093590572104,"42":-9.29215575459189,"43":-0.12980773465094078,"44":-1.9772864586058405,"45":-3.161792545854776,"46":0.11947174495782831,"47":-1.2889890222509828,"48":0.14171697698727234,"49":1.2072032998836184,"50":-9.096995681589338,"51":2.495863094026431,"52":1.9677200238118526,"53":1.7598615582886736,"54":-0.20533591495668943,"55":-4.0130818969946676,"56":0.10915916401249683,"57":0.6305097171174868,"58":0.8979633664145689,"59":2.1212055532195575,"60":-5.091829029304148,"61":3.172984446538104,"62":0.859915726561651,"63":-0.21998946625607044}},"3":{"bias":-1.6964005493645125,"weights":{"0":-12.939592176467567,"1":1.0112959840361386,"2":0.3200387828926773,"3":8.416327265577554,"4":0.04532619458694961,"5":0.8842266993690792,"6":-0.8069474302339317,"7":-0.1832387007888975,"8":0.10402787869377286,"9":0.18270783828362583,"10":2.0436548972980626,"11":1.7820994233120424,"12":0.11138284754800355,"13":-0.12661861394620882,"14":0.22167478579176145,"15":-1.984897289088253,"16":4.423372426993814,"17":-3.912616831766497,"18":4.284896518651722,"19":0.6704611640161869,"20":0.6403808073870269,"21":-1.0908888421040102,"22":-2.0110554591900294,"23":0.31627230417011243,"24":2.47415955384689,"25":-0.11945048332024497,"26":12.979046892579229,"27":0.31335135379146445,"28":-0.4504530231001421,"29":1.2321987133220147,"30":-1.0601298313684422,"31":-0.4757967573330871,"32":-0.5362587538175632,"33":-0.3493212100554568,"34":-2.7443331829443247,"35":0.2886756170573972,"36":0.0331749861528841,"37":-1.097649526533928,"38":0.008905939076816949,"39":-0.13242525633624813,"40":-3.6014265526625033,"41":0.24571623766533357,"42":-13.59436031814582,"43":0.40270816432160556,"44":-1.585179128207063,"45":0.4999465569303564,"46":0.5255876677049786,"47":0.49360147866815035,"48":0.34598548679498975,"49":-1.3572997885227902,"50":7.757345203238183,"51":0.5228415967008421,"52":0.03365091184665488,"53":-0.7056434442950998,"54":-0.20509330832735076,"55":0.18313301976856372,"56":0.08737422270751423,"57":3.330860514413611,"58":0.3244238805506309,"59":-2.221317832565281,"60":2.290026826797441,"61":1.701366443896581,"62":0.544271547032335,"63":0.31696891952358336}}}],"outputLookup":false,"inputLookup":false,"networkData":{"error":0.01,"trainingOptions":{"errorThresh":0.01,"iterations":100000000,"log":true,"logPeriod":100,"learningRate":0.1}}}