{"layers":[{"0":{},"1":{},"2":{},"3":{},"4":{},"5":{},"6":{},"7":{},"8":{},"9":{},"10":{},"11":{},"12":{},"13":{},"14":{},"15":{}},{"0":{"bias":2.642846090204805,"weights":{"0":-1.8034550818794395,"1":-1.1499200720954876,"2":0.48011798055946775,"3":-0.5271109420311557,"4":0.2781751448338223,"5":0.25909638617221725,"6":-1.4830863248869717,"7":-0.13579838603316974,"8":-1.7516004771342808,"9":-1.0815271421786332,"10":0.5283081803143382,"11":-0.5160163064054386,"12":0.289651735466114,"13":0.262599067388506,"14":-1.4969192483057687,"15":-0.13048520049752468}},"1":{"bias":0.6316539705613505,"weights":{"0":9.174929411343655,"1":-5.485072123741785,"2":-2.749586367372774,"3":-0.9608619491934773,"4":-0.5014310952121758,"5":-0.23072947433870378,"6":0.13011856378909167,"7":-0.023682159823935765,"8":9.178542934752425,"9":-5.497399669101841,"10":-2.750761068157566,"11":-0.962741732365914,"12":-0.5028237341231008,"13":-0.23045315904571684,"14":0.11346090256369039,"15":0.0015640624738761}},"2":{"bias":3.8068403591297626,"weights":{"0":0.054759665611507705,"1":-0.08903152711286787,"2":-2.2784993324544276,"3":0.2353683808200807,"4":0.12607728398936238,"5":0.006339239752586451,"6":-0.30856653015704605,"7":-6.9870451145605825,"8":0.0502879131208449,"9":-0.09140603404075191,"10":-2.2762337514173665,"11":0.23447268174506578,"12":0.12503706978612003,"13":0.005421378519435335,"14":-0.10806142776108332,"15":-6.694880406720283}},"3":{"bias":5.388868100666158,"weights":{"0":0.08728262586784688,"1":0.01858493163952927,"2":0.03055831089788733,"3":0.042610577601633046,"4":-3.33412647502325,"5":1.8537306071422686,"6":-2.274635295728114,"7":-0.8671988343860795,"8":0.08789329861538618,"9":0.015812643427533704,"10":0.024711505550712002,"11":0.025550144428895732,"12":-3.3386123252387745,"13":1.850961703980592,"14":-2.3099005496337695,"15":-0.8522816786990688}},"4":{"bias":-10.582196469527764,"weights":{"0":0.00030581283451273954,"1":-0.20384460494508022,"2":-0.1522412985624382,"3":-0.07068304219411065,"4":-0.2120086114125982,"5":-0.11647501703389064,"6":6.5262494169982705,"7":4.103757684018108,"8":-0.007565416961932849,"9":-0.2071585197495965,"10":-0.15063045301267064,"11":-0.0756797108453084,"12":-0.2143985624174797,"13":-0.11648266434109807,"14":6.547473581041946,"15":4.028642892064029}},"5":{"bias":-0.4383833760530764,"weights":{"0":0.1214600626616135,"1":0.2263928621138486,"2":-0.01814043459279374,"3":0.3632035583180861,"4":0.3447468344923885,"5":0.23662603639778168,"6":1.7720020564730719,"7":-3.574719913735995,"8":0.13283226947464902,"9":0.24486894439186854,"10":-0.009698452081479262,"11":0.37127254241384944,"12":0.34861713682684964,"13":0.2369792204516076,"14":1.610575598157074,"15":-3.5222033056950917}},"6":{"bias":26.518091098676933,"weights":{"0":0.3131973383858947,"1":-14.042010205152962,"2":-7.106389568341434,"3":-2.986058467093367,"4":-1.5094999240592075,"5":-0.7613290952193679,"6":-0.1543900755701479,"7":-0.17148957577183774,"8":0.3141742190047741,"9":-14.053735399369954,"10":-7.108421898781291,"11":-2.987008067964047,"12":-1.5114308120554,"13":-0.7625677238428854,"14":-0.13443740779973784,"15":-0.1875082028940057}},"7":{"bias":5.7869225490353,"weights":{"0":-3.0098434188694005,"1":-0.8825639874369553,"2":-0.5906451191826483,"3":-0.4062751958834305,"4":-0.013872579833291496,"5":-0.07619099116671633,"6":-0.5677036503660948,"7":-0.06373531349508542,"8":-2.9859412038327116,"9":-0.8701900220138112,"10":-0.5916015872935909,"11":-0.40421087527180855,"12":-0.013785781982473842,"13":-0.07594488442358084,"14":-0.49968899686480767,"15":-0.13152409277526683}},"8":{"bias":-0.14385623415325857,"weights":{"0":-10.353676114940953,"1":-4.063821936242159,"2":-2.4127796438687446,"3":8.390076737840035,"4":4.331984760854557,"5":2.200054717454787,"6":1.1780899636822548,"7":0.6072820429715055,"8":-10.353528053190004,"9":-4.0641951714070474,"10":-2.4132421353517324,"11":8.391586369001141,"12":4.333137029245961,"13":2.2009941579112025,"14":1.1602598510547089,"15":0.6001793901663327}},"9":{"bias":-2.055024563257483,"weights":{"0":1.0413233162657167,"1":0.5694546178842003,"2":0.4923051174696848,"3":0.5632554663627674,"4":0.27216500415930567,"5":0.4980827064055899,"6":-1.0557587808946665,"7":0.02701986660932457,"8":1.030056441163427,"9":0.5489167268631014,"10":0.49652950558424813,"11":0.5629435977497077,"12":0.267763054657708,"13":0.49842164692477603,"14":-0.2342846788991533,"15":-0.9201040795582652}},"10":{"bias":0.09149818003385128,"weights":{"0":0.06869176014947725,"1":-1.798880212292703,"2":6.747782767045323,"3":2.7281875990203615,"4":1.1701040547067558,"5":0.6696402778951361,"6":-5.492553906789844,"7":-2.8071569639318357,"8":0.0735771578177572,"9":-1.7996725997791896,"10":6.754822211229628,"11":2.728406711507323,"12":1.1714774947076163,"13":0.669970300400129,"14":-5.516224882682237,"15":-2.7491156181188274}},"11":{"bias":-1.1887164685502656,"weights":{"0":0.038257308643092826,"1":-0.007289607279086818,"2":-0.4566181368587651,"3":-0.009977807643847066,"4":-0.08529057457608924,"5":-0.19203175062178585,"6":-0.9256647938778277,"7":-7.347206611326747,"8":0.04079264447518904,"9":-0.012017706015563144,"10":-0.4683223696073566,"11":-0.011337344802559155,"12":-0.08757223346034632,"13":-0.1945256325509702,"14":-0.8410015920768086,"15":5.8582270443036695}},"12":{"bias":-0.08972763186889354,"weights":{"0":0.011208624037478404,"1":-0.3004513429318173,"2":-4.6449619927672945,"3":-0.5024275950800114,"4":0.5426992055337118,"5":0.12256981534623924,"6":-3.75271232828412,"7":5.16267356855367,"8":0.016244505407919604,"9":-0.28429121580774397,"10":-4.635370025329739,"11":-0.49905389140590584,"12":0.5444685518524547,"13":0.12209440783617023,"14":-3.7006347393093963,"15":5.16495477966656}},"13":{"bias":0.27566790196004287,"weights":{"0":-0.15025962713184113,"1":4.466450514138978,"2":1.8391014491671294,"3":1.2343408092457628,"4":0.3369300287044953,"5":1.0320907094157328,"6":-5.191592399102825,"7":-2.31310544961608,"8":-0.1635052729414184,"9":4.499458309052088,"10":1.8463401714456888,"11":1.235578015691324,"12":0.33798617582836754,"13":1.0310981130095496,"14":-5.24704777089181,"15":-2.26157329104509}},"14":{"bias":-0.8044831657497208,"weights":{"0":0.03279111039091305,"1":-0.047515040674278766,"2":-11.299661848120909,"3":6.299605569078972,"4":3.3326084324572443,"5":1.3994668235716323,"6":0.46833377809695126,"7":0.41753560102297327,"8":0.017208494341840054,"9":-0.05046081650376707,"10":-11.302501723412014,"11":6.295748967145065,"12":3.331014610022101,"13":1.3992405249349804,"14":0.5917215031649043,"15":0.3933484436467293}},"15":{"bias":0.6608553487900664,"weights":{"0":0.043834116232303016,"1":-0.0464437816282548,"2":-0.012079980687341778,"3":0.22856786324936923,"4":-14.293904565658014,"5":7.385909580226289,"6":3.4836047053541868,"7":1.7927845834012235,"8":0.049805367954290074,"9":-0.04034420545640213,"10":-0.00720080791639857,"11":0.2351549882746487,"12":-14.293893282617672,"13":7.385383405057742,"14":3.453832700424512,"15":1.7917908093919817}},"16":{"bias":-2.749403393116768,"weights":{"0":-3.088839174153357,"1":-0.6362267417569472,"2":0.01585225084898217,"3":-0.799657027206731,"4":-0.6642328401856942,"5":-0.18538039620578622,"6":4.445661531835757,"7":2.9990698326822742,"8":-3.0811343055473968,"9":-0.6680164007383731,"10":0.00446405438383844,"11":-0.807696691965941,"12":-0.6694243728748169,"13":-0.18895849068610002,"14":4.30327744620744,"15":3.0143569711695033}},"17":{"bias":-1.5944644810520705,"weights":{"0":-0.05947937115157807,"1":-0.09378476585305,"2":0.15713009880440687,"3":-2.200209332061726,"4":-6.087497065607102,"5":-2.0203584620788244,"6":6.573075806916001,"7":2.9509520629595483,"8":-0.07420274131816687,"9":-0.11542003173013717,"10":0.15199593217975574,"11":-2.2028167055037566,"12":-6.09087034752477,"13":-2.019184699579743,"14":6.6234553988052465,"15":2.900071556703713}},"18":{"bias":14.171014110628116,"weights":{"0":0.06013323057468438,"1":-0.023562741218073974,"2":-0.10543456058463024,"3":0.02340986240835771,"4":0.09877565113955296,"5":-8.019517618142391,"6":-3.604427858190632,"7":-1.5771970877313282,"8":0.06561671204565694,"9":-0.020964074944547797,"10":-0.10361384332203338,"11":0.024314227006246063,"12":0.09862820541507324,"13":-8.019852226873295,"14":-3.5377172734916846,"15":-1.5910177952297944}},"19":{"bias":-0.5555252856996542,"weights":{"0":0.16980665373491627,"1":-0.09520088874571954,"2":0.18117494011943386,"3":-12.858072457149666,"4":6.700543498866988,"5":3.334971187512803,"6":1.7209048130618325,"7":0.9949457090242019,"8":0.1693531347761972,"9":-0.09562422714350684,"10":0.18275947241179202,"11":-12.863450425418467,"12":6.699055423576355,"13":3.3343421015297707,"14":1.7951549331886543,"15":1.0160402089651508}},"20":{"bias":14.26134389799003,"weights":{"0":-0.10210035274748691,"1":-0.10950914523975527,"2":0.005844428319849748,"3":-0.06142701927700831,"4":-7.19141789687925,"5":-3.7467154075532725,"6":-1.7629485920990695,"7":-0.9687289023324791,"8":-0.09887090583227524,"9":-0.10164328277121082,"10":0.015956621126690787,"11":-0.04445837380854917,"12":-7.18972764137248,"13":-3.746307891244892,"14":-1.8211759642269334,"15":-0.9176894238781007}},"21":{"bias":3.2471410714894744,"weights":{"0":0.8482442211042109,"1":-0.39071334204950287,"2":-0.6622397087731926,"3":-0.581336599557782,"4":-1.2501532326217466,"5":-0.10842699344050831,"6":-0.9828990542715752,"7":-0.427116388348554,"8":0.835201869743228,"9":-0.3881747930665069,"10":-0.6611792310676768,"11":-0.5706626472141295,"12":-1.2481039927306987,"13":-0.10685885971878768,"14":-0.8117747284759302,"15":-0.3844356555363031}},"22":{"bias":21.808929500004677,"weights":{"0":0.11917034220871767,"1":-0.06150218333449592,"2":0.09785899623502706,"3":-11.471908751970238,"4":-5.549832059221351,"5":-2.779345186179278,"6":-1.305313348250545,"7":-0.6128241475947535,"8":0.12287007902732971,"9":-0.06442471312808741,"10":0.10021086709484196,"11":-11.473192019544301,"12":-5.551068179568429,"13":-2.7797686107668365,"14":-1.2424470227471724,"15":-0.6018161518572022}},"23":{"bias":4.885364262720279,"weights":{"0":-0.23897082057834113,"1":0.0038465880358383264,"2":-0.8417150764782391,"3":-4.527619665536727,"4":1.021216385778191,"5":0.7285476437564218,"6":0.7775579088964358,"7":-4.827472701413821,"8":-0.22676731852079118,"9":0.012342698589228056,"10":-0.8351500002017379,"11":-4.533134126545034,"12":1.0235318748866038,"13":0.7294784463749696,"14":0.7581746799751886,"15":-4.807515042769187}},"24":{"bias":26.46449854910111,"weights":{"0":-13.370008166861153,"1":-6.9237810827278015,"2":-3.4444711229531544,"3":-1.4465873024289282,"4":-0.6805135239658353,"5":-0.32685033743901,"6":-0.2283907435046289,"7":-0.044311983152908345,"8":-13.369699778375688,"9":-6.918986717146641,"10":-3.4427687455761,"11":-1.4486020765356442,"12":-0.6811665907081212,"13":-0.3271269512788992,"14":-0.24467198079408958,"15":-0.04340778390532848}},"25":{"bias":0.686596277392444,"weights":{"0":0.07527880614488977,"1":0.030079608320973603,"2":-1.043246870918368,"3":0.13594919540050643,"4":0.05271257436633733,"5":-0.0170696282074252,"6":-1.3653736984354172,"7":5.165403439817473,"8":0.07419387071218339,"9":0.017874757070584793,"10":-1.0501292030064613,"11":0.13320880994223508,"12":0.051397690269754076,"13":-0.017910862636452557,"14":-1.2581232649042289,"15":-8.020762259380577}},"26":{"bias":25.33017606241342,"weights":{"0":0.03425236824538687,"1":0.12299854010864791,"2":-13.115576062111616,"3":-6.609651852231385,"4":-3.044685208838611,"5":-1.6942753699388018,"6":-0.7693340654052894,"7":-0.18967932627910475,"8":0.025604491243757885,"9":0.12465491792201738,"10":-13.118756919973906,"11":-6.6125645425098325,"12":-3.045461562841959,"13":-1.6947127759179978,"14":-0.706026469893566,"15":-0.2156752304460712}},"27":{"bias":-0.9081141014226238,"weights":{"0":0.369053374082912,"1":-14.58689609349268,"2":7.426138989441842,"3":4.091127619244889,"4":2.0254305981105953,"5":0.9455020280189105,"6":0.4662654642780274,"7":0.1606042329188932,"8":0.37204361088584936,"9":-14.59679137649562,"10":7.419570246979625,"11":4.090210815410946,"12":2.0257068187828198,"13":0.9458216414455668,"14":0.48699748420586425,"15":0.1334079513687764}},"28":{"bias":-6.711943162908209,"weights":{"0":0.2903131169718367,"1":0.10006348445397664,"2":0.06557964920841156,"3":0.22930716967181605,"4":0.3167183115080728,"5":0.18528475809030784,"6":10.255814854206179,"7":4.633830267140262,"8":0.2885860560457331,"9":0.094548800407442,"10":0.06069124337295843,"11":0.22620302342433526,"12":0.3136056632000132,"13":0.18477725995283753,"14":10.405754998326074,"15":4.667902032794946}},"29":{"bias":-1.01441389848328,"weights":{"0":-0.11746370263865698,"1":-0.05041473937851324,"2":0.07901841611203812,"3":-0.09218360613873157,"4":-0.2681460446350731,"5":12.85774095393178,"6":-6.5050324052884685,"7":-3.6366022509260048,"8":-0.11952685000974342,"9":-0.053333251351052324,"10":0.07642002382671494,"11":-0.09193678174125414,"12":-0.2679881664951275,"13":12.857662446947286,"14":-6.593036159388903,"15":-3.5957225585324966}},"30":{"bias":0.6449369011593152,"weights":{"0":0.062066435347384624,"1":0.06892547728585936,"2":-0.29686369355441544,"3":-1.8759182945814934,"4":-1.4971718351697372,"5":-1.0244327177077108,"6":-0.07734408205816293,"7":2.473681078809921,"8":0.062251952083985075,"9":0.04912697363618572,"10":-0.30497458958556783,"11":-1.8817430077443036,"12":-1.5002400451910585,"13":-1.0253294345292625,"14":-0.012415166361661324,"15":2.5837643869527307}},"31":{"bias":-1.425526364298792,"weights":{"0":0.815820743416073,"1":0.3275913931522649,"2":0.25686281532254035,"3":0.047386825521926135,"4":0.5731338384698936,"5":0.2378345622605257,"6":-2.3089349921518054,"7":0.8742250900968309,"8":0.8318423371055733,"9":0.32765259700291915,"10":0.2488426907883457,"11":0.051427914456409034,"12":0.5772123229891318,"13":0.23736729068556112,"14":-2.763912893690119,"15":1.3034557399711846}}},{"0":{"bias":1.732588240905155,"weights":{"0":-3.3137039236449946,"1":2.292820416931915,"2":0.9977405652313519,"3":0.004369518057639141,"4":3.109485745829832,"5":2.8746959023196905,"6":-2.8383486097423964,"7":-5.777522559118773,"8":-3.688374433291181,"9":3.070125244533838,"10":0.20636179569017618,"11":-0.47405160336405455,"12":0.5742384393156952,"13":3.5333933773811954,"14":3.9896357925010646,"15":3.334792188998612,"16":-4.057816864179814,"17":2.5926965375655655,"18":0.0764352046357195,"19":3.7097134670265235,"20":0.12540714604058284,"21":-1.4340646649421298,"22":-3.2696761213494776,"23":0.7372431538593758,"24":-11.33102495228349,"25":-0.5460009284091328,"26":-2.280359280456348,"27":1.7216125966483609,"28":-0.8767525255340629,"29":-3.1773190110186875,"30":3.5236572033129767,"31":5.186614223760072}},"1":{"bias":-1.8247490107271254,"weights":{"0":-4.801970147741797,"1":17.757645921422117,"2":-1.5168439075235272,"3":-0.9604839247446321,"4":1.9173371707065088,"5":1.4696916154214896,"6":-16.211510778500035,"7":2.3028403174027177,"8":-13.601935899950892,"9":1.976178723141449,"10":-0.6451353752774815,"11":-0.6422877053947282,"12":-0.8362207837705209,"13":1.376390072953962,"14":2.13312704179064,"15":-0.5383038133590191,"16":-4.36258374782861,"17":0.849611216167295,"18":-1.1336439283155415,"19":-2.0440811974861863,"20":-0.7291263384487243,"21":-3.9239480088584817,"22":-2.0761167165311365,"23":-0.49346007081805887,"24":30.390658900554296,"25":-0.900379251675719,"26":-4.184147380720819,"27":-2.7440919211569987,"28":-0.10397651677966234,"29":0.7066304698971805,"30":1.0316017988881674,"31":0.4293737278168379}},"2":{"bias":-0.4293511102760414,"weights":{"0":-1.1631616813132557,"1":-2.910150312682557,"2":-2.828250775843499,"3":-2.9101890468564924,"4":5.019999904421061,"5":1.8701739091210112,"6":30.54443017378693,"7":-7.609024771845708,"8":-1.883285235694746,"9":5.168476372584821,"10":7.477610315685324,"11":-1.8234168293441888,"12":-3.000205132782135,"13":7.3628270122111,"14":-3.8418320713736347,"15":0.3440400640538272,"16":0.42260681700798614,"17":2.028502070608851,"18":-0.6252400673871689,"19":-0.5522573455937922,"20":-0.9086363783206723,"21":-3.7774884260688517,"22":-2.9778828871482075,"23":-1.1123147216362241,"24":7.207917533566502,"25":-2.4055495769927777,"26":-10.539699417150548,"27":-25.288491719118305,"28":-0.2305421191993119,"29":-0.41995538950003863,"30":1.3507771979994097,"31":2.616127232140663}},"3":{"bias":0.6219731280421144,"weights":{"0":-0.08178286234409975,"1":-1.3580043240893602,"2":-4.961793218331037,"3":-2.229872011901417,"4":1.715649898896866,"5":3.900842686247124,"6":1.9454511456981234,"7":-2.200308348614829,"8":1.1715308666840911,"9":4.318094808257641,"10":6.787176632674667,"11":-4.562170975072463,"12":-7.39006933077694,"13":1.6546650603799165,"14":-18.279981654059366,"15":2.382362833212453,"16":-0.5876011557309156,"17":-1.9407925169579863,"18":0.10646702028475882,"19":-3.461968564445244,"20":-3.9677181635245566,"21":-2.239531000448072,"22":-11.945664639719595,"23":-4.2015555149491295,"24":1.1472335446794193,"25":-5.234659805642729,"26":31.54690510902065,"27":1.6191512734193387,"28":0.39614519944202586,"29":-0.3260655332150545,"30":0.09285168309967586,"31":2.159899413219795}},"4":{"bias":2.4955142037633258,"weights":{"0":0.2164314101585809,"1":-0.32364598161405556,"2":0.6057307448543786,"3":-5.449495600743437,"4":3.081860765282537,"5":4.971388975780924,"6":0.9760504451978981,"7":0.1316181909292308,"8":0.24901852072583067,"9":2.9002409001312928,"10":0.9590049717852847,"11":-0.5656633011577968,"12":0.12747776299456678,"13":0.5446327654077802,"14":1.3658068886358736,"15":-0.6512498165844377,"16":0.69496231400385,"17":-5.8398705029528575,"18":-6.05226422339826,"19":-18.642198361415648,"20":-10.057580262354362,"21":-3.6177273076286847,"22":28.301696618292684,"23":-6.561192556161667,"24":0.7135378520647223,"25":-0.9692437835106305,"26":1.851934120674801,"27":1.2624000826658803,"28":0.7747390408907862,"29":-0.5838533385697281,"30":-3.755212584477462,"31":4.098360332074029}},"5":{"bias":0.01907706025899029,"weights":{"0":-0.2577687705981505,"1":0.3462121678389647,"2":-1.1903591123811095,"3":6.609869081832894,"4":5.790586806337635,"5":0.206427161436316,"6":0.070525445682901,"7":-0.5456317635495069,"8":-0.04304464506577725,"9":1.6909549420140209,"10":-0.9062313156160512,"11":-1.2740310692504688,"12":-0.8302104089609952,"13":0.2805586713772683,"14":0.46990581295590333,"15":-21.178806921079993,"16":2.10211793279755,"17":-5.840561242584276,"18":-12.929935691936969,"19":-0.43216779555262935,"20":17.76576483575116,"21":1.8294913322301591,"22":0.1295936205712711,"23":0.025301595109179446,"24":-0.31850467106410746,"25":-1.4142771908503413,"26":-0.05067720839643594,"27":-0.022777797874546746,"28":2.458308408634938,"29":2.3850693015058755,"30":0.1463209388851401,"31":-0.8828953260901642}},"6":{"bias":-5.18856165656745,"weights":{"0":-0.6443296588053186,"1":0.8089412758433224,"2":-1.269948610172347,"3":-2.1526824002779734,"4":7.799505664273595,"5":-2.731197022608977,"6":-1.876146871528924,"7":-2.214215006961547,"8":-0.6821376706197295,"9":-1.7964841028454215,"10":-3.225973674291262,"11":-3.8274889628648103,"12":-1.674993445537723,"13":-3.19976319777757,"14":-0.555291514527447,"15":-0.4604904174553555,"16":1.7636910250643818,"17":0.4877136712757009,"18":17.267076480322956,"19":-1.0601612217688212,"20":-0.8230336900948072,"21":-0.7111516395293197,"22":-0.6950172797318184,"23":-0.008453749911297038,"24":-0.7838704513204728,"25":-3.7577278775437155,"26":-1.6400793161956069,"27":-1.1144026375700495,"28":-1.272464018566751,"29":19.404757245190762,"30":-2.5162545954282107,"31":-4.055266558840507}},"7":{"bias":-0.8706724643897594,"weights":{"0":-1.5372922619678764,"1":0.397542464753173,"2":-0.6730266463012622,"3":-0.7487339773626399,"4":-12.499056738831735,"5":-5.3919019163207,"6":-0.8306584142016028,"7":-1.589707152982171,"8":0.2425709731130182,"9":-2.9188882262273155,"10":-0.8793031985283993,"11":-1.2761914811143462,"12":-1.6693026816221985,"13":-1.8131534354694594,"14":0.002254850730068789,"15":-0.6975270967533324,"16":-1.3250254301162363,"17":1.4306433310858953,"18":-0.9769480244674382,"19":-0.44124702452554676,"20":-1.0912125253061464,"21":-1.1049678929840712,"22":-0.5440504186006044,"23":-1.0468545507953262,"24":0.01336058675091865,"25":-0.889061970799878,"26":-0.12083216755873814,"27":-0.40002024934618685,"28":20.30163678367922,"29":1.1167487121753399,"30":1.2314752643853717,"31":-4.511968592420241}},"8":{"bias":-0.9619289352087537,"weights":{"0":-0.06606584884764978,"1":0.3686562204657653,"2":-11.717212375713322,"3":-0.47886763343251704,"4":-1.210839857866585,"5":1.3968232447137903,"6":0.28238608527155357,"7":0.1979004855082707,"8":-0.29105324379606784,"9":-0.37833816616246885,"10":-1.220860490868444,"11":10.749511471181439,"12":-4.054203999213342,"13":0.2853024094543502,"14":0.47619254236562875,"15":0.03531890292245729,"16":-0.042517048745718544,"17":0.023694284794950237,"18":-0.14785383875384442,"19":0.6892315876556036,"20":0.26794616095999807,"21":0.07088771233557137,"22":0.45520876883116534,"23":-0.6099141355152697,"24":-0.4834635223694178,"25":10.42946525252804,"26":1.212661602142017,"27":0.07320061180486025,"28":-0.7634702843838843,"29":-0.06690275294644449,"30":-2.3908234308562726,"31":-1.639621073560446}}}],"outputLookup":false,"inputLookup":false}