{
  "layers": [
    { "0": {}, "1": {}, "2": {}, "3": {}, "4": {}, "5": {}, "6": {}, "7": {} },
    {
      "0": {
        "bias": -2.875557042325294,
        "weights": {
          "0": 0.24400836366176437,
          "1": 0.5377607147515555,
          "2": 3.0329135290123905,
          "3": -2.9125616302330526,
          "4": 0.23271255961790793,
          "5": 0.4899628185223034,
          "6": 3.2024988388149422,
          "7": -2.904962928584521
        }
      },
      "1": {
        "bias": 0.4386732819174651,
        "weights": {
          "0": 0.3455819763286553,
          "1": 0.48751436682853694,
          "2": -1.0266613720007831,
          "3": -0.8692752142745017,
          "4": 0.3016200613157653,
          "5": 0.5651752303991913,
          "6": -1.2436629421869025,
          "7": -0.23210854592323943
        }
      },
      "2": {
        "bias": 0.435264586621449,
        "weights": {
          "0": -0.0743833429430154,
          "1": 1.18833920655968,
          "2": -0.13030553415795373,
          "3": -0.44760476826487183,
          "4": -0.06451502961023486,
          "5": 1.359114965679485,
          "6": -0.14945566134545502,
          "7": -0.16830491179786874
        }
      },
      "3": {
        "bias": -0.36378169612775646,
        "weights": {
          "0": 2.3153558800173366,
          "1": -1.220910424889039,
          "2": -0.5450509536103592,
          "3": -0.40836364017129145,
          "4": 2.3486892302458964,
          "5": -1.3794407497596854,
          "6": -0.5179398822595803,
          "7": -0.2904343809332461
        }
      },
      "4": {
        "bias": 2.609452013509805,
        "weights": {
          "0": -2.0263629505613796,
          "1": -4.0584130398023115,
          "2": 3.0993876246676497,
          "3": 1.4853192601679555,
          "4": -2.022175680724041,
          "5": -4.1193798983082806,
          "6": 3.092302363324711,
          "7": 1.3286558400967412
        }
      },
      "5": {
        "bias": 0.8309062275267586,
        "weights": {
          "0": 0.12403958304153356,
          "1": -0.5641552495308467,
          "2": -0.4077219067280564,
          "3": 0.04935253507801459,
          "4": 0.31939409392830054,
          "5": -0.7116943508473043,
          "6": -0.38143198803124556,
          "7": 0.0006019246856238211
        }
      },
      "6": {
        "bias": 1.2482379803837642,
        "weights": {
          "0": -1.4087128091522758,
          "1": -0.6938984507965117,
          "2": 0.29485243765758423,
          "3": 0.1565418401668082,
          "4": -1.3679932069988203,
          "5": -1.0543943925175219,
          "6": -0.679029297978804,
          "7": -0.17529014258640438
        }
      },
      "7": {
        "bias": 1.5287466565927388,
        "weights": {
          "0": -0.25618121994755694,
          "1": -2.831290644383427,
          "2": -2.1257457617462507,
          "3": 0.704163201308211,
          "4": -0.2569260299174919,
          "5": -2.9986485409693384,
          "6": -2.189560225562647,
          "7": 0.875580736688139
        }
      },
      "8": {
        "bias": 0.06652874790476566,
        "weights": {
          "0": -0.8678499273904281,
          "1": 0.6481004544511004,
          "2": 0.3023135502559119,
          "3": -0.051732636617392684,
          "4": -0.8518910922700734,
          "5": 0.576052417248466,
          "6": 0.05485668345536136,
          "7": -0.5571836970576902
        }
      },
      "9": {
        "bias": 0.37090360397372063,
        "weights": {
          "0": -0.051871190400137504,
          "1": -0.7678513493222409,
          "2": 1.0472130820822065,
          "3": -0.029625239947296437,
          "4": -0.3376973966793254,
          "5": -0.693873607154714,
          "6": -1.5393076057197594,
          "7": -0.35202851068034113
        }
      },
      "10": {
        "bias": -0.5843062300435933,
        "weights": {
          "0": 3.4422072979483214,
          "1": -1.6926391809062842,
          "2": -0.7866407657330493,
          "3": -0.4321485536543079,
          "4": 3.462987350342964,
          "5": -1.619262304037581,
          "6": -0.6256864862795452,
          "7": -0.6537723137393878
        }
      },
      "11": {
        "bias": 0.3341083070313117,
        "weights": {
          "0": 0.1655002730127181,
          "1": -0.4176144196435433,
          "2": -1.7144002625169303,
          "3": -0.4138719266298611,
          "4": -0.31925174548396174,
          "5": -0.49149604248122447,
          "6": 0.7339070195590998,
          "7": -0.05963612749806539
        }
      },
      "12": {
        "bias": -1.6636557652589312,
        "weights": {
          "0": -0.18057084953048252,
          "1": -0.2887623033787318,
          "2": 0.9441619302465913,
          "3": 1.115548065202271,
          "4": -0.30470658321995786,
          "5": -0.4873405023795085,
          "6": 0.8097777181899466,
          "7": 0.9638482391615247
        }
      },
      "13": {
        "bias": 0.24185244188839272,
        "weights": {
          "0": -0.4215785353081076,
          "1": -0.06365640781057212,
          "2": -0.6729752815323943,
          "3": -0.01580396912530988,
          "4": -0.28532283684865867,
          "5": -0.23260018069676844,
          "6": -0.032369008812433604,
          "7": -0.7025918448906401
        }
      },
      "14": {
        "bias": 0.41878145654306737,
        "weights": {
          "0": -0.8554998022543651,
          "1": 0.5109247040071976,
          "2": -0.019293129151430624,
          "3": -0.7170341209180624,
          "4": -1.0522020080188763,
          "5": 0.46758295423940033,
          "6": 0.28322466707684923,
          "7": -0.4824796331276236
        }
      },
      "15": {
        "bias": -1.5474989227709535,
        "weights": {
          "0": 1.6294250795370793,
          "1": 0.4658818741456841,
          "2": 1.6841021278034332,
          "3": 1.0138114757479604,
          "4": 1.6488262301295034,
          "5": 0.626681420710183,
          "6": -2.7212149213536523,
          "7": 1.112405073305063
        }
      },
      "16": {
        "bias": 3.081693988358341,
        "weights": {
          "0": -1.5585189702415356,
          "1": 0.9313066347926693,
          "2": -2.304139992328745,
          "3": -0.9504661428596884,
          "4": -1.4727284617662473,
          "5": -0.9277675134564317,
          "6": -2.1099082674175684,
          "7": -1.0382184015105858
        }
      },
      "17": {
        "bias": 2.102686459196367,
        "weights": {
          "0": 3.7037621389252102,
          "1": 1.3765364365846764,
          "2": -6.300954124760577,
          "3": -3.494498329735437,
          "4": 3.7210035401567723,
          "5": 1.2579059685900476,
          "6": -6.25509006698436,
          "7": -3.323115979722233
        }
      },
      "18": {
        "bias": -0.4391325318081805,
        "weights": {
          "0": -1.7373940596922492,
          "1": 1.4370725164986382,
          "2": -0.5983495992580222,
          "3": -1.228037907351704,
          "4": -1.6552167887072506,
          "5": 1.4383668294178262,
          "6": -0.5404582364734772,
          "7": -0.9750518566787595
        }
      },
      "19": {
        "bias": 0.8627708236664638,
        "weights": {
          "0": 0.719381387310879,
          "1": -3.911136010360958,
          "2": -1.7516785032605133,
          "3": -0.6916418877980869,
          "4": 0.6961170720881172,
          "5": -4.207520980904944,
          "6": -2.1135892081851915,
          "7": -1.2916685889265644
        }
      },
      "20": {
        "bias": -0.003285290452843405,
        "weights": {
          "0": 1.0515257706221095,
          "1": -1.1167044032694287,
          "2": -0.3002032689895294,
          "3": 0.25417876357589264,
          "4": 1.0967494726022216,
          "5": -1.1117075525428233,
          "6": -0.6786491839987168,
          "7": 0.11783093063068109
        }
      },
      "21": {
        "bias": 0.12159227447207226,
        "weights": {
          "0": -0.269414759904259,
          "1": 0.455358402148155,
          "2": 0.14353098250922008,
          "3": -0.04323977665050132,
          "4": -0.5251075291923518,
          "5": 0.3532471399770497,
          "6": 0.015262064814827395,
          "7": -0.39424321042429766
        }
      },
      "22": {
        "bias": 1.1269482289968817,
        "weights": {
          "0": -2.326026068334098,
          "1": -0.5605916076871675,
          "2": -0.08995787019129231,
          "3": -0.09355387398547484,
          "4": -2.3746710707719774,
          "5": -0.8522087892198651,
          "6": 0.019201496342361964,
          "7": 0.7911821285588394
        }
      },
      "23": {
        "bias": 1.012980620699533,
        "weights": {
          "0": 6.955422284994805,
          "1": -4.277878096126503,
          "2": -2.319953142750819,
          "3": -1.039650756194936,
          "4": 6.9323575547882035,
          "5": -4.308572761223013,
          "6": -2.3616786330422532,
          "7": -1.0392721306002248
        }
      },
      "24": {
        "bias": -1.5424798109788893,
        "weights": {
          "0": 1.930175391391156,
          "1": 1.3153345635039837,
          "2": -0.6799376218360127,
          "3": -0.3563148174923236,
          "4": 1.8848531259792278,
          "5": 1.2280777110394325,
          "6": 0.8384194434654278,
          "7": -0.4694182865371671
        }
      },
      "25": {
        "bias": -1.1408702346717887,
        "weights": {
          "0": 1.2279497235700112,
          "1": 0.4264470025203804,
          "2": -2.6977268332895705,
          "3": 0.7911538492396585,
          "4": 1.2371329211730688,
          "5": 0.43373371838754277,
          "6": 2.1744107127518686,
          "7": 1.613523787472147
        }
      },
      "26": {
        "bias": 2.3125995038132423,
        "weights": {
          "0": -3.3405549546168825,
          "1": -0.991298105056819,
          "2": 0.03168777857425555,
          "3": -0.14917267676066623,
          "4": -3.253818553216281,
          "5": -0.9822514463262099,
          "6": 0.2411788424725434,
          "7": 0.40468107941616466
        }
      },
      "27": {
        "bias": 1.0682624349768515,
        "weights": {
          "0": 2.4203177122514177,
          "1": 1.30689555706616,
          "2": -0.03860715448751294,
          "3": 6.027451641135141,
          "4": 2.391095096668207,
          "5": 1.3146752851728345,
          "6": -0.10567933849783277,
          "7": -5.1469916471298855
        }
      },
      "28": {
        "bias": 3.902508339452,
        "weights": {
          "0": 1.1162267573245346,
          "1": 0.6624001493025403,
          "2": -9.279865260411636,
          "3": -4.740639853201476,
          "4": 1.096938928337012,
          "5": 0.724641420589509,
          "6": -9.307054540850539,
          "7": -4.780736570417003
        }
      },
      "29": {
        "bias": 4.725721327677682,
        "weights": {
          "0": -3.579827556755012,
          "1": -1.8851205470725285,
          "2": 1.5625045941557998,
          "3": -9.283771179014611,
          "4": -3.577893623104946,
          "5": -1.885180389672794,
          "6": 1.6135693923967984,
          "7": -9.146536598965787
        }
      },
      "30": {
        "bias": -0.26957777767340463,
        "weights": {
          "0": 1.1834700685122361,
          "1": 0.38766282722703477,
          "2": 1.028955496169984,
          "3": 0.4059573606404689,
          "4": 1.0552083302312183,
          "5": 0.4244781968255023,
          "6": 0.7059556675793857,
          "7": -0.389065600451905
        }
      },
      "31": {
        "bias": -0.6806087271604131,
        "weights": {
          "0": 0.5521768671463572,
          "1": 0.6933297254140731,
          "2": 0.9339537756044379,
          "3": -0.038563085117882166,
          "4": 0.7809796221594226,
          "5": 0.4397084993824265,
          "6": 0.5169109203144874,
          "7": -0.08269583486529529
        }
      },
      "32": {
        "bias": 3.5940653822297284,
        "weights": {
          "0": 4.179501023672027,
          "1": -6.076888166996139,
          "2": -3.879590299532861,
          "3": -1.966902235070439,
          "4": 4.171640868512066,
          "5": -6.065450580442343,
          "6": -3.86722688278697,
          "7": -2.112124158288863
        }
      },
      "33": {
        "bias": 2.8865476257565317,
        "weights": {
          "0": 4.353867883155531,
          "1": 1.9727395522308648,
          "2": 1.5820269319415905,
          "3": -4.63856148786646,
          "4": 4.385031229130911,
          "5": 1.945280274706161,
          "6": 1.5307624685144734,
          "7": -5.07688756061328
        }
      },
      "34": {
        "bias": -2.163329432880634,
        "weights": {
          "0": -0.8440999854614047,
          "1": -1.2276536232423851,
          "2": 2.456557603664565,
          "3": 1.4458093444144486,
          "4": -0.7971178941922342,
          "5": -1.2308743084580598,
          "6": 2.4130032413039895,
          "7": 1.7780014268418196
        }
      },
      "35": {
        "bias": 0.8250688559080398,
        "weights": {
          "0": -1.5300625606880525,
          "1": -0.43794027350139275,
          "2": -0.7343744636273474,
          "3": -0.11971161391837938,
          "4": -1.5474034261443823,
          "5": -0.6751265612266628,
          "6": -0.9192130802288389,
          "7": -0.016540838453934132
        }
      },
      "36": {
        "bias": -0.9352135619731063,
        "weights": {
          "0": 2.3779671195440346,
          "1": 1.1590256269441621,
          "2": -6.646970593221847,
          "3": 4.93886586847179,
          "4": 2.3833622189563988,
          "5": 1.062624540947775,
          "6": -6.653238491049268,
          "7": 4.800660332429863
        }
      },
      "37": {
        "bias": -0.2654907982927876,
        "weights": {
          "0": 0.3141160192551611,
          "1": 9.829968027021147,
          "2": -5.597865897684161,
          "3": -2.808244340077261,
          "4": 0.3164501863963877,
          "5": 9.839717275606223,
          "6": -5.562378214781028,
          "7": -2.848289446946485
        }
      },
      "38": {
        "bias": 0.49439767440365995,
        "weights": {
          "0": -0.6473088505233519,
          "1": -0.23727749640126816,
          "2": -0.1133623727778509,
          "3": -0.4295529932038957,
          "4": -0.29756968083420093,
          "5": -0.3951967962433775,
          "6": -0.48293324982657126,
          "7": -0.242714506811838
        }
      },
      "39": {
        "bias": 0.3720204916827106,
        "weights": {
          "0": 2.788059253845243,
          "1": -4.569632957890734,
          "2": -2.1544816432127916,
          "3": 1.8446378164886035,
          "4": 2.7976298445731644,
          "5": -4.518565386400159,
          "6": -2.0966533362598927,
          "7": -3.7828375559406893
        }
      },
      "40": {
        "bias": 0.18039685259553404,
        "weights": {
          "0": -0.2402909553784786,
          "1": -0.13369735640310548,
          "2": -0.7809390003054918,
          "3": -0.1694536443833494,
          "4": -0.17679075389514323,
          "5": -0.08297836295101257,
          "6": -0.2773309593969939,
          "7": -0.3207633528400015
        }
      },
      "41": {
        "bias": -1.5941569287395279,
        "weights": {
          "0": 1.0670211735162929,
          "1": 1.1596482571543674,
          "2": -0.4891126433349254,
          "3": 0.21816761384802802,
          "4": 1.1086493723674267,
          "5": 1.3755294568366108,
          "6": 0.25421369565966506,
          "7": 0.16979901556552332
        }
      },
      "42": {
        "bias": 0.24253278479872406,
        "weights": {
          "0": -0.5242733525125878,
          "1": -0.26798379285187046,
          "2": -0.8795836969701722,
          "3": 0.1268985733981277,
          "4": -0.3231579515051443,
          "5": -0.27711369528860313,
          "6": 0.11160769283212676,
          "7": -0.8838298286200691
        }
      },
      "43": {
        "bias": -11.08571272838827,
        "weights": {
          "0": 1.2105679703533558,
          "1": 5.846070892793449,
          "2": 3.211192212920402,
          "3": 1.8796798639640355,
          "4": 1.1896004746747364,
          "5": 5.86707764080491,
          "6": 3.264138124364576,
          "7": 1.8574738467720338
        }
      },
      "44": {
        "bias": 0.43178413437700863,
        "weights": {
          "0": -1.8621908271016878,
          "1": -1.149100233725443,
          "2": 0.1384056339686584,
          "3": 2.336344906923128,
          "4": -1.8358265074325595,
          "5": -1.2174044286943462,
          "6": 0.05617323802011814,
          "7": -2.902064172280104
        }
      },
      "45": {
        "bias": -0.21969478321445526,
        "weights": {
          "0": -0.045296798266026124,
          "1": -0.41649749300618255,
          "2": -0.17547819306287876,
          "3": 0.09416835380788188,
          "4": -0.02918769455158567,
          "5": -0.39449396733752795,
          "6": -0.1451923058413091,
          "7": 0.12070434520001257
        }
      },
      "46": {
        "bias": 0.057637178891212226,
        "weights": {
          "0": -0.15438798834762202,
          "1": -0.26620923781103745,
          "2": -0.20526708607588806,
          "3": -0.10603348756181462,
          "4": -0.2452326983212993,
          "5": -0.39858950161534273,
          "6": -0.16700050460891666,
          "7": -0.24690902195242156
        }
      },
      "47": {
        "bias": -1.8162978966361294,
        "weights": {
          "0": 1.8780156160587775,
          "1": 1.1601207430462728,
          "2": -0.5775917154922551,
          "3": -0.01382777517064249,
          "4": 1.92501392150062,
          "5": 1.1259753319677652,
          "6": -0.25799165443683914,
          "7": 0.7097592510969797
        }
      },
      "48": {
        "bias": 0.46101729805680475,
        "weights": {
          "0": -0.028315753045403277,
          "1": 0.3354018618275641,
          "2": -0.6611606151208282,
          "3": -0.43662155129892727,
          "4": 0.28871762405849166,
          "5": -0.08377352641724131,
          "6": -0.8934275555080738,
          "7": -0.1931788369180413
        }
      },
      "49": {
        "bias": 2.227585244133101,
        "weights": {
          "0": -0.1423195352088925,
          "1": -0.5287817742406674,
          "2": -2.588981699603118,
          "3": 2.790848909587399,
          "4": -0.11389134950725034,
          "5": -0.47926803953670366,
          "6": -2.8218468266896832,
          "7": 2.772462901551953
        }
      },
      "50": {
        "bias": -1.829957902471402,
        "weights": {
          "0": 1.8408974809999883,
          "1": 1.3778169409414438,
          "2": 1.268614129442206,
          "3": 0.09084598095224013,
          "4": 1.8353165629719204,
          "5": -0.3025063021921317,
          "6": 1.135062457399444,
          "7": 0.8287895797708589
        }
      },
      "51": {
        "bias": 3.143204620169474,
        "weights": {
          "0": -0.6902121842774295,
          "1": -3.946233766047935,
          "2": 0.41883981193559255,
          "3": -2.5957677715853347,
          "4": -0.6898937831421922,
          "5": -4.027971250149681,
          "6": 0.5025392093109666,
          "7": -2.5221084800083036
        }
      },
      "52": {
        "bias": 0.3684398525624548,
        "weights": {
          "0": -0.2066915595343369,
          "1": -0.07037611309114108,
          "2": 0.18639834205411507,
          "3": -0.19855659955310045,
          "4": -0.4020036814450655,
          "5": -0.23967666945171234,
          "6": -1.2476017290022972,
          "7": -0.39686704915590104
        }
      },
      "53": {
        "bias": 0.8810404116673237,
        "weights": {
          "0": -1.8108491553957886,
          "1": -0.8330220296816596,
          "2": -0.06546814837513365,
          "3": 0.9913962424181889,
          "4": -1.8116656599787642,
          "5": -0.9380304320980377,
          "6": 0.9583843181563786,
          "7": -1.2110222893679332
        }
      },
      "54": {
        "bias": 0.5431548404003856,
        "weights": {
          "0": -1.8691054315657856,
          "1": -0.6912275569719585,
          "2": -1.226466379131284,
          "3": -0.04517770157832174,
          "4": -1.891094802517826,
          "5": -0.5195166401403177,
          "6": -1.0605111012447377,
          "7": 0.566671606157783
        }
      },
      "55": {
        "bias": 0.6468031494731424,
        "weights": {
          "0": -1.1688115390060936,
          "1": -1.156348465472845,
          "2": -0.19892102339957052,
          "3": 0.28372859746465984,
          "4": -1.2784248519914974,
          "5": -0.7380144012144972,
          "6": 0.25365997615675756,
          "7": 0.09356157361971565
        }
      },
      "56": {
        "bias": 0.7452055927937413,
        "weights": {
          "0": 2.951095264159049,
          "1": -4.956369579609166,
          "2": -2.178537901500515,
          "3": -3.264368838757807,
          "4": 2.983515215206037,
          "5": -4.886308139646358,
          "6": -2.1430637519756086,
          "7": 1.1870235973972185
        }
      },
      "57": {
        "bias": 0.42303125048152157,
        "weights": {
          "0": -0.9642771058036763,
          "1": -0.040915773359263156,
          "2": 0.03629709134863193,
          "3": -0.30149183923700423,
          "4": -0.835505030896879,
          "5": 0.24379550006378267,
          "6": 0.8679557877335643,
          "7": -0.7715868596354319
        }
      },
      "58": {
        "bias": -1.8974067534780148,
        "weights": {
          "0": 4.157732949358889,
          "1": -5.314473874689534,
          "2": 4.3868130297023615,
          "3": 2.263101752921714,
          "4": 4.163882288246443,
          "5": -5.077315955922684,
          "6": 4.321466218646636,
          "7": 2.169260617223667
        }
      },
      "59": {
        "bias": -1.175220025165647,
        "weights": {
          "0": 1.6321711924503657,
          "1": 1.0540922467793552,
          "2": -0.27356663444328644,
          "3": -0.17915284284840197,
          "4": 1.5833244791611716,
          "5": 0.9401336800062249,
          "6": -0.21158267665963965,
          "7": 0.10429063083748547
        }
      },
      "60": {
        "bias": 0.26738960100567194,
        "weights": {
          "0": -0.8747820557535897,
          "1": -0.057233572877681015,
          "2": -0.9927350947717681,
          "3": -0.026333638270844107,
          "4": -0.7883413602638015,
          "5": -0.06190385881925116,
          "6": 1.1769379797925936,
          "7": -1.5411825836435256
        }
      },
      "61": {
        "bias": 0.23243274834638622,
        "weights": {
          "0": -1.0394923642830645,
          "1": 0.22198089950082056,
          "2": 1.4315370606772708,
          "3": -0.6602309871648053,
          "4": -0.8710400835474161,
          "5": 0.3630560927229159,
          "6": -0.19231373347062122,
          "7": -0.7350576177067956
        }
      },
      "62": {
        "bias": 0.9349665575462787,
        "weights": {
          "0": -1.522829275640792,
          "1": -0.8324658081187855,
          "2": -1.1339965370418865,
          "3": -0.05760968091249954,
          "4": -1.5668050738834327,
          "5": -0.2720269939519341,
          "6": -0.5539278914942027,
          "7": -0.1620015381780984
        }
      },
      "63": {
        "bias": 0.36721685493342193,
        "weights": {
          "0": -0.49645775591100383,
          "1": -1.701765208406413,
          "2": -0.8195175848929379,
          "3": -0.13647015282977148,
          "4": -0.4259352647356492,
          "5": -1.7494299512179854,
          "6": -0.2950653907005243,
          "7": -0.7113521996116553
        }
      }
    },
    {
      "0": {
        "bias": 0.11154276821252215,
        "weights": {
          "0": 0.9702113988554055,
          "1": -0.047761651335254465,
          "2": 0.2786458123679931,
          "3": 0.7327918707288525,
          "4": -1.4318947821549002,
          "5": -0.48159555929956255,
          "6": -2.284539963629557,
          "7": -0.8032430124226015,
          "8": -0.15432278990939688,
          "9": -0.9106178622243576,
          "10": 1.1745902318073562,
          "11": -0.46376172971541735,
          "12": 0.6734482002276083,
          "13": -0.45483193506162917,
          "14": -1.5302986727923351,
          "15": 2.009138686320975,
          "16": -2.930197885051119,
          "17": 1.0982394682444334,
          "18": -0.6946871257941482,
          "19": -0.28921709338900625,
          "20": 0.3003834399086604,
          "21": -0.11884080056665144,
          "22": -2.5592636231229036,
          "23": 1.450579367670422,
          "24": 2.6825352573029972,
          "25": 1.5178910028423327,
          "26": -3.102379792402326,
          "27": 4.121768101002018,
          "28": 0.7279949623123604,
          "29": 2.2227084108759967,
          "30": 0.7359084899531324,
          "31": 1.120269872679774,
          "32": -0.21940335380767909,
          "33": 0.8117367005120281,
          "34": 0.6987450553213226,
          "35": -2.245388448710385,
          "36": 1.077191473068951,
          "37": -1.424991932731961,
          "38": -1.258650291877365,
          "39": 0.12389396923096126,
          "40": -0.5174027563374249,
          "41": 2.686531755383829,
          "42": -0.6947799727126394,
          "43": 5.321323964404347,
          "44": -2.477074488770611,
          "45": -0.26381425924042246,
          "46": -0.2828560683141545,
          "47": 2.5682095266985234,
          "48": 0.038076868948554096,
          "49": -0.6086723387051471,
          "50": 3.015380987587167,
          "51": -0.8962851410724504,
          "52": -0.6716131222788179,
          "53": -2.2707508688490785,
          "54": -2.0966739795220004,
          "55": -2.2090165248597664,
          "56": 0.028298018304079194,
          "57": -0.879646162859079,
          "58": 1.8474893473392062,
          "59": 2.455157553856683,
          "60": -0.9592014765210266,
          "61": -0.5367829997197999,
          "62": -2.3360956166137443,
          "63": -0.945757493637526
        }
      },
      "1": {
        "bias": 0.39336366177344245,
        "weights": {
          "0": 1.359831414628176,
          "1": -1.071577978264116,
          "2": 0.1433223223258729,
          "3": 3.044624577562752,
          "4": 3.1173377724996527,
          "5": -1.110961471072704,
          "6": 0.2310120759571157,
          "7": -3.391452134076809,
          "8": 0.2954674796311391,
          "9": -1.4736074536779937,
          "10": 4.841134771913532,
          "11": -1.3137770700019997,
          "12": 2.1982816721710963,
          "13": -1.0153917234492098,
          "14": -0.22015726361463156,
          "15": -1.11474648936807,
          "16": -1.4987112140793175,
          "17": -3.671386840002796,
          "18": -0.9402754328542999,
          "19": -1.8524873230788637,
          "20": 1.3463952235121315,
          "21": 0.002840336370131488,
          "22": 2.1864180843876433,
          "23": 12.4922620573926,
          "24": -1.7206919530748856,
          "25": 0.3547421627402785,
          "26": 3.694550746791938,
          "27": 0.7012969581598043,
          "28": 2.298266587991846,
          "29": 1.025373659711788,
          "30": 1.6117630350686103,
          "31": 1.4881925609627638,
          "32": -11.422841820519585,
          "33": -1.4586120101757754,
          "34": 2.566334556796788,
          "35": -0.34511866790247975,
          "36": 1.109374921571029,
          "37": 9.581035800397558,
          "38": -0.7281969778675582,
          "39": -6.751437388136,
          "40": -0.9190822700923972,
          "41": -0.07729517589525338,
          "42": -1.2253587908120736,
          "43": -12.950751683790596,
          "44": -0.2154431796080007,
          "45": -0.15759457290309195,
          "46": -0.47400258623178165,
          "47": -1.4958715425305658,
          "48": -1.0399201883008675,
          "49": -0.8486986620325826,
          "50": 0.8237132430232172,
          "51": -3.599092735836021,
          "52": -0.9407346791750608,
          "53": 0.8854576419859238,
          "54": -0.7343806250222746,
          "55": 0.4433117223695194,
          "56": -8.00432470876824,
          "57": 0.0016522415628013177,
          "58": -4.326534604004693,
          "59": -1.291858025641049,
          "60": -0.7472215321872981,
          "61": -0.0029622957491521385,
          "62": -0.5085974151383038,
          "63": -1.5041507986771283
        }
      },
      "2": {
        "bias": -0.08460713597153562,
        "weights": {
          "0": -5.2043148162937385,
          "1": 0.38005850545773845,
          "2": -1.9522942423546588,
          "3": 0.8013515664435272,
          "4": -6.607617753603588,
          "5": 1.3826830124065923,
          "6": 1.468807466245831,
          "7": -3.011072944592918,
          "8": -1.8527478798648787,
          "9": 0.5534485387617326,
          "10": 1.2253225459882313,
          "11": 0.8045146423358683,
          "12": 0.7452440018615578,
          "13": 0.057652258827324644,
          "14": -1.617196493939566,
          "15": 1.1179185097477287,
          "16": 3.346830692781301,
          "17": -9.834348554417426,
          "18": -2.4784654219107787,
          "19": -5.284057089048346,
          "20": 1.4137624256170604,
          "21": -0.9432800984182435,
          "22": 1.3848176993121348,
          "23": -1.5132589265490959,
          "24": -2.136833967840486,
          "25": 2.1690941492926754,
          "26": 1.8170102464867133,
          "27": 1.2779789298921418,
          "28": -8.203439406310066,
          "29": 2.887345551165125,
          "30": -1.1638958533581385,
          "31": -0.9003108174976339,
          "32": 9.366219884551699,
          "33": -0.15841854678397396,
          "34": -1.8851676173767296,
          "35": 1.4549434080762527,
          "36": -13.385169590354803,
          "37": 14.344037159114444,
          "38": 0.1330238993513406,
          "39": 3.0260667920494613,
          "40": 0.2848160019735378,
          "41": -1.4135858681145457,
          "42": 0.047578809725089294,
          "43": 1.049511258907484,
          "44": -0.05101568167426815,
          "45": 0.5678168170176694,
          "46": 0.1869359809142208,
          "47": -1.1043112183880777,
          "48": 0.6324614397400105,
          "49": 4.450479524010037,
          "50": -2.435295549520511,
          "51": -4.765224256338033,
          "52": 0.2176253334306278,
          "53": 0.42568260535014824,
          "54": 1.2260061551048973,
          "55": 0.8801091147446141,
          "56": 3.795850240992592,
          "57": -1.2768194355394298,
          "58": 9.366761326673807,
          "59": -0.7090245697307919,
          "60": -1.4792395540154453,
          "61": -2.148871498467396,
          "62": 1.5491447896468533,
          "63": -1.2109308464577166
        }
      },
      "3": {
        "bias": 0.04310357884145123,
        "weights": {
          "0": -1.0133782338461357,
          "1": 1.4137995517185136,
          "2": 0.9482969288785027,
          "3": 0.05039711035945225,
          "4": 0.14289730606835324,
          "5": 0.5065492470761971,
          "6": 1.1148633635937713,
          "7": -0.9030156356103209,
          "8": 1.2378597001977476,
          "9": 1.5095783949238741,
          "10": -0.3424761497084985,
          "11": 1.5636937392039114,
          "12": -1.4257405006016282,
          "13": 1.1091832286796273,
          "14": 0.844132375086246,
          "15": -3.2283506991405746,
          "16": -1.1861882211768506,
          "17": 7.411605128974837,
          "18": -0.1240513231678964,
          "19": -1.8900004265497756,
          "20": 0.7196077370873442,
          "21": 0.7358382050310661,
          "22": 0.16932281645273908,
          "23": 1.6147945033072,
          "24": -0.9667175792729211,
          "25": -2.902337299491093,
          "26": 1.414679292947816,
          "27": -7.455125459028873,
          "28": -15.993869571054717,
          "29": -17.022731692753982,
          "30": 0.11930251743464795,
          "31": -0.5848206957541048,
          "32": 0.8743103849107914,
          "33": 9.912616143563573,
          "34": -3.2767261690308693,
          "35": -0.31025277525492706,
          "36": 1.2331165225935734,
          "37": 1.9668815482604338,
          "38": 0.9144310325304877,
          "39": 2.0972866236014753,
          "40": 0.5387740110116931,
          "41": -1.6009948101938989,
          "42": 0.9870626171508133,
          "43": -0.5270786242220645,
          "44": 3.644128028791503,
          "45": 0.28672348406818465,
          "46": 0.16814789152754925,
          "47": -2.345647399813908,
          "48": 0.9548974734776983,
          "49": 0.9968011773275022,
          "50": -0.31249724175951876,
          "51": 1.07056141912482,
          "52": 1.1917649896300748,
          "53": 2.3965886507858136,
          "54": -1.8606938273153808,
          "55": 0.7636807821319997,
          "56": 1.2790654203366956,
          "57": 1.201441104852541,
          "58": -3.3091829678997366,
          "59": -1.3015529949787803,
          "60": 1.4504019496570129,
          "61": 1.1566325510599502,
          "62": -0.08448662161552974,
          "63": 0.9185335170998635
        }
      }
    }
  ],
  "outputLookup": false,
  "inputLookup": false,
  "networkData": {
    "trainingOptions": {
      "errorThresh": 0.01,
      "iterations": 100000000,
      "log": true,
      "logPeriod": 100,
      "learningRate": 0.01
    }
  }
}
