{"layers":[{"0":{},"1":{},"2":{},"3":{},"4":{},"5":{},"6":{},"7":{}},{"0":{"bias":-2.506561783996163,"weights":{"0":2.9204105801678226,"1":0.7954907209369265,"2":-0.1231291619230415,"3":-0.43765211764599415,"4":2.823956333163032,"5":0.7189342505595488,"6":-0.24201465513728126,"7":0.04962403952519425}},"1":{"bias":-0.818812948678264,"weights":{"0":-3.751073938595156,"1":-1.9799650758263134,"2":-0.5382956279281945,"3":-7.2557263665983776,"4":-3.7345250856243664,"5":-1.9838537211965377,"6":-0.35128330108617445,"7":6.695904276797821}},"2":{"bias":0.5992512705895352,"weights":{"0":-1.097933260977443,"1":-0.8605121586917571,"2":-0.6502695627531316,"3":-0.1481676369460374,"4":-1.1598805272013692,"5":-0.5552454877094546,"6":-0.726760579706357,"7":-0.20630685766526574}},"3":{"bias":0.18101344594722338,"weights":{"0":0.24674370640504617,"1":-0.5068203531304254,"2":-0.716597206191546,"3":1.023492212276117,"4":0.05816423640319228,"5":-0.4243354681007648,"6":-0.648951218251931,"7":1.0869768824839015}},"4":{"bias":-0.11376126180493805,"weights":{"0":0.06748798515066587,"1":0.027825203243025433,"2":0.43740847943885464,"3":-0.5084572958519455,"4":0.19836307456290886,"5":-0.13935794413620117,"6":0.3333821796860606,"7":-0.5743114393778316}},"5":{"bias":0.2854731609561534,"weights":{"0":0.19952048592920144,"1":-0.6366167667409687,"2":-0.34344145940686144,"3":0.04805032368152981,"4":-0.08820085330743911,"5":-0.6372114725063893,"6":-0.5432374794414861,"7":-0.4539700362895284}},"6":{"bias":-1.3102678866048514,"weights":{"0":2.5729665206714687,"1":0.43276270820221263,"2":-0.06520222773158628,"3":-0.030647714843545303,"4":2.5607990328811576,"5":0.025214498422611458,"6":0.0812061633436874,"7":-0.19699994109658683}},"7":{"bias":-0.8542126246930793,"weights":{"0":0.9209582153125079,"1":0.8329265331167491,"2":-1.4136760883552275,"3":-0.25927084929504834,"4":0.8251039025927167,"5":0.854136555530908,"6":-0.7932460801427321,"7":-0.28281559398122424}},"8":{"bias":-0.27234172600832895,"weights":{"0":0.5007097529825437,"1":-1.8516204465129968,"2":0.6401422264113377,"3":-0.37332888939296827,"4":0.5091895241437564,"5":-1.8101572573090048,"6":0.5169466922678672,"7":-0.37668638083754563}},"9":{"bias":0.48996738048859034,"weights":{"0":0.17922303879720022,"1":0.9453741673124544,"2":-7.797047808670548,"3":4.520845962424442,"4":0.16721217141168693,"5":0.9857229802256601,"6":-7.819343342088599,"7":4.512065476634466}},"10":{"bias":0.6410666869814031,"weights":{"0":0.2798862260147139,"1":0.4771141961729158,"2":-1.3532637881254088,"3":-0.09861692574601784,"4":0.5796820886376607,"5":0.3799010040145216,"6":-0.9237071410197535,"7":-0.2914286462316155}},"11":{"bias":-0.26371989155526593,"weights":{"0":0.13312636776438014,"1":-0.3129040258986889,"2":-0.08787005560464216,"3":-0.30358837639319014,"4":0.1889427200620904,"5":-0.17303076921779645,"6":-0.5520450558725666,"7":-0.30840214683002876}},"12":{"bias":0.3623078628784076,"weights":{"0":0.3087998903914679,"1":-0.43059675497694433,"2":-0.05568110879057495,"3":-0.49172160610308835,"4":-0.19347654650583937,"5":-0.6295009567425806,"6":-0.3349434638822358,"7":-0.24454339189676544}},"13":{"bias":-1.4518415338521278,"weights":{"0":-0.08303004948991913,"1":-3.7344441520854823,"2":3.0722946181879514,"3":1.3638673585560916,"4":-0.1019830513178795,"5":-3.695670591027309,"6":3.045041444421344,"7":1.369970250887377}},"14":{"bias":-0.6839855454878181,"weights":{"0":-0.1145340938632963,"1":0.2801615876158677,"2":1.149188573476961,"3":0.17317862489395888,"4":-0.07029533951131794,"5":0.17142129174236406,"6":0.3499203950502681,"7":0.13529197470566642}},"15":{"bias":-0.26897762690275345,"weights":{"0":0.21992209193297002,"1":0.3291036254700797,"2":-0.5484020404110769,"3":0.5933146288769242,"4":0.08089321885326393,"5":0.23249193276529742,"6":-0.8421900097430994,"7":0.43205956449616567}},"16":{"bias":0.320828234991716,"weights":{"0":0.19798797312928967,"1":-0.6747027553183735,"2":-0.4752759305980662,"3":-0.15613273955166745,"4":-0.15444702513755706,"5":-0.5994441300773762,"6":-0.629126473636905,"7":-0.08779936818274196}},"17":{"bias":0.8574108601865843,"weights":{"0":0.6982516151605274,"1":0.5597970759521305,"2":0.8860677688598573,"3":-2.020376101053719,"4":0.703238438604862,"5":0.30040952139004534,"6":0.35918820862442574,"7":-2.0463924958135435}},"18":{"bias":-0.8208653139532085,"weights":{"0":1.7074138115746849,"1":0.8834554078627378,"2":0.5220956605477126,"3":-0.04068552894436025,"4":1.7381188284836369,"5":0.6243151662399513,"6":0.6556629927063844,"7":-0.13423570813053973}},"19":{"bias":-0.36091538776245297,"weights":{"0":0.1963690421685906,"1":0.34764196561654365,"2":0.44016792125892146,"3":0.22640759511235553,"4":0.18760656988512786,"5":0.31691586563780033,"6":0.41600511624989284,"7":0.19547512839888284}},"20":{"bias":-0.47602518609913397,"weights":{"0":1.2425280955964455,"1":-0.706467278267746,"2":0.2729941749324721,"3":0.7639546784310823,"4":1.3121567513031145,"5":-0.7110923588252814,"6":0.33545429656380915,"7":0.3347478668994374}},"21":{"bias":0.28151103022340734,"weights":{"0":0.3028229856379959,"1":-0.06467672724599584,"2":-1.4379183519232626,"3":0.15111520919691834,"4":0.4661372267593271,"5":-0.20076761104355217,"6":-0.2678111168691084,"7":0.34559166022628096}},"22":{"bias":-0.7521199492874094,"weights":{"0":0.28938252152546096,"1":0.3431674750036987,"2":0.4859277374773724,"3":0.45408776957915425,"4":-0.13922378629797727,"5":0.09602311746520137,"6":0.46842523705118233,"7":0.30316590967255563}},"23":{"bias":-1.0703446195953474,"weights":{"0":-0.6133900778355117,"1":-0.7060554461952547,"2":2.891828947822436,"3":1.7116703412972742,"4":-0.5627421385200311,"5":-0.6291686868236818,"6":-3.826545677339361,"7":1.6837577043339105}},"24":{"bias":1.3930045870887082,"weights":{"0":-2.004277510581003,"1":-0.7460810080315674,"2":-0.5590082366888751,"3":-0.15653164442810938,"4":-1.929835418470618,"5":-1.4413965237621125,"6":-0.6026714768170605,"7":-0.19533366722692183}},"25":{"bias":-0.03549634118909199,"weights":{"0":-0.10738264359495038,"1":-0.43505780721742937,"2":-0.21683873267274836,"3":-0.12956860063072595,"4":0.04203207504314283,"5":-0.5774610079685879,"6":-0.06589333607632927,"7":-0.3968262186059145}},"26":{"bias":0.7576793001485695,"weights":{"0":0.8665676314565812,"1":0.5267564251075983,"2":1.1384920317593754,"3":-2.13159767978251,"4":0.8055089599754721,"5":0.4617513149212473,"6":0.09558735939598839,"7":-2.1189132762080187}},"27":{"bias":-0.32850704730747327,"weights":{"0":0.3160142296816582,"1":-0.16730963433838847,"2":-0.46933248059402277,"3":0.5572755117801939,"4":0.5024859769444892,"5":-0.132093928259058,"6":-0.29291394438736107,"7":0.5452972108108389}},"28":{"bias":0.1343712465496545,"weights":{"0":6.069392551930943,"1":-6.4858047728283275,"2":-3.4608301314476253,"3":-1.836683841066287,"4":6.080828356073982,"5":-6.522162129302064,"6":-3.4922001843520007,"7":-1.8201229861840256}},"29":{"bias":-1.0240073675097006,"weights":{"0":7.332998918220306,"1":-3.484746630316592,"2":-2.0037810224255503,"3":-0.9776588600649112,"4":7.337162216553636,"5":-3.5220698702450517,"6":-2.0184301209780147,"7":-0.9341952496833844}},"30":{"bias":0.34304752985284087,"weights":{"0":-0.21400038852524503,"1":-0.5519063499892268,"2":0.05542171808469415,"3":-0.15338780712933717,"4":0.1107809656837247,"5":-0.5022938816493244,"6":-0.1645297314153451,"7":-0.5275362686004397}},"31":{"bias":0.4624562209374694,"weights":{"0":-1.135604814425475,"1":-0.8294610231204292,"2":-0.5541816374237376,"3":-0.17800346000926442,"4":-1.0062191034790504,"5":-0.8926860868729698,"6":-0.5980895074852158,"7":-0.23591543127043757}},"32":{"bias":0.3570932084425138,"weights":{"0":-0.23469703981737589,"1":-0.740064782289357,"2":-0.45195708787017663,"3":-0.3587734237776435,"4":-0.39309764985853735,"5":-0.6498923779663364,"6":-0.4851593852703714,"7":0.06017701609065528}},"33":{"bias":-0.3393139756439811,"weights":{"0":-0.3064877415817856,"1":-3.1976362777067022,"2":2.1882441228819087,"3":1.109966119804935,"4":-0.3169669987618412,"5":-3.1682600929470555,"6":2.169684255904739,"7":1.0239526212804948}},"34":{"bias":-0.6283136998402754,"weights":{"0":0.6504165877921294,"1":0.6469300777239595,"2":0.6383907812815809,"3":0.03937640736258999,"4":0.6106128319110499,"5":0.17574889904031923,"6":0.7915524766020281,"7":0.23663348980391685}},"35":{"bias":-0.5974005094710894,"weights":{"0":0.4648558127292632,"1":0.07460857245608389,"2":-1.1207287867336249,"3":0.5489117496525491,"4":0.1934794862271232,"5":0.08288715192585715,"6":-0.1139474570706515,"7":0.3560682847883019}},"36":{"bias":0.4366165097258686,"weights":{"0":-0.061620654319646986,"1":0.1531153621140533,"2":-0.5695949395461137,"3":-0.2860271171119692,"4":0.3641577880405434,"5":-0.15408601804102498,"6":-0.5500327273768406,"7":-0.4778247214899523}},"37":{"bias":0.49412350786340264,"weights":{"0":-0.7181124366572529,"1":-1.1575285529744734,"2":-0.522348630551038,"3":-0.5860996307699995,"4":-0.7036085992273144,"5":-1.1402143131280933,"6":-0.6378532606279727,"7":-0.6310747257118956}},"38":{"bias":-0.39594720840689923,"weights":{"0":0.430004926650994,"1":0.040845638680184544,"2":-0.41331324813763853,"3":0.5804162129963556,"4":0.1233771572902341,"5":0.13275054678145307,"6":-0.8256052507155311,"7":0.615361230346413}},"39":{"bias":0.4689466843813366,"weights":{"0":0.4961654859100337,"1":0.5491772832831974,"2":-1.422401580828018,"3":-0.6785654596188505,"4":0.6107374904011834,"5":0.7270923188677993,"6":-1.0954523369242946,"7":-0.20260315211555055}},"40":{"bias":-0.09318727931388594,"weights":{"0":0.2928489058240029,"1":0.05409993844721747,"2":-0.5045955801991966,"3":-0.30032888635785454,"4":-0.10229796792169417,"5":-0.3170821602989509,"6":-0.35024830236353355,"7":-0.08151164104396938}},"41":{"bias":1.7158073717714521,"weights":{"0":-2.1823329131486284,"1":-1.163171232850755,"2":-0.7082656529776947,"3":0.21063784432375965,"4":-2.108102339649678,"5":-0.8919912811894315,"6":-0.7813839292833064,"7":0.12589570280351964}},"42":{"bias":0.032260678147576057,"weights":{"0":-0.23614620236849393,"1":0.06972517674158527,"2":0.35604957350562655,"3":-0.528271929065772,"4":-0.2451200448939064,"5":-0.10700999044465712,"6":0.12888616955793952,"7":-0.3153106731679832}},"43":{"bias":-0.08614622700822037,"weights":{"0":-1.8436709862337273,"1":-0.8036372638774996,"2":-0.08155703171594865,"3":-2.051326303916834,"4":-1.8058328723332955,"5":-0.8658865729118037,"6":-0.3670636446362368,"7":0.9810721555557483}},"44":{"bias":-0.6140388049900161,"weights":{"0":0.5957181265472424,"1":-0.13226750759739114,"2":-0.5445929510466396,"3":0.26530084259844344,"4":0.913391264015938,"5":0.187539576778662,"6":-0.2586799965380633,"7":0.16127090254598875}},"45":{"bias":10.938413427771437,"weights":{"0":-0.022302089506117163,"1":-5.571524946047212,"2":-3.2047357633049094,"3":-1.654228958511617,"4":-0.03174526244331309,"5":-5.571563175502882,"6":-3.23314394651285,"7":-1.6761481756037968}},"46":{"bias":1.3069990501670297,"weights":{"0":-2.616026853382911,"1":-0.5710744855573578,"2":-0.20913998773202747,"3":-0.17463970138385676,"4":-2.593752559538178,"5":-0.34091096072191845,"6":0.2897754141195137,"7":0.38381099460570395}},"47":{"bias":-0.39614641522273,"weights":{"0":0.4803155942767052,"1":0.8073722499631767,"2":-1.2736197163894023,"3":-0.004206068166975288,"4":0.6268118477868998,"5":0.7608870864329045,"6":-0.862212315406079,"7":-0.2943813722917357}},"48":{"bias":-0.5278587758840735,"weights":{"0":0.5121816597542261,"1":0.22373211974732615,"2":0.5027106561702419,"3":0.0006189475629919797,"4":0.42101571218293954,"5":0.17177792094109318,"6":0.16554343379134193,"7":0.4568520369957057}},"49":{"bias":0.3474812981019341,"weights":{"0":0.052024381531888673,"1":-0.1432676874999908,"2":-0.728761723950112,"3":-0.06991960268870465,"4":-0.23971924531477815,"5":-0.16657649344286235,"6":-0.2606295377695337,"7":-0.4163645846773363}},"50":{"bias":0.00048150871783907536,"weights":{"0":-0.6387598527607534,"1":-0.40325855946757055,"2":-0.7194601525025002,"3":-0.8947341423059532,"4":-0.6976185538018463,"5":-0.33979916411989575,"6":0.1787738247486024,"7":0.2564998687351376}},"51":{"bias":-0.2463653896108588,"weights":{"0":2.123392250548767,"1":-0.9623037618334742,"2":-0.42717556964685044,"3":0.02200090439062046,"4":2.217594587383928,"5":-1.0458438188712762,"6":-0.3753179537059028,"7":0.026455026451086553}},"52":{"bias":-0.4709827294516121,"weights":{"0":0.5243930796379911,"1":0.32810431922685906,"2":0.5476438984960919,"3":0.2158055245066291,"4":0.40870589198510593,"5":0.10356658012197595,"6":0.5396911919591466,"7":0.11859644117533548}},"53":{"bias":2.7492806088339448,"weights":{"0":2.949867538666519,"1":1.0069143613117093,"2":-5.443648784085996,"3":-2.8092367792439465,"4":2.9713537392829035,"5":0.970815985054773,"6":-5.3569067632759655,"7":-2.854431272592676}},"54":{"bias":-0.17064940816689383,"weights":{"0":-0.5090616249401113,"1":-0.3408761801504358,"2":-1.6865622546150287,"3":0.06251470853317609,"4":-0.5761689278579795,"5":-0.42435477607278493,"6":0.8546936145231938,"7":-0.444692507942388}},"55":{"bias":-1.2437473454322168,"weights":{"0":0.4516262030637024,"1":0.7270073259518643,"2":-0.820240117501957,"3":0.2785066372462312,"4":0.3552449690757257,"5":0.6227835750229177,"6":-0.35623341885434195,"7":0.2169050853589888}},"56":{"bias":-0.2416923712632509,"weights":{"0":1.014111866566177,"1":-3.145155527367372,"2":-0.22021824497473536,"3":0.3205853047039164,"4":1.0392730262558554,"5":-3.004965915937302,"6":-0.34855505694928346,"7":0.38536958859735365}},"57":{"bias":1.0281198033238081,"weights":{"0":-2.11687642024309,"1":-0.7869054869991179,"2":-0.5307728142588811,"3":0.11411505875592759,"4":-2.2343730282833403,"5":-1.6299436934611455,"6":-0.062386073368777696,"7":0.1670964124862293}},"58":{"bias":0.34020106177169623,"weights":{"0":2.8053526229038823,"1":1.0426588190089603,"2":-5.455976550115311,"3":3.177908655317174,"4":2.8256191874124323,"5":1.0486037951261862,"6":-5.437122683840198,"7":3.173551877192662}},"59":{"bias":0.5692131017222719,"weights":{"0":-0.4252620048296747,"1":-0.9818538956654111,"2":-0.7983640170774611,"3":0.3155479276857034,"4":-0.4432267327591335,"5":-1.1219363803544484,"6":-1.042180196902368,"7":0.2603872909174384}},"60":{"bias":0.926360102640246,"weights":{"0":3.916444030151905,"1":2.04780692226758,"2":0.5514889047816245,"3":-7.068579621993107,"4":3.8976422667804873,"5":2.050361472027869,"6":0.39766274017997444,"7":7.574976500473369}},"61":{"bias":0.7321207127380873,"weights":{"0":0.050331833696530166,"1":0.04209108577158796,"2":-1.1780340807682967,"3":-0.0011696961155205532,"4":0.20653712661987664,"5":-0.022730606515566062,"6":-0.5209821062694466,"7":-0.07206415802485143}},"62":{"bias":0.0905052103386453,"weights":{"0":-0.10165426534172531,"1":0.0008045436571849174,"2":-0.14360844455771124,"3":-0.2823083575256139,"4":-0.16373316509273828,"5":0.020254979744533445,"6":-0.1763475220221937,"7":-0.4006009231862359}},"63":{"bias":-0.6168806488992294,"weights":{"0":0.6325795000834575,"1":-0.08544652092149974,"2":1.0823565629392726,"3":-0.8660157781983616,"4":0.6675860294980511,"5":0.012188981908451316,"6":0.6628002139765683,"7":-1.144612380685197}}},{"0":{"bias":0.23875732095290342,"weights":{"0":3.0661434595375923,"1":-1.694014102055467,"2":-1.8246502966219709,"3":0.09573964574120478,"4":0.13402172297931086,"5":-0.6237896034190373,"6":2.756848795749162,"7":1.508598854701341,"8":-0.480207556090093,"9":0.2719706112262626,"10":-0.07089316100612196,"11":0.1018964596702057,"12":-0.43601073133393,"13":0.30284303997713324,"14":1.0826396235268234,"15":0.19873188906602077,"16":-0.5102802059072689,"17":0.04238928738849216,"18":2.4687161179304105,"19":0.9478095756144398,"20":1.3559658600080862,"21":-0.21283797183154562,"22":0.7445475098605451,"23":-1.3742407813828426,"24":-2.806176465302199,"25":-0.24457088958134654,"26":-0.1130909119649302,"27":0.6908247896185746,"28":0.6639958698484871,"29":2.363641369372531,"30":-0.7307093654400911,"31":-1.900828011601891,"32":-1.3985317342190715,"33":-0.4332164846378805,"34":1.7697283936451977,"35":0.3523259937207962,"36":-0.18002899359069843,"37":-1.2308103104775234,"38":0.0910690720128304,"39":-0.15617137394322766,"40":-0.1256249275508552,"41":-3.063646377098309,"42":-0.2361951711498623,"43":-2.0995597947805935,"44":1.3978190002950295,"45":-4.493502927444919,"46":-2.9529616732769113,"47":0.3517583699388277,"48":1.4211853352216723,"49":-0.4873946456917962,"50":-1.4362053777100596,"51":0.8585910313322378,"52":1.4022680908496448,"53":-0.2830998014106651,"54":-1.6214634795112361,"55":1.0902117977810883,"56":-0.30140526049288724,"57":-2.5543391469525445,"58":1.4509108834855828,"59":-1.4724270554414864,"60":3.0118196765985874,"61":-0.7065989300184546,"62":0.15569658829182814,"63":1.5288584108679317}},"1":{"bias":0.24177184863000004,"weights":{"0":-2.964454990176725,"1":-0.2887470583998929,"2":-0.708549360159282,"3":-0.3426470590986775,"4":-0.13759055373022547,"5":-1.5049003558371261,"6":-2.191621006251366,"7":-0.48996527290305253,"8":-1.1136926694528446,"9":1.6341976194769945,"10":-1.1888533084220076,"11":-0.7718803443648314,"12":-1.305574288158052,"13":-3.431206611969768,"14":1.8660083428082161,"15":-0.1403115025873015,"16":-1.4956888494574723,"17":-0.26149875306234005,"18":-0.024080969029452767,"19":1.201776029655338,"20":0.6495475509952744,"21":-1.3311900272621522,"22":1.6630084261167044,"23":-1.1905271023860815,"24":-0.12369536898881409,"25":-1.0209038120291072,"26":-0.4571127740920784,"27":0.3595265933608182,"28":-13.017567567832659,"29":10.705440217075923,"30":-1.0527372839637879,"31":-0.8930474210516113,"32":-1.2674517844112707,"33":-2.6487804906254,"34":1.2653707553869664,"35":-0.030641348074035183,"36":-1.2597837533260496,"37":-1.5745407326650736,"38":-0.12738652372897968,"39":-1.3202472167910815,"40":-0.7443599687705784,"41":0.5307356180942205,"42":-0.4758139718190447,"43":-0.02055069213148297,"44":-0.06438041460989773,"45":9.26176422865055,"46":2.4009942985446227,"47":-0.3188959331372259,"48":1.0319321222647433,"49":-1.254732068274086,"50":-0.6921345182161469,"51":1.3442831733149503,"52":1.2726881222193906,"53":-0.9986053860004469,"54":-0.9331481256232491,"55":0.8094097662684557,"56":-2.5779633454745836,"57":0.7313280022393256,"58":-1.0893800200497734,"59":-1.5910067788163178,"60":0.08458966834742361,"61":-1.4332649625816127,"62":-0.46776548807071394,"63":0.4787919149031623}},"2":{"bias":-0.17520488519339542,"weights":{"0":1.3592774550161895,"1":-2.4043965540440713,"2":0.6956110783985345,"3":1.989013882289143,"4":-0.7385679117246773,"5":-0.2687004061517692,"6":0.4297511441330704,"7":1.773297472788121,"8":-2.182494990231582,"9":-7.6921332669319025,"10":1.128316799576423,"11":0.07348244490484637,"12":-0.4725942032106534,"13":-5.3959680217649035,"14":-0.5300877143343977,"15":1.4316637813047604,"16":-0.2845398778695345,"17":-2.382838795996491,"18":-0.9414780685651817,"19":0.056578751036590325,"20":1.8256398397178508,"21":1.2348078951808534,"22":0.19349253635452915,"23":3.06422618747907,"24":1.7687912032155684,"25":-0.46201228841345854,"26":-2.3623368893345886,"27":1.3606694947992186,"28":5.355488374646363,"29":1.5064704646963043,"30":-0.7079384091164965,"31":0.6031479253480087,"32":-0.12573187832152682,"33":-3.905088676915581,"34":-0.1769045908376256,"35":1.5838262565464538,"36":-0.10065994103652338,"37":0.6742125388680257,"38":1.5393224593522783,"39":0.8588119159720424,"40":0.16243200019179496,"41":1.3922092709006408,"42":-0.9827684258953377,"43":0.5208971643939788,"44":1.4587439604325272,"45":5.759612573700562,"46":0.2579082889621004,"47":1.6335723016629011,"48":0.44090686861878564,"49":-0.08164481471296119,"50":-0.12300101694978464,"51":1.2836042094406086,"52":0.11635961249540766,"53":-9.33591384906705,"54":0.5670383662836207,"55":1.8043646457099967,"56":-3.6785199120875767,"57":1.926916382027872,"58":-5.361890235014059,"59":-0.43745635880047135,"60":2.2794154853475446,"61":0.5724060706026791,"62":-0.4015184523838096,"63":-1.0634462451473363}},"3":{"bias":0.49133834250714087,"weights":{"0":0.21988440652994565,"1":9.948853502813705,"2":-0.9119351449242493,"3":1.2815970744314096,"4":-0.42574028769394184,"5":-0.03490697065516384,"6":0.45573247285789176,"7":1.3994990544562398,"8":-0.16663016313175924,"9":-11.665960470825498,"10":1.1836775067593035,"11":-0.07353109916133314,"12":-0.17095125815777262,"13":0.46901634602655407,"14":0.15686878113398833,"15":1.1198108172884371,"16":-0.2823692763286634,"17":-1.4652503479349068,"18":1.2333855052933898,"19":0.2838130696800586,"20":0.14058445347974619,"21":0.6624016008193363,"22":0.2803767855237955,"23":3.1449364302984555,"24":-1.257634599192128,"25":-0.031161410006528882,"26":-1.9556330672145799,"27":0.6402722834311005,"28":1.0226665109857804,"29":-1.0153043054469846,"30":-0.09292859492910374,"31":-0.6547721188517597,"32":-0.21695824067420572,"33":0.585649433270277,"34":0.9754579746318899,"35":1.0901186482473293,"36":0.27676335102698757,"37":-1.1556186938561237,"38":0.8008523467863611,"39":1.3582941013803589,"40":0.20309184025976904,"41":-1.596930714727207,"42":-0.03966112033383787,"43":1.6593009551702897,"44":0.49936824899307103,"45":0.04187100357033995,"46":0.4264813062002416,"47":1.3764723942836603,"48":0.16259502860281988,"49":0.31539088654679115,"50":0.45031015431971755,"51":-0.33837585779316687,"52":0.2857453933226437,"53":2.0548430671775937,"54":0.7416362162451252,"55":1.2784922515918873,"56":-0.12202248451654288,"57":-0.5790889846187387,"58":6.671210330314552,"59":-1.0026690781343641,"60":-10.462877344865298,"61":0.6442672541852826,"62":0.3597913072412887,"63":-1.2836159461814023}}}],"outputLookup":false,"inputLookup":false,"networkData":{"trainingOptions":{"errorThresh":0.01,"iterations":100000000,"log":true,"logPeriod":100,"learningRate":0.01}}}