{
  "layers": [
    { "0": {}, "1": {}, "2": {}, "3": {}, "4": {}, "5": {}, "6": {}, "7": {} },
    {
      "0": {
        "bias": 0.1412466017302565,
        "weights": {
          "0": -1.0829788144179733,
          "1": -0.404867917291789,
          "2": -0.9147322636525254,
          "3": -0.3522617610585791,
          "4": -1.0480131072924965,
          "5": -0.28931947164259236,
          "6": -0.6136404949012794,
          "7": -0.3144399895711494
        }
      },
      "1": {
        "bias": 4.761538108609675,
        "weights": {
          "0": -3.11174027729681,
          "1": -1.3421328455691817,
          "2": 0.7329483941948096,
          "3": -9.286760995372646,
          "4": -3.11831929196593,
          "5": -1.3485611063077767,
          "6": 1.0011925645694113,
          "7": -8.786001743144341
        }
      },
      "2": {
        "bias": 1.585268062748132,
        "weights": {
          "0": -1.6791085899254101,
          "1": -0.4710337347929894,
          "2": -3.414224275370365,
          "3": -1.8867730494023223,
          "4": -1.6693523525096796,
          "5": -0.459250029258906,
          "6": 4.159372396579842,
          "7": -2.1080749931958893
        }
      },
      "3": {
        "bias": 0.09726350125672968,
        "weights": {
          "0": -0.0018325348784319253,
          "1": -0.5919639926440377,
          "2": -0.8846151299183406,
          "3": -0.12071909068109204,
          "4": -0.24560704038987724,
          "5": -0.7362715915221635,
          "6": -0.6668634039626105,
          "7": -0.5424849083300936
        }
      },
      "4": {
        "bias": 0.08151597061560951,
        "weights": {
          "0": -0.9921265548069649,
          "1": -0.18500424718067754,
          "2": -0.8511895933167044,
          "3": -0.43538848661887164,
          "4": -1.0723862802437985,
          "5": -0.5065580582342685,
          "6": -0.7089415424556328,
          "7": -0.36744687090345585
        }
      },
      "5": {
        "bias": -0.08347604450119477,
        "weights": {
          "0": -0.4441997527881452,
          "1": -0.15190243015565785,
          "2": -0.8368662167439395,
          "3": -0.28895066692430216,
          "4": -0.6097538765117526,
          "5": -0.20717889524540517,
          "6": -0.8278779840044997,
          "7": -0.2603705528003948
        }
      },
      "6": {
        "bias": 0.17410530155776202,
        "weights": {
          "0": 0.8249313807537607,
          "1": -2.2024314144981116,
          "2": -0.6752448999770062,
          "3": -0.42746907465546763,
          "4": 0.9581164372218889,
          "5": -2.145423911488427,
          "6": -0.6279890037146619,
          "7": -0.4955904065318745
        }
      },
      "7": {
        "bias": -0.19441594149628222,
        "weights": {
          "0": -0.7056002787143661,
          "1": 11.773157110697928,
          "2": -6.694828629713443,
          "3": -3.349862639658339,
          "4": -0.7009060644384966,
          "5": 11.771578000073774,
          "6": -6.619874010949328,
          "7": -3.2238995672036603
        }
      },
      "8": {
        "bias": -10.611861559380984,
        "weights": {
          "0": -1.853442085141673,
          "1": 6.37852105012148,
          "2": 2.5440017819120038,
          "3": 1.2530738176412903,
          "4": -1.8682502218821442,
          "5": 6.383083350518261,
          "6": 2.5431609235856953,
          "7": 1.588951245751095
        }
      },
      "9": {
        "bias": 0.5464035511777663,
        "weights": {
          "0": 1.360635804033502,
          "1": -5.017118076048568,
          "2": -1.7067122936488237,
          "3": -0.8680568136065054,
          "4": 1.4176094274029223,
          "5": -5.05979231381936,
          "6": -2.0245418202688343,
          "7": -0.32030783175194694
        }
      },
      "10": {
        "bias": 0.13487903794097456,
        "weights": {
          "0": -1.2014858618962325,
          "1": -0.30540674989998184,
          "2": -0.9317456377080732,
          "3": -0.2147972015883925,
          "4": -1.2181252178113342,
          "5": -0.38443331327249847,
          "6": -0.6772074570212167,
          "7": -0.25470970076510274
        }
      },
      "11": {
        "bias": -0.26487670758932036,
        "weights": {
          "0": -0.5578176222229245,
          "1": -0.6330866334341169,
          "2": -0.33459435700018864,
          "3": -1.2673415433803343,
          "4": -0.461605589609447,
          "5": -0.6907355456208024,
          "6": -0.6196127321634012,
          "7": 0.2509036184752927
        }
      },
      "12": {
        "bias": -0.6957861094293922,
        "weights": {
          "0": -2.472669812762701,
          "1": -0.13354285919957984,
          "2": 4.461979887303742,
          "3": -3.521775275926152,
          "4": -2.475018619678329,
          "5": -0.15629314078550313,
          "6": -5.749764497099359,
          "7": -2.8456815202386765
        }
      },
      "13": {
        "bias": 0.44129816968903696,
        "weights": {
          "0": 0.10192649173978079,
          "1": 0.9089528310919005,
          "2": -1.8853508547056186,
          "3": -1.1311358506632518,
          "4": -0.5026846144991016,
          "5": 0.9568213671299355,
          "6": -1.7101318749371426,
          "7": -0.3998907359284001
        }
      },
      "14": {
        "bias": -0.2566517425171066,
        "weights": {
          "0": -0.09281149047671292,
          "1": -0.013049375783655016,
          "2": 0.8909577309234049,
          "3": 0.28539081867724747,
          "4": 0.0834120850498669,
          "5": -0.18881329442547232,
          "6": 0.6032099738108324,
          "7": -0.7086186750472
        }
      },
      "15": {
        "bias": 0.17155877412265322,
        "weights": {
          "0": 0.8378156516860469,
          "1": 0.4191536065873692,
          "2": -0.05475002160822551,
          "3": -1.680920223503536,
          "4": 0.8521608189959275,
          "5": 0.4302421871993281,
          "6": 0.2129482640681938,
          "7": -1.8880158672578216
        }
      },
      "16": {
        "bias": 1.052072599645801,
        "weights": {
          "0": -2.2298551937069466,
          "1": 3.9485299289107365,
          "2": -3.1852121145076313,
          "3": -1.694923034993235,
          "4": -2.2176766569102346,
          "5": 3.900375873499916,
          "6": -3.234710386692625,
          "7": -1.4866591136282172
        }
      },
      "17": {
        "bias": -0.3456783760818076,
        "weights": {
          "0": 1.156240871885119,
          "1": 1.1610760761349161,
          "2": -0.6693259911262843,
          "3": 0.9103022851752296,
          "4": 1.07716475132341,
          "5": 1.2441716726895131,
          "6": -0.5679849995240793,
          "7": -0.6431735015167372
        }
      },
      "18": {
        "bias": 0.8728827617796161,
        "weights": {
          "0": -0.9926417392359446,
          "1": 1.1986519216966007,
          "2": -4.090607073170956,
          "3": -2.219968751198357,
          "4": -0.9231373242623919,
          "5": 1.1252719038294439,
          "6": -4.184422597570016,
          "7": -2.536227683178431
        }
      },
      "19": {
        "bias": -0.3536230514328217,
        "weights": {
          "0": -2.45870990684285,
          "1": -0.2955365618774346,
          "2": -5.9568413513573475,
          "3": -3.5996327186566996,
          "4": -2.470297324899433,
          "5": -0.3252575582303469,
          "6": 4.60724669517043,
          "7": -2.8170568001001284
        }
      },
      "20": {
        "bias": 2.3315411389418705,
        "weights": {
          "0": -4.686241152869618,
          "1": 6.174574493258694,
          "2": -5.231455067824474,
          "3": -3.113147150203157,
          "4": -4.688791913473693,
          "5": 6.1807467368600255,
          "6": -5.394837916582406,
          "7": -2.905964339181478
        }
      },
      "21": {
        "bias": -11.440994919831914,
        "weights": {
          "0": 3.383200619386325,
          "1": 1.6583171409975548,
          "2": 1.2426256881726834,
          "3": 5.729424379991728,
          "4": 3.3829249246721464,
          "5": 1.659188109363752,
          "6": 1.2181353509224793,
          "7": 5.5378544068895925
        }
      },
      "22": {
        "bias": -0.004786783730339617,
        "weights": {
          "0": -3.6803971556916775,
          "1": -1.519832603132275,
          "2": 1.9606356976540633,
          "3": 1.085765631391014,
          "4": -3.6455643602305554,
          "5": -1.6697523036307869,
          "6": 1.8354991569463055,
          "7": 0.9685491791037859
        }
      },
      "23": {
        "bias": -0.29104747961185284,
        "weights": {
          "0": -0.6584805404720149,
          "1": -0.3264192466232903,
          "2": -0.5144085096182707,
          "3": -0.07447464772052065,
          "4": -0.571853341283225,
          "5": -0.4313486823604933,
          "6": -0.5611115068342934,
          "7": -0.7832012705257435
        }
      },
      "24": {
        "bias": -0.31285047858493015,
        "weights": {
          "0": 0.38012813946874935,
          "1": -0.8490371098385364,
          "2": -0.44171797098462245,
          "3": -0.060987770820494204,
          "4": 0.5804627564324518,
          "5": -0.785041048252024,
          "6": -0.7513277371542265,
          "7": -0.9260385117214973
        }
      },
      "25": {
        "bias": 0.39542138168423846,
        "weights": {
          "0": 1.1470131718037309,
          "1": -0.5628650970850366,
          "2": -1.9426817236943312,
          "3": 0.7933575696660007,
          "4": 1.1433521002987714,
          "5": -0.5314691037270406,
          "6": -2.201037109276554,
          "7": 0.4857739860046103
        }
      },
      "26": {
        "bias": 1.5896644487645832,
        "weights": {
          "0": 0.13406692533960382,
          "1": 0.3259064559111518,
          "2": -3.0218833972136996,
          "3": 0.5302889142051613,
          "4": 0.146411764254777,
          "5": 0.44667923275761573,
          "6": -2.9611990892095053,
          "7": 1.008518441276783
        }
      },
      "27": {
        "bias": 0.9070590768928839,
        "weights": {
          "0": 8.51554179956262,
          "1": -8.812352040814702,
          "2": -5.272087653131103,
          "3": -2.626096247158067,
          "4": 8.525294597492115,
          "5": -8.808745881694007,
          "6": -5.253971974979699,
          "7": -2.8499470190841323
        }
      },
      "28": {
        "bias": 1.4126003856750413,
        "weights": {
          "0": -0.02947829723928084,
          "1": -0.1941566468212135,
          "2": -2.254283629889337,
          "3": 1.4436952584391758,
          "4": 0.014153193706180203,
          "5": -0.26062399856851926,
          "6": -2.3518926046898487,
          "7": 0.7300556474419871
        }
      },
      "29": {
        "bias": 0.02977880249641435,
        "weights": {
          "0": 1.4632038499604674,
          "1": -2.8203609591189895,
          "2": -1.3290802774433252,
          "3": -2.896274289734383,
          "4": 1.436877279409125,
          "5": -2.7446535755230874,
          "6": -1.1763826159816317,
          "7": 1.422004829513962
        }
      },
      "30": {
        "bias": -1.5932142503273656,
        "weights": {
          "0": 9.807809110836608,
          "1": -4.967165022510574,
          "2": -2.5391572115210375,
          "3": -0.8966744379487301,
          "4": 9.83090743045938,
          "5": -4.966964314880325,
          "6": -2.5473409478652416,
          "7": -0.8407430454474731
        }
      },
      "31": {
        "bias": -1.5631591893413372,
        "weights": {
          "0": 0.3127978123034297,
          "1": 0.7973731853267446,
          "2": 4.55425357804729,
          "3": -6.95892967948562,
          "4": 0.3045242590328738,
          "5": 0.803939869552038,
          "6": 4.625388445069466,
          "7": -6.926386306021776
        }
      },
      "32": {
        "bias": 0.0009328867952613293,
        "weights": {
          "0": -1.025230924000002,
          "1": -0.6202860846985843,
          "2": -0.6457001991572098,
          "3": -0.3742724796395295,
          "4": -1.211396003993449,
          "5": -0.4192265684148173,
          "6": -0.49689034684123173,
          "7": -0.37177282987199717
        }
      },
      "33": {
        "bias": 5.248509924966106,
        "weights": {
          "0": 0.8305434533869758,
          "1": 0.5902171712224753,
          "2": -10.48162614548106,
          "3": -5.418829812636926,
          "4": 0.7990963633081903,
          "5": 0.6371178116395305,
          "6": -10.01513100863087,
          "7": -5.377212621529834
        }
      },
      "34": {
        "bias": 0.2187449105555062,
        "weights": {
          "0": -1.2597575170464308,
          "1": -0.7744759265787617,
          "2": -0.48173113171500015,
          "3": -0.6414004653420122,
          "4": -1.1644517639353034,
          "5": -0.6919970852089148,
          "6": -0.5518424483103104,
          "7": -0.4892726760795047
        }
      },
      "35": {
        "bias": 0.17483803345540605,
        "weights": {
          "0": -1.3784856761528346,
          "1": -1.1816648866403205,
          "2": 1.1633049560983146,
          "3": 0.5294965777883365,
          "4": -1.3731333192239612,
          "5": -0.9681716804414562,
          "6": 1.2622039691825258,
          "7": 1.2243946739901448
        }
      },
      "36": {
        "bias": 0.1312616429162421,
        "weights": {
          "0": -1.2439368546666394,
          "1": 1.0901521164764523,
          "2": -1.1517817608645904,
          "3": -0.34461819798879534,
          "4": -1.1037316521744809,
          "5": 0.9414202126732004,
          "6": -1.0625211759689606,
          "7": 0.06832952910371766
        }
      },
      "37": {
        "bias": -0.04832519131073698,
        "weights": {
          "0": 0.2417443085590108,
          "1": -0.7609317321114992,
          "2": -0.7165637183420656,
          "3": -0.27277120398440335,
          "4": 0.16934327571706656,
          "5": -0.7946507580872262,
          "6": -0.561233462629643,
          "7": -0.43463282552247595
        }
      },
      "38": {
        "bias": 0.15732157628698393,
        "weights": {
          "0": 0.22899376914233202,
          "1": 0.9669686550325617,
          "2": -0.9732448752664289,
          "3": -2.414913165386271,
          "4": 0.24690663631383536,
          "5": 0.9738221543328023,
          "6": -0.1179632642616157,
          "7": -2.4867364517948642
        }
      },
      "39": {
        "bias": -0.051863466216187905,
        "weights": {
          "0": -0.5445859284493106,
          "1": -0.07783645330431072,
          "2": -0.7855049264305232,
          "3": -0.05700813499394538,
          "4": -0.33498543153463667,
          "5": -0.12111835803595591,
          "6": -0.8268657018368448,
          "7": -0.42726162262899886
        }
      },
      "40": {
        "bias": -0.9135317239339558,
        "weights": {
          "0": 1.0976921682580552,
          "1": 1.2869731796853516,
          "2": -0.837769461368675,
          "3": 0.2741797696128353,
          "4": 1.0687734092037657,
          "5": 1.3210131863028987,
          "6": -0.5625143101602279,
          "7": 0.3905106368663127
        }
      },
      "41": {
        "bias": 0.23925449472859311,
        "weights": {
          "0": -1.2205606482659646,
          "1": -0.45285443854747126,
          "2": -0.9084860437227725,
          "3": -0.29368718961149026,
          "4": -1.1961175604002465,
          "5": -0.2812790060375114,
          "6": -0.5503059400126827,
          "7": -0.5072041149217363
        }
      },
      "42": {
        "bias": -0.12512731654915543,
        "weights": {
          "0": 0.7703692278671337,
          "1": -0.030648410146269168,
          "2": 1.33911258996199,
          "3": 0.20839630070344523,
          "4": 0.6882628309383066,
          "5": -0.031208490495496028,
          "6": -1.1178151175246565,
          "7": -0.015041338473198879
        }
      },
      "43": {
        "bias": -0.6361532495186715,
        "weights": {
          "0": -3.930472349170121,
          "1": -1.3991183897192818,
          "2": 0.08823947235670333,
          "3": 1.7737266462358545,
          "4": -3.9370510079998753,
          "5": -1.4194242930546568,
          "6": 0.4613885098484168,
          "7": 2.0385065319264575
        }
      },
      "44": {
        "bias": 1.9175582488028802,
        "weights": {
          "0": -2.625563411227289,
          "1": -1.7704277391087067,
          "2": -0.74896531717298,
          "3": -2.930798868545332,
          "4": -2.5633565019552513,
          "5": -1.8160458554787682,
          "6": -0.648918922289565,
          "7": 1.9410557827212165
        }
      },
      "45": {
        "bias": -0.7353257811555859,
        "weights": {
          "0": -2.5738230211714814,
          "1": -1.3538312523800302,
          "2": -0.24418319597227514,
          "3": -5.802351867938451,
          "4": -2.584569076215999,
          "5": -1.3471566216439474,
          "6": -1.0158819214997137,
          "7": 4.61514213991572
        }
      },
      "46": {
        "bias": 1.146368030707405,
        "weights": {
          "0": -2.0184526138352528,
          "1": -0.9020258789019926,
          "2": -0.6956344933042989,
          "3": -1.250839667531293,
          "4": -1.8549901405303002,
          "5": -0.9584946750771333,
          "6": -0.5299293346109418,
          "7": -0.025280410441488772
        }
      },
      "47": {
        "bias": -0.6196567525083129,
        "weights": {
          "0": -0.43893526355589224,
          "1": -0.15405364073839337,
          "2": 2.394282635598236,
          "3": 0.5084834407164847,
          "4": -0.5130593692438382,
          "5": -0.09955296619975493,
          "6": 2.412744554028138,
          "7": -2.550507525548158
        }
      },
      "48": {
        "bias": -0.3513046486079439,
        "weights": {
          "0": -0.3721438293581877,
          "1": -0.2751239579371769,
          "2": -0.3906279315229453,
          "3": -0.49719608970618845,
          "4": -0.3257226220459254,
          "5": -0.22615031117306414,
          "6": -0.6342292123811338,
          "7": -0.38241194141130824
        }
      },
      "49": {
        "bias": 0.3900921292832314,
        "weights": {
          "0": -0.841739170854196,
          "1": 0.22560999217312777,
          "2": -1.3328853932193505,
          "3": -0.18323109046914654,
          "4": -0.8739395830531863,
          "5": 0.17820709043988897,
          "6": -0.9190920973449386,
          "7": -0.20817765008337258
        }
      },
      "50": {
        "bias": 4.574218103074094,
        "weights": {
          "0": 3.425106791758883,
          "1": 0.8247846044574981,
          "2": -6.789914585523884,
          "3": -4.361804570195554,
          "4": 3.426650702704606,
          "5": 0.8115817254341554,
          "6": -6.846875857220743,
          "7": -3.92319993986238
        }
      },
      "51": {
        "bias": -0.6764794566498383,
        "weights": {
          "0": -0.38620759549734823,
          "1": 0.1574115114459539,
          "2": 1.769804465325201,
          "3": -0.7882972592851006,
          "4": -0.14937617145639323,
          "5": 0.13303505986094152,
          "6": 1.6119333470662638,
          "7": -0.6083118868613648
        }
      },
      "52": {
        "bias": -0.18654225740657387,
        "weights": {
          "0": 0.5956535759968412,
          "1": -1.0440340198055058,
          "2": -0.6837626801926374,
          "3": -0.8335776015364674,
          "4": 0.8327212913340345,
          "5": -1.0179229547184556,
          "6": -0.42421412079099946,
          "7": -0.43686706218022936
        }
      },
      "53": {
        "bias": -1.1279694681348391,
        "weights": {
          "0": 1.121756024062763,
          "1": 0.4632953333619977,
          "2": -1.054531110216493,
          "3": 0.03351757587584705,
          "4": 1.1576678125205333,
          "5": 0.37909586055610595,
          "6": 0.5812643169056959,
          "7": 0.4818279121946713
        }
      },
      "54": {
        "bias": -0.23201035222894098,
        "weights": {
          "0": 0.3212303165661136,
          "1": -0.8225609775136238,
          "2": -0.3234324686138673,
          "3": 0.2967034404365762,
          "4": 0.11364426248007822,
          "5": -0.7875641392369663,
          "6": -0.7411252095895793,
          "7": -1.3147530603877278
        }
      },
      "55": {
        "bias": 0.03962442118294048,
        "weights": {
          "0": -1.1956662977963677,
          "1": -0.5743366963084833,
          "2": -0.42342671094950457,
          "3": -0.4460403791356691,
          "4": -1.4368607935558488,
          "5": -0.8983730301853088,
          "6": -0.5045902010537904,
          "7": -0.5150515027807409
        }
      },
      "56": {
        "bias": 3.354646479021715,
        "weights": {
          "0": -2.7957204098673127,
          "1": 0.17764391047853334,
          "2": -3.7092980423342232,
          "3": 0.752113261799882,
          "4": -2.7168473081947657,
          "5": 0.1430384710625794,
          "6": -3.1947688312146134,
          "7": -2.7455753661584463
        }
      },
      "57": {
        "bias": 1.0347663276803276,
        "weights": {
          "0": -4.779759752576423,
          "1": -2.1136312940203275,
          "2": -0.647591850357435,
          "3": 2.6110681473615323,
          "4": -4.779237311668995,
          "5": -2.1247585615156144,
          "6": -0.42942314860829167,
          "7": 2.710383985536561
        }
      },
      "58": {
        "bias": 0.866407930102401,
        "weights": {
          "0": -1.6837229004999397,
          "1": -0.6779789530814108,
          "2": -1.1174054914688254,
          "3": -0.5446249640393088,
          "4": -1.7112894110170773,
          "5": -0.32151798872230236,
          "6": -0.47058962948768257,
          "7": -0.2238612154482089
        }
      },
      "59": {
        "bias": 0.1303883579669962,
        "weights": {
          "0": 0.958699403210633,
          "1": -3.0563746566954912,
          "2": -1.1026808587593326,
          "3": 0.9374365398928675,
          "4": 0.7095466492147546,
          "5": -2.9717608025971676,
          "6": -1.0604958324335911,
          "7": -2.4849657068096507
        }
      },
      "60": {
        "bias": 1.1578671419187125,
        "weights": {
          "0": -3.479248588212013,
          "1": -2.0394013005076923,
          "2": -0.21201739695973099,
          "3": 4.3968676383856256,
          "4": -3.4640414084162403,
          "5": -2.039103305265976,
          "6": -1.4338296511096615,
          "7": -4.945034658941442
        }
      },
      "61": {
        "bias": 0.5439531340133319,
        "weights": {
          "0": -0.42142898173320253,
          "1": 0.915040447266854,
          "2": -1.7645355828052036,
          "3": -0.9219666003267885,
          "4": 0.2563318529895112,
          "5": 0.9496580953950058,
          "6": -1.6932243484333782,
          "7": -0.7851705612465835
        }
      },
      "62": {
        "bias": -0.18653956473213648,
        "weights": {
          "0": 0.8030777412009297,
          "1": 0.8049816996653365,
          "2": -0.24803371046419373,
          "3": -0.18686816077840143,
          "4": 0.6716526796235925,
          "5": 0.7881913526457909,
          "6": -0.016836518371225954,
          "7": -0.013517373200064802
        }
      },
      "63": {
        "bias": -0.44064434789270757,
        "weights": {
          "0": -0.10004606802838101,
          "1": 0.3403424031246847,
          "2": -0.5564856125590949,
          "3": -1.0513116268134963,
          "4": -0.07213807368352235,
          "5": 0.05437375804887085,
          "6": -0.204254799061299,
          "7": 0.04042797245423747
        }
      }
    },
    {
      "0": {
        "bias": 2.4704882771195407,
        "weights": {
          "0": -1.3530984667418042,
          "1": -0.13591085949631657,
          "2": 0.10411916588902755,
          "3": -0.5064375595532347,
          "4": -1.179208992404897,
          "5": -0.7557346301434718,
          "6": -0.3994500719432299,
          "7": -0.6951785290444371,
          "8": 8.404794522886984,
          "9": -0.32414272535081606,
          "10": -1.4422291350736633,
          "11": -0.9313165662507946,
          "12": -1.8800608498601437,
          "13": 0.6295034310914582,
          "14": -0.2424648729670116,
          "15": 0.1962112252574741,
          "16": 0.0676074577575055,
          "17": 1.6891283125382797,
          "18": -0.4897350177715322,
          "19": -1.7608492491664605,
          "20": -0.4837994463073344,
          "21": 4.124638785077596,
          "22": -1.8067532594683717,
          "23": -0.9039332954147687,
          "24": 0.09158039923022518,
          "25": 0.8441957026036478,
          "26": -0.7185782461533922,
          "27": 1.6144094837284433,
          "28": -0.6585985146238431,
          "29": 0.876508314289838,
          "30": 4.055753443713709,
          "31": 1.7027158148497477,
          "32": -1.3421224240450664,
          "33": 1.052247392819988,
          "34": -1.5085891801255011,
          "35": -1.7641029319519042,
          "36": -0.9123574761056092,
          "37": -0.3780975856401262,
          "38": 0.21098864084615776,
          "39": -0.7224061408152872,
          "40": 2.0364572866623116,
          "41": -1.495165663032751,
          "42": 0.46981007921130924,
          "43": -1.6623529749080106,
          "44": -2.454799323995696,
          "45": -0.8800945927051051,
          "46": -2.3875199642633502,
          "47": -0.5052552497822737,
          "48": -0.6521472011101007,
          "49": -1.0983780837470163,
          "50": 2.5223980373071004,
          "51": 1.0369294997992409,
          "52": 0.33149883220532167,
          "53": 1.8081219834672466,
          "54": -0.1864135719520962,
          "55": -1.4052585256290577,
          "56": -2.8914842768105817,
          "57": -2.7492239497838975,
          "58": -1.910727888960157,
          "59": 0.018969853106452803,
          "60": -2.3070338230341716,
          "61": 0.8690732460960543,
          "62": 1.3513783778342785,
          "63": 0.3307262915161059
        }
      },
      "1": {
        "bias": 0.42162376577288224,
        "weights": {
          "0": -0.12707028223558614,
          "1": 2.301615658108478,
          "2": -0.2010659824864193,
          "3": -1.1791473713379588,
          "4": -0.06077578816892756,
          "5": -0.7336042870877435,
          "6": -2.7808438776688154,
          "7": 12.186295809685882,
          "8": -11.879634201603455,
          "9": -4.9592138089805715,
          "10": -0.058203600083967674,
          "11": -0.7728729384991265,
          "12": -2.5101730738766515,
          "13": -2.9933214499293355,
          "14": -0.7022733174746782,
          "15": -0.8452575885864013,
          "16": 1.912819470192607,
          "17": -1.5061814358522876,
          "18": 0.9341981976764581,
          "19": -2.370887174222748,
          "20": 3.7417085509609733,
          "21": 1.3599378989756894,
          "22": 4.643688824735636,
          "23": -0.5645364824492807,
          "24": -1.6430669755036014,
          "25": -1.9001333109156004,
          "26": -1.3469170143010516,
          "27": -15.046562362627649,
          "28": -0.9951447831873971,
          "29": -4.60307613575059,
          "30": 16.620913159792206,
          "31": 0.9229588752405345,
          "32": 0.11142741655256545,
          "33": 4.033736899566087,
          "34": 0.09370939231198051,
          "35": 1.8018150335074863,
          "36": -1.1673235822311825,
          "37": -1.4208186593480552,
          "38": -0.15577839638722618,
          "39": -0.9679438607521748,
          "40": -1.4664639775021375,
          "41": 0.04760377383786989,
          "42": -0.8751068147916277,
          "43": 3.436280021083418,
          "44": 1.7992065869176845,
          "45": -2.0894021188669525,
          "46": 0.6472742067668338,
          "47": -0.970496652871439,
          "48": -0.7172965530623805,
          "49": -0.9516470977508884,
          "50": -3.358923949373918,
          "51": -0.6124959331096688,
          "52": -1.857723536200766,
          "53": -0.581577493568897,
          "54": -1.5745285000295313,
          "55": 0.37973947263047686,
          "56": -1.13785388398965,
          "57": 1.0893668652699187,
          "58": 0.5916505142380366,
          "59": -4.065075454382585,
          "60": 0.6920091977993355,
          "61": -3.3374382348978546,
          "62": -1.4301753705795,
          "63": -1.1536307454389503
        }
      },
      "2": {
        "bias": -2.0086872481889815,
        "weights": {
          "0": 1.0291275907238324,
          "1": -1.63905310336176,
          "2": -3.6660675140412837,
          "3": 0.7369341700137907,
          "4": 1.0879748005806575,
          "5": 0.7893476302841967,
          "6": -0.5157617356317681,
          "7": 15.780996556026844,
          "8": -2.454870594159231,
          "9": -4.7109484991373805,
          "10": 1.1524383453442328,
          "11": 0.15161351051775396,
          "12": 6.639829794559542,
          "13": 1.3436428005388221,
          "14": -0.43566112567660303,
          "15": 0.8298882592688213,
          "16": -4.620287394147616,
          "17": -0.035089009690258216,
          "18": -2.9588833607170653,
          "19": 7.41518688867293,
          "20": -9.960102847023402,
          "21": -4.216516403306643,
          "22": -2.104654565366612,
          "23": 0.33414004151131194,
          "24": -0.429016718532878,
          "25": -0.46034291438099606,
          "26": 0.9047765324513629,
          "27": 14.517624403841817,
          "28": 0.29038105950030885,
          "29": -0.548065051965198,
          "30": -0.3031221063027541,
          "31": -0.8130594230173208,
          "32": 0.7661502026008866,
          "33": -9.114584050473548,
          "34": 0.8197761633844216,
          "35": 0.3941518455879678,
          "36": 1.423836552496843,
          "37": 0.1702275908398602,
          "38": 2.3430790295534027,
          "39": 0.5896568100684766,
          "40": 0.19508589014273364,
          "41": 1.0117230807144812,
          "42": -0.997536921213739,
          "43": -0.25879049242409286,
          "44": 1.4327120715703074,
          "45": -1.95981318392969,
          "46": 1.5597297110072623,
          "47": -0.44828902173254553,
          "48": 0.22123638832308642,
          "49": 1.3183772619363971,
          "50": -11.687907737891717,
          "51": -0.5652725924434003,
          "52": -0.23202741119351292,
          "53": 0.43691946663924897,
          "54": -0.10105217158264423,
          "55": 0.960426089255987,
          "56": 5.907003147693802,
          "57": 1.4407144429127365,
          "58": 1.7750693265560848,
          "59": -1.5528831472312987,
          "60": -1.9723435332231347,
          "61": 0.9059510995598196,
          "62": -0.08938266926503474,
          "63": 0.42448838746195994
        }
      },
      "3": {
        "bias": 0.28674056162257333,
        "weights": {
          "0": -0.023448067348094508,
          "1": -15.386443815567317,
          "2": 2.951299939647266,
          "3": 0.0014831344018644023,
          "4": 0.05395188217092947,
          "5": -0.13603583107099104,
          "6": -0.6544268373887107,
          "7": -0.9035174507720645,
          "8": 2.326450191091381,
          "9": -2.079834441804845,
          "10": -0.11284207634629122,
          "11": 0.725383400219096,
          "12": 1.1399632950650591,
          "13": 0.4416371828732647,
          "14": 1.2221925612479458,
          "15": -2.2505234086009724,
          "16": 0.3883910900705403,
          "17": 2.2422221607385437,
          "18": -3.664505273433647,
          "19": -0.10062751104691503,
          "20": 4.446619395357041,
          "21": -10.971046071368576,
          "22": 1.7213036668772257,
          "23": 0.23867635842298485,
          "24": 0.24412723904227823,
          "25": -1.8868824977899883,
          "26": -4.070156853007037,
          "27": 2.2537922629127545,
          "28": -2.826430982806469,
          "29": 1.0743603292955546,
          "30": 0.8362515731507327,
          "31": -12.19758603728291,
          "32": 0.06557567210692282,
          "33": -15.485202509840404,
          "34": 0.6031678209312185,
          "35": 2.40412463048295,
          "36": -1.8792229024289522,
          "37": -0.17017398723969687,
          "38": -2.7842857727819443,
          "39": -0.22850309335070856,
          "40": 2.098493096262404,
          "41": 0.04668031865317435,
          "42": 2.24186833372735,
          "43": -4.619017869197421,
          "44": 3.420857616614967,
          "45": 7.474767280179185,
          "46": 1.1083957687700343,
          "47": 3.219981027652257,
          "48": 0.07806157667023596,
          "49": -0.6068187280919424,
          "50": 12.367485124597355,
          "51": 2.5315179298439334,
          "52": -0.027679619228830374,
          "53": 2.1192348057378174,
          "54": 0.49965748382287634,
          "55": 0.41012124909360687,
          "56": 1.4373810832895397,
          "57": -6.46714134331655,
          "58": 0.0192944549383888,
          "59": 0.8320005692015636,
          "60": 7.967575252831123,
          "61": 0.30981912522032207,
          "62": 0.760604361997862,
          "63": 0.22213064424520984
        }
      }
    }
  ],
  "outputLookup": false,
  "inputLookup": false,
  "networkData": {
    "trainingOptions": {
      "errorThresh": 0.005,
      "iterations": 100000000,
      "log": true,
      "logPeriod": 100,
      "learningRate": 0.1
    }
  }
}
